1.235599443316459656e-01,4.009456634521484375e-01,8.748123645782470703e-01,4.545439779758453369e-01,6.002792119979858398e-01,-8.011534810066223145e-03,1.445312500000000000e-01,2.496698498725891113e-01,4.240415692329406738e-01,5.509636998176574707e-01,-3.193685114383697510e-01,5.217974781990051270e-01,8.950887918472290039e-01,9.070054292678833008e-01,2.461039870977401733e-01,4.950655698776245117e-01,2.827861607074737549e-01,9.084011912345886230e-01,2.462766319513320923e-01,1.908171474933624268e-01,6.071315407752990723e-01,8.892067074775695801e-01,4.273300766944885254e-01,4.912704229354858398e-01,1.474337577819824219e-01,6.295686960220336914e-01,4.701101779937744141e-01,4.705860018730163574e-01,7.196528911590576172e-01,3.572668135166168213e-01,3.032657504081726074e-02,1.446800958365201950e-02,-8.135851621627807617e-01,2.932494580745697021e-01,9.059990048408508301e-01,2.642001509666442871e-01,8.915753662586212158e-02,8.270958811044692993e-02,4.217499792575836182e-01,7.680637836456298828e-01,8.083787560462951660e-01,7.233886122703552246e-01,-1.038946509361267090e-01,3.246571421623229980e-01,-9.849451780319213867e-01,7.946613430976867676e-01,5.374158024787902832e-01,1.387754678726196289e-01,-8.546349406242370605e-01,3.885771334171295166e-01
6.775316596031188965e-02,3.583908081054687500e-01,3.821190595626831055e-01,3.798619210720062256e-01,9.453288912773132324e-01,2.355688214302062988e-01,5.446593090891838074e-02,2.816857993602752686e-01,3.793572783470153809e-01,-2.843680381774902344e-01,4.417969584465026855e-01,5.178537368774414062e-01,9.628058224916458130e-02,5.601827427744865417e-02,1.841699928045272827e-01,4.893225133419036865e-01,1.981713622808456421e-01,9.573358297348022461e-01,-9.848596453666687012e-01,2.816585898399353027e-01,4.642180502414703369e-01,-9.025452136993408203e-01,4.348290860652923584e-01,4.994490146636962891e-01,2.849001884460449219e-01,-4.521916508674621582e-01,4.718403518199920654e-01,4.079654216766357422e-01,-9.873933196067810059e-01,-9.832950234413146973e-01,3.524278700351715088e-01,3.112800121307373047e-01,-8.844302296638488770e-01,2.925198972225189209e-01,-9.987933635711669922e-01,2.485183179378509521e-01,1.258807331323623657e-01,9.163130521774291992e-01,3.314947783946990967e-01,3.291124701499938965e-01,7.727773785591125488e-01,7.722159028053283691e-01,4.240760505199432373e-01,2.262703180313110352e-01,-9.848180413246154785e-01,5.614117383956909180e-01,7.676997184753417969e-01,-6.143446266651153564e-02,-9.987966418266296387e-01,3.993574976921081543e-01
1.996916234493255615e-01,3.844169676303863525e-01,-9.789038896560668945e-01,2.645847201347351074e-01,-5.852210521697998047e-01,2.326542288064956665e-01,5.469089746475219727e-01,2.294438630342483521e-01,3.363295495510101318e-01,4.586989581584930420e-01,-9.916507601737976074e-01,4.925550818443298340e-01,-9.999613761901855469e-01,9.920271039009094238e-01,4.584070742130279541e-01,4.552825391292572021e-01,2.247705757617950439e-01,5.111124515533447266e-01,5.608885288238525391e-01,-3.975012898445129395e-01,6.745290160179138184e-01,-3.494588136672973633e-01,3.543038368225097656e-01,4.132403135299682617e-01,3.149777948856353760e-01,5.594507455825805664e-01,4.993567168712615967e-01,3.589220941066741943e-01,7.960870862007141113e-01,-2.333117574453353882e-01,3.490701615810394287e-01,2.987550497055053711e-01,-8.796725273132324219e-01,4.428313076496124268e-01,-9.994685649871826172e-01,3.055640161037445068e-01,3.323011696338653564e-01,-8.602195978164672852e-01,3.000195622444152832e-01,6.108332276344299316e-01,6.973749995231628418e-01,7.982876300811767578e-01,5.811565518379211426e-01,3.021452128887176514e-01,-3.406234085559844971e-01,3.837875425815582275e-01,4.091763198375701904e-01,3.330441117286682129e-01,-1.242315992712974548e-01,-9.821164011955261230e-01
3.900215923786163330e-01,2.932173907756805420e-01,8.884723782539367676e-01,-3.926446139812469482e-01,7.303183674812316895e-01,3.904503881931304932e-01,6.158300042152404785e-01,7.962572574615478516e-01,2.289143949747085571e-01,8.178160786628723145e-01,-9.951499104499816895e-01,5.234736800193786621e-01,8.004685044288635254e-01,3.539644554257392883e-02,4.533657133579254150e-01,3.331020176410675049e-01,-4.920388106256723404e-03,-2.561315894126892090e-01,4.730601608753204346e-01,3.265319466590881348e-01,6.717032194137573242e-01,-9.999510049819946289e-01,3.329774737358093262e-01,3.249663114547729492e-01,2.273346185684204102e-01,7.172028422355651855e-01,3.980209529399871826e-01,3.506036996841430664e-01,-2.438602745532989502e-01,5.572203397750854492e-01,9.106510877609252930e-01,-8.936042189598083496e-01,6.177160739898681641e-01,4.466465413570404053e-01,-9.964628815650939941e-01,3.946247398853302002e-01,4.442965090274810791e-01,-9.999852776527404785e-01,4.208459556102752686e-01,6.751466393470764160e-01,-1.823849081993103027e-01,8.195679783821105957e-01,3.918012678623199463e-01,5.094884037971496582e-01,-8.770844936370849609e-01,4.980881512165069580e-01,4.626913368701934814e-01,4.392004013061523438e-01,9.250891804695129395e-01,-9.994006156921386719e-01
4.498175382614135742e-01,3.299533426761627197e-01,-9.946252107620239258e-01,2.469931840896606445e-01,1.944767683744430542e-01,4.275076091289520264e-01,-7.067389488220214844e-01,-9.925602674484252930e-01,2.401217520236968994e-01,8.088470697402954102e-01,-9.941999316215515137e-01,5.347096323966979980e-01,-7.700673937797546387e-01,2.454839497804641724e-01,3.989372551441192627e-01,-5.292280018329620361e-02,4.379737675189971924e-01,-2.049403935670852661e-01,4.700843393802642822e-01,8.326698541641235352e-01,1.298828423023223877e-01,-5.510167479515075684e-01,3.206086754798889160e-01,2.491689026355743408e-01,1.557284295558929443e-01,-5.225178003311157227e-01,3.944605886936187744e-01,3.904820978641510010e-01,-1.895514279603958130e-01,-7.778504490852355957e-01,-3.101347982883453369e-01,5.295732021331787109e-01,7.454357743263244629e-01,4.889150336384773254e-02,-9.487937092781066895e-01,3.644141852855682373e-01,5.705664157867431641e-01,9.036491066217422485e-02,3.462693095207214355e-01,5.951828956604003906e-01,6.791518926620483398e-01,7.926633358001708984e-01,2.100823819637298584e-01,4.725262224674224854e-01,-4.161936640739440918e-01,4.539356529712677002e-01,4.483314752578735352e-01,2.942073345184326172e-01,7.046965956687927246e-01,2.930146753787994385e-01
-1.545770168304443359e-01,4.090856909751892090e-01,7.210879921913146973e-01,4.677076637744903564e-01,-4.308523535728454590e-01,4.379262030124664307e-01,5.775834321975708008e-01,6.023309826850891113e-01,5.475711226463317871e-01,6.465259194374084473e-01,-9.878330230712890625e-01,4.884992241859436035e-01,-9.998048543930053711e-01,-3.722515702247619629e-01,4.872373044490814209e-01,3.406655788421630859e-01,3.870845735073089600e-01,-4.371094703674316406e-01,4.293150007724761963e-01,7.015184760093688965e-01,6.753959655761718750e-01,9.362941235303878784e-02,4.135295748710632324e-01,3.202990591526031494e-01,2.896131575107574463e-01,7.683350443840026855e-01,4.316920936107635498e-01,3.731862008571624756e-01,-5.103752613067626953e-01,6.655695438385009766e-01,8.533507585525512695e-02,5.154055953025817871e-01,7.486640214920043945e-01,4.970384240150451660e-01,-9.689165353775024414e-01,5.051119923591613770e-01,5.156064629554748535e-01,2.883521281182765961e-02,2.801109552383422852e-01,3.956060409545898438e-01,5.553705096244812012e-01,7.978853583335876465e-01,6.147719025611877441e-01,3.751716613769531250e-01,6.647706627845764160e-01,5.983477234840393066e-01,4.376308619976043701e-01,4.423112273216247559e-01,-9.471940249204635620e-02,2.401867657899856567e-01
4.567842781543731689e-01,3.937124609947204590e-01,-9.266476035118103027e-01,2.997574806213378906e-01,-5.620711445808410645e-01,4.307609796524047852e-01,5.752714276313781738e-01,8.348889946937561035e-01,3.908313512802124023e-01,3.037863969802856445e-01,-9.880228042602539062e-01,5.036309957504272461e-01,9.603285193443298340e-01,2.436331510543823242e-01,1.905921250581741333e-01,3.215589225292205811e-01,4.520764648914337158e-01,-2.715514004230499268e-01,4.993990361690521240e-01,4.220701158046722412e-01,6.685094237327575684e-01,-7.407982349395751953e-01,4.214850664138793945e-01,3.389734923839569092e-01,3.070041537284851074e-01,7.538201808929443359e-01,3.496476411819458008e-01,3.996421694755554199e-01,5.204195976257324219e-01,2.641009688377380371e-01,8.163291811943054199e-01,6.403722167015075684e-01,8.185569643974304199e-01,4.398810267448425293e-01,-9.515430927276611328e-01,4.814142286777496338e-01,4.781205058097839355e-01,2.549210786819458008e-01,2.504549622535705566e-01,-8.789200186729431152e-01,5.418552756309509277e-01,6.433589458465576172e-01,5.738440155982971191e-01,3.051392436027526855e-01,3.856303095817565918e-01,-9.575427174568176270e-01,4.085968434810638428e-01,-2.876802347600460052e-03,7.206883430480957031e-01,-9.284337162971496582e-01
4.222855865955352783e-01,3.869688510894775391e-01,-4.711431264877319336e-01,4.026855826377868652e-01,-1.327758133411407471e-01,4.505275189876556396e-01,-3.636814057826995850e-01,9.597968459129333496e-01,2.975086569786071777e-01,2.933722436428070068e-01,-9.888940453529357910e-01,5.661394000053405762e-01,9.798715114593505859e-01,-3.702792823314666748e-01,3.522970676422119141e-01,3.192176520824432373e-01,4.190284013748168945e-01,-1.846936941146850586e-01,4.343592822551727295e-01,4.485032334923744202e-02,6.138582229614257812e-01,-9.999712109565734863e-01,5.415040254592895508e-01,3.921224474906921387e-01,2.627930343151092529e-01,7.081276178359985352e-01,2.897450923919677734e-01,1.661896407604217529e-01,-3.343840241432189941e-01,-3.672532141208648682e-01,-6.345264613628387451e-03,4.776091873645782471e-01,8.212392330169677734e-01,-9.631893634796142578e-01,2.902922630310058594e-01,4.459002912044525146e-01,4.656796753406524658e-01,4.800231754779815674e-01,2.400272041559219360e-01,4.388879537582397461e-01,-4.261427223682403564e-01,-9.993991851806640625e-01,5.555911660194396973e-01,4.434326589107513428e-01,5.717218518257141113e-01,-9.422031641006469727e-01,5.619211792945861816e-01,4.975063800811767578e-01,3.690129518508911133e-01,-7.631436586380004883e-01
3.877376317977905273e-01,3.401382565498352051e-01,-6.600481271743774414e-01,3.380371928215026855e-01,2.264489531517028809e-01,5.208159685134887695e-01,-9.173634648323059082e-01,8.818119764328002930e-01,-1.347787082195281982e-01,8.477137982845306396e-02,-9.610278010368347168e-01,5.232008099555969238e-01,9.086189866065979004e-01,-3.063966333866119385e-01,4.701445102691650391e-01,4.175145924091339111e-01,4.150901734828948975e-01,-2.936553359031677246e-01,3.482311069965362549e-01,-8.588793873786926270e-01,5.748597979545593262e-01,4.139655828475952148e-01,5.172807574272155762e-01,3.470458984375000000e-01,3.486985266208648682e-01,6.307778358459472656e-01,3.548538088798522949e-01,1.004206612706184387e-01,-6.986355185508728027e-01,-5.270515084266662598e-01,-1.449113935232162476e-01,5.079240798950195312e-01,8.202505707740783691e-01,6.532086133956909180e-01,-8.854324221611022949e-01,-9.958585500717163086e-01,4.705327153205871582e-01,4.751539230346679688e-01,2.077063918113708496e-01,-3.272970020771026611e-01,5.890015959739685059e-01,1.558811366558074951e-01,2.437673360109329224e-01,4.605996906757354736e-01,5.583190321922302246e-01,-7.200745344161987305e-01,8.777920603752136230e-01,4.726102352142333984e-01,-8.296923041343688965e-01,7.861309051513671875e-01
-9.849718809127807617e-01,4.032869040966033936e-01,6.152747869491577148e-01,8.015711307525634766e-01,5.551180243492126465e-01,5.168865919113159180e-01,-8.456975817680358887e-01,6.868491768836975098e-01,6.886994838714599609e-01,2.314567118883132935e-01,-8.934264183044433594e-01,4.948109984397888184e-01,5.353689789772033691e-01,-3.564212322235107422e-01,4.444625079631805420e-01,7.733197212219238281e-01,3.905421495437622070e-01,-3.138871490955352783e-01,2.278314232826232910e-01,3.754190206527709961e-01,5.025653243064880371e-01,2.481040805578231812e-01,4.385828971862792969e-01,3.882286250591278076e-01,-9.914214611053466797e-01,5.496968626976013184e-01,2.800922393798828125e-01,1.270310282707214355e-01,-4.970550239086151123e-01,-1.517505198717117310e-01,7.879576086997985840e-01,9.248481988906860352e-01,7.346854805946350098e-01,4.498429894447326660e-01,-6.098287701606750488e-01,-7.473888993263244629e-01,4.660301804542541504e-01,4.489264786243438721e-01,3.673168718814849854e-01,5.575932860374450684e-01,7.420120239257812500e-01,7.503995299339294434e-01,5.496862530708312988e-01,5.297356247901916504e-01,-9.991562366485595703e-01,-8.598613739013671875e-01,9.061456322669982910e-01,4.455432891845703125e-01,-9.177219867706298828e-01,7.712273001670837402e-01
4.531469345092773438e-01,3.767949044704437256e-01,7.179771065711975098e-01,-9.850407838821411133e-01,-3.307645320892333984e-01,5.182123780250549316e-01,2.728348076343536377e-01,1.079524904489517212e-01,2.408405840396881104e-01,8.226329088211059570e-01,-8.265767097473144531e-01,4.939485490322113037e-01,4.662002325057983398e-01,6.086219549179077148e-01,4.102831482887268066e-01,9.056036472320556641e-01,1.640757173299789429e-01,-7.407896518707275391e-01,1.037188172340393066e-01,-5.070126652717590332e-01,4.993211627006530762e-01,-2.559218406677246094e-01,5.009015798568725586e-01,1.781461983919143677e-01,5.726876854896545410e-01,4.457109570503234863e-01,2.653181254863739014e-01,-3.445605188608169556e-02,5.150296688079833984e-01,-7.093865275382995605e-01,7.803782820701599121e-01,8.875306248664855957e-01,4.875554740428924561e-01,3.839119076728820801e-01,-9.890584349632263184e-01,-9.999557733535766602e-01,3.923500776290893555e-01,5.144269466400146484e-01,2.909032404422760010e-01,4.994863271713256836e-01,3.240815401077270508e-01,5.527765154838562012e-01,3.764255642890930176e-01,4.916230440139770508e-01,7.332757115364074707e-01,-8.718835115432739258e-01,3.299261033535003662e-01,4.195905625820159912e-01,5.461577773094177246e-01,5.317484140396118164e-01
2.609855532646179199e-01,-2.632983028888702393e-01,6.752156019210815430e-01,8.668569922447204590e-01,4.001091420650482178e-01,5.140221714973449707e-01,2.599709033966064453e-01,1.261265426874160767e-01,5.530940890312194824e-01,-9.999584555625915527e-01,-7.391861081123352051e-01,-9.704436063766479492e-01,4.256681799888610840e-01,5.597967505455017090e-01,-1.502116918563842773e-01,7.345532178878784180e-01,-1.258831471204757690e-01,1.946527510881423950e-01,2.044990807771682739e-01,-4.717815816402435303e-01,4.359693527221679688e-01,5.052453279495239258e-01,1.205459684133529663e-01,-9.890330433845520020e-01,-5.328450798988342285e-01,3.978642821311950684e-01,1.068783029913902283e-01,2.423823922872543335e-01,1.726804971694946289e-01,-5.264714956283569336e-01,6.825783848762512207e-01,8.317081928253173828e-01,2.620604336261749268e-01,3.981930315494537354e-01,-9.970190525054931641e-01,4.092584252357482910e-01,3.520745038986206055e-01,4.335236549377441406e-01,2.760553359985351562e-01,-1.628990471363067627e-01,-6.025630831718444824e-01,5.319519639015197754e-01,5.628893971443176270e-01,4.262731671333312988e-01,6.644388437271118164e-01,-2.694283723831176758e-01,-2.858186662197113037e-01,-4.724285304546356201e-01,2.220182865858078003e-01,-1.555876731872558594e-01
-2.278437651693820953e-02,4.122446179389953613e-01,5.746487379074096680e-01,8.419446349143981934e-01,4.274310767650604248e-01,4.893123805522918701e-01,-3.486351370811462402e-01,-9.171310067176818848e-01,3.471623659133911133e-01,9.993441700935363770e-01,-1.154953986406326294e-01,6.752243638038635254e-01,3.425150513648986816e-01,5.174139142036437988e-01,2.347461879253387451e-01,6.837676763534545898e-01,5.487234517931938171e-02,-9.948899745941162109e-01,9.122920036315917969e-02,1.564936339855194092e-01,3.803916275501251221e-01,-8.579877018928527832e-01,5.361264348030090332e-01,8.089445829391479492e-01,3.591616749763488770e-01,3.261557519435882568e-01,2.684395061805844307e-03,2.216765582561492920e-01,1.090689674019813538e-01,-1.105362996459007263e-01,4.642848372459411621e-01,6.567634940147399902e-01,-2.633093111217021942e-02,3.229889571666717529e-01,8.688522577285766602e-01,4.983416199684143066e-01,2.047548294067382812e-01,1.307993382215499878e-01,2.976073324680328369e-01,3.746725618839263916e-01,6.496342420578002930e-01,4.069963395595550537e-01,5.706384181976318359e-01,3.698663711547851562e-01,5.924879312515258789e-01,-3.305723071098327637e-01,-2.792413234710693359e-01,4.611865580081939697e-01,5.943618416786193848e-01,3.861039280891418457e-01
4.226966202259063721e-01,3.575916886329650879e-01,6.992644667625427246e-01,-9.988210797309875488e-01,-4.317513406276702881e-01,4.865589141845703125e-01,-4.585015475749969482e-01,-5.105241537094116211e-01,9.949681162834167480e-01,9.978312253952026367e-01,-2.002416551113128662e-01,5.768319368362426758e-01,-1.807313561439514160e-01,6.194595098495483398e-01,3.882332146167755127e-01,2.115859277546405792e-02,7.888127118349075317e-02,-9.999080300331115723e-01,3.255644142627716064e-01,5.536956191062927246e-01,2.766109108924865723e-01,-8.087710738182067871e-01,4.791400432586669922e-01,6.444916725158691406e-01,3.450078070163726807e-01,3.211984038352966309e-01,4.876898825168609619e-01,-3.801124095916748047e-01,2.401290237903594971e-01,3.937398791313171387e-01,4.612545669078826904e-01,-3.958958685398101807e-01,-1.071696449071168900e-02,4.012656807899475098e-01,-9.997349381446838379e-01,4.796210527420043945e-01,3.133900761604309082e-01,3.176928758621215820e-01,3.629781603813171387e-01,4.938427507877349854e-01,6.194738149642944336e-01,-9.129092097282409668e-01,5.266224145889282227e-01,4.232766628265380859e-01,3.256337046623229980e-01,-2.491798698902130127e-01,-9.888311475515365601e-02,4.624900221824645996e-01,-6.513551473617553711e-01,6.431689262390136719e-01
9.135666489601135254e-01,4.318730533123016357e-01,7.104316353797912598e-01,-9.458549618721008301e-01,-4.890644550323486328e-01,4.318777322769165039e-01,-3.402902781963348389e-01,-4.873238801956176758e-01,-6.756951808929443359e-01,2.873976826667785645e-01,7.803373932838439941e-01,3.467294573783874512e-01,-8.941014409065246582e-01,-8.160647153854370117e-01,4.779223501682281494e-01,-9.083860516548156738e-01,3.693588078022003174e-01,-9.966898560523986816e-01,3.767367303371429443e-01,4.479635953903198242e-01,7.506558299064636230e-02,-7.163115143775939941e-01,4.822190105915069580e-01,6.443751454353332520e-01,2.262910008430480957e-01,1.123494282364845276e-01,4.481367468833923340e-01,-2.743113934993743896e-01,-9.955564141273498535e-01,-5.383921265602111816e-01,-3.741941452026367188e-01,-9.336068630218505859e-01,1.358936578035354614e-01,7.058039307594299316e-01,3.887223899364471436e-01,4.927645623683929443e-01,4.060350358486175537e-02,9.232234209775924683e-02,3.006674945354461670e-01,-2.475788444280624390e-01,4.739927127957344055e-02,2.836493253707885742e-01,5.107735991477966309e-01,3.286146819591522217e-01,2.424112111330032349e-01,-1.909940540790557861e-01,2.322205342352390289e-02,7.577021718025207520e-01,2.850642800331115723e-01,6.093392372131347656e-01
1.085087880492210388e-01,3.835503458976745605e-01,6.495984792709350586e-01,-9.999763369560241699e-01,-3.627677261829376221e-01,4.745013713836669922e-01,-3.758860230445861816e-01,-6.202904582023620605e-01,3.345603942871093750e-01,3.349519073963165283e-01,4.271262586116790771e-01,2.904365360736846924e-01,-9.373827576637268066e-01,7.635977268218994141e-01,5.255988240242004395e-01,5.996580719947814941e-01,5.204116702079772949e-01,-9.566729664802551270e-01,3.411403596401214600e-01,3.210032582283020020e-01,2.093353271484375000e-01,-4.950691461563110352e-01,5.056638121604919434e-01,4.599542617797851562e-01,2.726338207721710205e-01,2.301474213600158691e-01,4.455747902393341064e-01,9.002101421356201172e-01,-9.858331680297851562e-01,-9.664754271507263184e-01,-9.201990962028503418e-01,-7.776418924331665039e-01,4.452171027660369873e-01,8.152677416801452637e-01,3.898738026618957520e-01,-9.999413490295410156e-01,4.041530787944793701e-01,5.049927830696105957e-01,3.761402666568756104e-01,6.642584800720214844e-01,5.567020922899246216e-02,8.478726446628570557e-02,4.480597078800201416e-01,5.915582552552223206e-02,3.439875543117523193e-01,-3.250405490398406982e-01,-5.027757883071899414e-01,6.042411327362060547e-01,6.123865246772766113e-01,7.102504372596740723e-02
5.663075447082519531e-01,3.159974217414855957e-01,6.552923321723937988e-01,-6.610230803489685059e-01,-5.446683168411254883e-01,3.927712142467498779e-01,-2.603435814380645752e-01,-9.319617152214050293e-01,-9.161638617515563965e-01,8.719285726547241211e-01,7.787106633186340332e-01,3.036140501499176025e-01,-9.771436452865600586e-01,7.483431696891784668e-01,8.056668043136596680e-01,-6.776753664016723633e-01,5.437228679656982422e-01,-5.519555807113647461e-01,2.159929871559143066e-01,4.451003074645996094e-01,4.296956658363342285e-01,-1.985342055559158325e-01,4.678461849689483643e-01,4.674257040023803711e-01,2.136590927839279175e-01,4.851472675800323486e-01,3.728139996528625488e-01,3.657912313938140869e-01,6.702051758766174316e-01,-6.423145532608032227e-01,-7.606067657470703125e-01,-7.505262494087219238e-01,3.487824797630310059e-01,-4.159651398658752441e-01,7.786991000175476074e-01,-2.651998996734619141e-01,5.278304815292358398e-01,5.435879826545715332e-01,3.701062500476837158e-01,6.559045910835266113e-01,5.228924751281738281e-01,4.129796922206878662e-01,4.264215528964996338e-01,5.051342844963073730e-01,4.077699780464172363e-01,5.969939827919006348e-01,-9.722012877464294434e-01,8.541435748338699341e-02,5.797007679939270020e-01,5.341025590896606445e-01
4.706993699073791504e-01,3.210771083831787109e-01,4.790103435516357422e-01,-6.689738035202026367e-01,6.279251575469970703e-01,7.710388302803039551e-02,-2.015558183193206787e-01,-9.451322555541992188e-01,6.896051764488220215e-01,8.086303621530532837e-02,-3.128255903720855713e-01,3.444634974002838135e-01,-9.712025523185729980e-01,5.501446723937988281e-01,9.386588335037231445e-01,-9.537966847419738770e-01,4.843240082263946533e-01,6.168595552444458008e-01,1.367419958114624023e-01,6.056473851203918457e-01,3.209171295166015625e-01,6.805328279733657837e-02,3.324229121208190918e-01,4.692054390907287598e-01,-2.075963020324707031e-01,3.530078530311584473e-01,3.200815618038177490e-01,-1.054055541753768921e-01,5.493049025535583496e-01,-6.700324416160583496e-01,-7.238328456878662109e-01,-9.191698431968688965e-01,2.815342247486114502e-01,6.621099114418029785e-01,7.406884431838989258e-01,-9.870427250862121582e-01,5.059317350387573242e-01,5.154957175254821777e-01,4.528024196624755859e-01,5.568458437919616699e-01,3.313598036766052246e-01,-2.277067601680755615e-01,4.799963831901550293e-01,8.182430863380432129e-01,4.108727276325225830e-01,-2.074634581804275513e-01,-1.345275938510894775e-01,-4.309209063649177551e-02,5.407441854476928711e-01,6.630804538726806641e-01
4.910830855369567871e-01,1.994608491659164429e-01,2.875585556030273438e-01,-9.871394038200378418e-01,4.861763417720794678e-01,-4.193299263715744019e-02,-3.257967233657836914e-01,-8.931980729103088379e-01,5.823999643325805664e-01,-4.264868050813674927e-02,-9.617795944213867188e-01,3.575273454189300537e-01,4.170125126838684082e-01,2.811807096004486084e-01,2.076272666454315186e-01,4.703180491924285889e-01,4.178097844123840332e-01,-5.974312424659729004e-01,1.785498410463333130e-01,5.997433066368103027e-01,6.369246542453765869e-02,-1.215640604496002197e-01,2.102408260107040405e-01,4.362056851387023926e-01,-2.874255776405334473e-01,2.204684019088745117e-01,2.987394630908966064e-01,-3.023919165134429932e-01,4.350908994674682617e-01,-8.532295227050781250e-01,5.662347674369812012e-01,6.499372720718383789e-01,3.258514702320098877e-01,7.954691648483276367e-01,6.995715498924255371e-01,5.667428374290466309e-01,4.546025395393371582e-01,4.657491445541381836e-01,2.630411386489868164e-01,2.586154639720916748e-01,7.293980121612548828e-01,-1.278300285339355469e-01,4.359544515609741211e-01,4.466145038604736328e-01,4.194031655788421631e-01,4.428924620151519775e-01,2.501082122325897217e-01,1.461721360683441162e-01,3.311144113540649414e-01,5.644399523735046387e-01
4.172532856464385986e-01,3.699367493391036987e-02,1.251951158046722412e-01,-6.777060627937316895e-01,6.561678051948547363e-01,3.931129872798919678e-01,-4.899454116821289062e-01,-8.157349824905395508e-01,-9.927529692649841309e-01,1.285961717367172241e-01,-1.149680092930793762e-01,1.901094913482666016e-01,-4.067990481853485107e-01,1.065413206815719604e-01,-3.835973739624023438e-01,-5.899311304092407227e-01,2.709479629993438721e-01,-3.343314230442047119e-01,1.080197542905807495e-01,1.367845237255096436e-01,4.571407735347747803e-01,1.002704631537199020e-02,5.751916766166687012e-02,3.003496825695037842e-01,-6.203790307044982910e-01,3.985241651535034180e-01,-4.885948076844215393e-02,-6.627714037895202637e-01,2.796528637409210205e-01,-1.817045062780380249e-01,9.538584202527999878e-02,-1.492962390184402466e-01,1.167114004492759705e-01,3.612829372286796570e-02,6.599878668785095215e-01,9.992417097091674805e-01,4.911374151706695557e-01,4.670131802558898926e-01,-1.385995373129844666e-02,1.717926263809204102e-01,7.713547945022583008e-01,-2.059135138988494873e-01,3.995616137981414795e-01,4.209860563278198242e-01,-1.933977305889129639e-01,7.633134722709655762e-01,3.494603931903839111e-01,-3.079864382743835449e-02,5.749466419219970703e-01,6.357718706130981445e-01
4.645698070526123047e-01,1.194764077663421631e-01,1.513244211673736572e-01,5.685439109802246094e-01,5.462251305580139160e-01,9.657341241836547852e-01,-8.440922498703002930e-01,4.782641530036926270e-01,-6.188088059425354004e-01,1.334398537874221802e-01,1.341797858476638794e-01,3.893714249134063721e-01,2.951732277870178223e-01,3.690329492092132568e-01,-4.697381258010864258e-01,-5.964474678039550781e-01,1.637427657842636108e-01,-4.997060000896453857e-01,2.033267468214035034e-01,6.523675322532653809e-01,1.364942640066146851e-01,-1.372710615396499634e-01,9.691716730594635010e-02,5.885539650917053223e-01,3.873941898345947266e-01,2.744655013084411621e-01,1.180251762270927429e-01,-8.459008336067199707e-01,3.871647119522094727e-01,-2.021709643304347992e-02,6.542358994483947754e-01,5.820958614349365234e-01,7.643855214118957520e-01,-9.953315854072570801e-01,6.055721640586853027e-01,8.728332072496414185e-02,3.937583565711975098e-01,3.139437437057495117e-01,-9.161316752433776855e-01,2.990643680095672607e-01,8.382828831672668457e-01,-8.304195404052734375e-01,3.179027736186981201e-01,4.485641419887542725e-01,2.293754518032073975e-01,8.020009398460388184e-01,1.756377816200256348e-01,-8.640810847282409668e-01,1.892240941524505615e-01,6.396865844726562500e-01
3.984637558460235596e-01,2.484733313322067261e-01,4.020213782787322998e-01,3.149449229240417480e-01,6.693522334098815918e-01,2.909143269062042236e-01,-9.499444365501403809e-01,8.419077992439270020e-01,-8.970614075660705566e-01,-1.175229772925376892e-01,-5.968935489654541016e-01,4.319393932819366455e-01,5.980270504951477051e-01,3.743883371353149414e-01,-6.616766452789306641e-01,-1.571921259164810181e-02,3.111144304275512695e-01,-3.226290345191955566e-01,1.657848656177520752e-01,-4.176845252513885498e-01,1.552531719207763672e-01,-4.807664453983306885e-02,3.786696493625640869e-01,6.821911931037902832e-01,5.651223063468933105e-01,2.094777077436447144e-01,4.548640847206115723e-01,-9.724900722503662109e-01,3.905829191207885742e-01,2.382524162530899048e-01,6.598411798477172852e-01,5.570079088211059570e-01,3.808963894844055176e-01,8.502646088600158691e-01,3.951889574527740479e-01,-2.850087583065032959e-01,4.410039186477661133e-01,4.099396467208862305e-01,4.755708873271942139e-01,1.556883752346038818e-01,-9.902189970016479492e-01,-8.818629384040832520e-01,5.151128768920898438e-01,3.492089509963989258e-01,1.524873971939086914e-01,-4.356272220611572266e-01,3.005430400371551514e-01,-4.111453592777252197e-01,4.598848819732666016e-01,5.115566849708557129e-01
3.546880185604095459e-01,2.599456310272216797e-01,4.859733581542968750e-01,3.632645905017852783e-01,5.184089541435241699e-01,4.866972267627716064e-01,-4.372314810752868652e-01,8.713099360466003418e-01,9.828332066535949707e-01,5.926919169723987579e-03,1.475986391305923462e-01,2.312644124031066895e-01,7.106575965881347656e-01,4.113932847976684570e-01,-6.409815698862075806e-02,-8.051352500915527344e-01,2.521937787532806396e-01,-4.146991074085235596e-01,-1.958170831203460693e-01,1.996361911296844482e-01,-8.254057765007019043e-01,-3.367111086845397949e-02,2.946354746818542480e-01,6.958611607551574707e-01,3.773817718029022217e-01,2.292703278362751007e-02,5.171225666999816895e-01,-4.540247917175292969e-01,4.796504378318786621e-01,5.319635868072509766e-01,6.884106993675231934e-01,6.038320660591125488e-01,2.960365712642669678e-01,-9.932691454887390137e-01,5.076583623886108398e-01,-2.389620840549468994e-01,4.546766877174377441e-01,3.606986105442047119e-01,4.162762165069580078e-01,2.219251692295074463e-01,6.711440682411193848e-01,-7.387750148773193359e-01,4.307934641838073730e-01,4.009751677513122559e-01,3.256750404834747314e-01,8.058043718338012695e-01,2.449585199356079102e-01,2.718293070793151855e-01,1.673893928527832031e-01,-6.536487340927124023e-01
3.038121461868286133e-01,2.392368763685226440e-01,4.054750204086303711e-01,-6.989614367485046387e-01,6.968949437141418457e-01,4.868209660053253174e-01,-3.360594511032104492e-01,8.369660377502441406e-01,8.722994923591613770e-01,3.028417527675628662e-01,-1.999438405036926270e-01,2.592476606369018555e-01,-6.850860714912414551e-01,2.806068658828735352e-01,-2.038852125406265259e-01,-6.262094378471374512e-01,2.190602421760559082e-01,4.409979283809661865e-02,4.570156931877136230e-01,5.197144150733947754e-01,4.025070071220397949e-01,-7.062159776687622070e-01,3.432709872722625732e-01,6.009447574615478516e-01,5.366484522819519043e-01,2.921124100685119629e-01,4.599255621433258057e-01,-2.391790747642517090e-01,-9.749688506126403809e-01,-1.880120784044265747e-01,2.377791404724121094e-01,-7.314355373382568359e-01,2.786039113998413086e-01,1.925967037677764893e-01,2.540269792079925537e-01,-1.253465712070465088e-01,3.160525858402252197e-01,3.098431825637817383e-01,3.431729972362518311e-01,1.592887789011001587e-01,5.822525620460510254e-01,-5.502314567565917969e-01,4.604883193969726562e-01,2.844752669334411621e-01,3.850961029529571533e-01,6.630274057388305664e-01,4.159840941429138184e-01,-7.052084803581237793e-02,4.285067617893218994e-01,5.219506025314331055e-01
2.576388716697692871e-01,1.804666221141815186e-01,4.344775378704071045e-01,7.462843060493469238e-01,7.349317073822021484e-01,4.282830059528350830e-01,1.012439876794815063e-01,7.828581929206848145e-01,4.773102402687072754e-01,1.013107523322105408e-01,4.706623256206512451e-01,1.725380569696426392e-01,-8.600487709045410156e-01,3.122279345989227295e-01,-6.894946694374084473e-01,2.973509766161441803e-02,1.997012794017791748e-01,-2.358649112284183502e-02,-9.728837609291076660e-01,-9.124311804771423340e-01,4.308679103851318359e-01,-3.457913994789123535e-01,-6.465752422809600830e-02,5.102136135101318359e-01,5.460399389266967773e-01,4.473626911640167236e-01,4.971607923507690430e-01,-4.275353550910949707e-01,6.302044391632080078e-01,-3.044136166572570801e-01,-9.189650416374206543e-01,-9.543042182922363281e-01,2.807915508747100830e-01,4.804727733135223389e-01,-4.191120341420173645e-02,-6.748650074005126953e-01,3.857090473175048828e-01,-3.117368742823600769e-02,2.981752753257751465e-01,-4.026733338832855225e-02,4.818544089794158936e-01,-5.827178359031677246e-01,4.098817408084869385e-01,2.146860063076019287e-01,-4.394125342369079590e-01,4.031484425067901611e-01,-2.983312867581844330e-02,8.609367012977600098e-01,4.409355521202087402e-01,-7.014849185943603516e-01
1.602839976549148560e-01,3.510340154170989990e-01,3.490503132343292236e-01,-9.985771775245666504e-01,6.560869216918945312e-01,4.593143165111541748e-01,-8.673001527786254883e-01,7.246522903442382812e-01,-5.185626819729804993e-02,9.713933616876602173e-02,7.011975049972534180e-01,-3.667147457599639893e-02,6.341061592102050781e-01,3.683359026908874512e-01,-6.337597370147705078e-01,-5.203365087509155273e-01,3.996719717979431152e-01,-5.862243771553039551e-01,-9.520087838172912598e-01,6.495343446731567383e-01,4.130936563014984131e-01,-2.559936046600341797e-01,2.641217708587646484e-01,3.466992676258087158e-01,3.863300085067749023e-01,4.014807343482971191e-01,2.675852477550506592e-01,-4.037458598613739014e-01,6.466304659843444824e-01,5.909858345985412598e-01,6.133555769920349121e-01,5.409407615661621094e-01,5.326493382453918457e-01,7.238812446594238281e-01,-8.378153294324874878e-02,5.598401427268981934e-01,4.962387382984161377e-01,8.441805839538574219e-02,-9.976181983947753906e-01,-1.396532356739044189e-01,4.033704400062561035e-01,-9.236190915107727051e-01,6.891555339097976685e-02,5.320216417312622070e-01,-6.658569574356079102e-01,1.940299123525619507e-01,4.036940634250640869e-01,-7.758820056915283203e-02,3.971408009529113770e-01,5.042266249656677246e-01
1.329977512359619141e-01,3.054045140743255615e-01,2.612201571464538574e-01,-9.921504259109497070e-01,4.816380143165588379e-01,4.038234949111938477e-01,-3.629224896430969238e-01,5.828062891960144043e-01,-9.447126388549804688e-01,7.603389024734497070e-02,3.839470148086547852e-01,1.255844086408615112e-01,5.940745472908020020e-01,3.520999252796173096e-01,-5.204413533210754395e-01,-9.697814583778381348e-01,3.463810682296752930e-01,-6.647279262542724609e-01,-2.178062200546264648e-01,6.537360548973083496e-01,3.340052068233489990e-01,-5.792063474655151367e-02,1.337869167327880859e-01,4.144386351108551025e-01,2.534744143486022949e-01,4.001682996749877930e-01,3.635827302932739258e-01,1.244883015751838684e-01,5.764434933662414551e-01,6.958497166633605957e-01,5.631428956985473633e-01,6.006293296813964844e-01,5.077036619186401367e-01,6.885863542556762695e-01,7.631158828735351562e-01,8.033857941627502441e-01,5.129197239875793457e-01,1.626758575439453125e-01,7.950149774551391602e-01,1.699906587600708008e-01,3.172262310981750488e-01,-8.398241996765136719e-01,8.491574227809906006e-02,5.959628224372863770e-01,4.744067788124084473e-01,3.393135666847229004e-01,6.254726052284240723e-01,-7.826414704322814941e-01,3.702303767204284668e-01,-5.203149467706680298e-02
3.545371592044830322e-01,1.712961792945861816e-01,3.160369694232940674e-01,5.131755471229553223e-01,3.806602358818054199e-01,6.407457590103149414e-01,3.165892958641052246e-01,3.917937278747558594e-01,-3.374862074851989746e-01,-8.287378400564193726e-02,-9.198012351989746094e-01,3.175571858882904053e-01,3.460026979446411133e-01,4.605016708374023438e-01,5.759961605072021484e-01,-9.986097812652587891e-01,3.887208104133605957e-01,-3.135101795196533203e-01,2.518850266933441162e-01,6.009619235992431641e-01,3.162419795989990234e-01,-7.854419350624084473e-01,4.276616871356964111e-01,4.514329433441162109e-01,5.033710002899169922e-01,3.426058590412139893e-01,4.629375934600830078e-01,1.893587559461593628e-01,3.792960345745086670e-01,2.833804786205291748e-01,3.961759805679321289e-01,-9.804689139127731323e-02,-2.178878784179687500e-01,7.020651102066040039e-01,-9.619834423065185547e-01,6.786489486694335938e-01,5.015988349914550781e-01,1.938627511262893677e-01,3.497200012207031250e-01,2.007435709238052368e-01,3.369022905826568604e-01,-6.951953172683715820e-01,2.141011059284210205e-01,5.054433345794677734e-01,-1.806531697511672974e-01,3.547249734401702881e-01,-1.971801966428756714e-01,4.821667969226837158e-01,3.454225361347198486e-01,-9.118119478225708008e-01
3.110064268112182617e-01,1.478325575590133667e-01,2.579705715179443359e-01,-3.185883760452270508e-01,4.789070487022399902e-01,6.369084715843200684e-01,-1.815468817949295044e-01,2.401647567749023438e-01,1.947104334831237793e-01,6.252690404653549194e-02,7.071912288665771484e-01,-7.754653692245483398e-02,5.216521620750427246e-01,4.512536227703094482e-01,6.975802779197692871e-01,-9.422198534011840820e-01,4.238277077674865723e-01,1.226090732961893082e-02,1.538535654544830322e-01,-9.489218592643737793e-01,3.404864072799682617e-01,-7.257124781608581543e-01,1.876151561737060547e-01,3.690548241138458252e-01,5.729448795318603516e-01,3.399569690227508545e-01,3.104092180728912354e-01,7.963956147432327271e-02,5.186479687690734863e-01,6.408869028091430664e-01,4.991877377033233643e-01,5.424660444259643555e-01,-1.292174756526947021e-01,7.304595708847045898e-01,3.894658088684082031e-01,5.978634953498840332e-01,4.490158557891845703e-01,4.414745867252349854e-01,1.573407351970672607e-01,4.261615574359893799e-01,2.403565943241119385e-01,-8.118714094161987305e-01,4.942911863327026367e-01,4.072129726409912109e-01,5.159969925880432129e-01,2.664691209793090820e-01,-8.859876990318298340e-01,3.954290747642517090e-01,3.299911320209503174e-01,3.527928888797760010e-02
2.148641347885131836e-01,1.971626281738281250e-01,1.846904754638671875e-01,-5.837839841842651367e-01,4.574092626571655273e-01,4.454925060272216797e-01,8.939346075057983398e-01,1.636392027139663696e-01,-7.083982229232788086e-01,-3.208567202091217041e-01,-9.552133083343505859e-01,2.199622094631195068e-01,4.539698362350463867e-01,4.144757986068725586e-01,8.382267951965332031e-01,-9.631133079528808594e-01,3.426015973091125488e-01,4.004234671592712402e-01,-3.374269306659698486e-01,5.945122838020324707e-01,3.797542154788970947e-01,-6.215814352035522461e-01,4.449661374092102051e-01,5.081188678741455078e-01,5.651986598968505859e-01,2.555755078792572021e-01,-4.005552232265472412e-01,-4.004089534282684326e-01,5.026068091392517090e-01,6.064652800559997559e-01,4.177809059619903564e-01,4.735190868377685547e-01,9.868564605712890625e-01,5.798754096031188965e-01,7.546911239624023438e-01,3.504026234149932861e-01,4.168030917644500732e-01,4.405933916568756104e-01,4.144145846366882324e-01,3.680594861507415771e-01,2.799681127071380615e-01,-9.036787748336791992e-01,-8.002223819494247437e-02,4.825906455516815186e-01,4.996007978916168213e-01,2.549083828926086426e-01,5.110290050506591797e-01,7.423692941665649414e-01,3.349455595016479492e-01,5.903716385364532471e-02
1.622030436992645264e-01,1.641460806131362915e-01,7.007197290658950806e-02,-4.551452770829200745e-02,4.085313081741333008e-01,1.128579154610633850e-01,3.710242211818695068e-01,8.178716152906417847e-02,-1.122067943215370178e-01,-7.207876443862915039e-01,6.354183554649353027e-01,1.321604400873184204e-01,3.566435575485229492e-01,3.727502822875976562e-01,7.858650684356689453e-01,-9.989129304885864258e-01,4.229089915752410889e-01,6.837587356567382812e-01,-9.983638525009155273e-01,6.506131291389465332e-01,3.357818722724914551e-01,-8.672242611646652222e-02,4.241009354591369629e-01,1.749629229307174683e-01,4.277946949005126953e-01,2.452142089605331421e-01,-8.397801518440246582e-01,2.656069099903106689e-01,4.496467411518096924e-01,5.126283168792724609e-01,3.463748693466186523e-01,4.040932059288024902e-01,-9.987959861755371094e-01,4.025562703609466553e-01,4.219687879085540771e-01,9.729872345924377441e-01,3.886100053787231445e-01,4.092769324779510498e-01,7.950692623853683472e-02,4.444816708564758301e-01,2.559217512607574463e-01,-6.553621888160705566e-01,4.141635596752166748e-01,4.350116252899169922e-01,5.084838271141052246e-01,2.315421551465988159e-01,9.853087365627288818e-03,7.939006686210632324e-01,2.703581452369689941e-01,-8.111941814422607422e-02
1.050506457686424255e-01,-1.421483606100082397e-01,9.574506282806396484e-01,-3.145898580551147461e-01,4.301288425922393799e-01,-1.257688403129577637e-01,5.191952586174011230e-01,2.012090086936950684e-01,-7.914949059486389160e-01,-5.399687886238098145e-01,5.627952218055725098e-01,2.750981152057647705e-01,3.350221216678619385e-01,2.485386580228805542e-01,7.475238442420959473e-01,-9.994313120841979980e-01,3.205068111419677734e-01,6.305439472198486328e-01,5.746194124221801758e-01,6.951692700386047363e-01,2.726660668849945068e-01,-8.830362558364868164e-01,1.014683209359645844e-02,4.865606427192687988e-01,5.009253025054931641e-01,2.538635134696960449e-01,-8.991411328315734863e-01,-6.606445461511611938e-02,4.778418838977813721e-01,4.676106870174407959e-01,3.233438730239868164e-01,3.986252248287200928e-01,-6.248641610145568848e-01,3.622529506683349609e-01,3.481164872646331787e-01,6.824536919593811035e-01,3.574243485927581787e-01,4.543020427227020264e-01,3.064388930797576904e-01,3.889626562595367432e-01,2.922146320343017578e-01,-4.608810544013977051e-01,3.928693532943725586e-01,4.290769398212432861e-01,4.623133242130279541e-01,2.153592407703399658e-01,7.783468067646026611e-02,7.957167625427246094e-01,2.708522975444793701e-01,-8.127286285161972046e-02
1.862451881170272827e-01,-9.817535281181335449e-01,4.080913662910461426e-01,1.903781443834304810e-01,3.786663115024566650e-01,1.847169250249862671e-01,7.042131423950195312e-01,3.582514822483062744e-01,6.508640646934509277e-01,-7.614732384681701660e-01,4.198649525642395020e-01,-9.439374804496765137e-01,3.764507770538330078e-01,2.494729906320571899e-01,7.041295766830444336e-01,-9.575458765029907227e-01,3.233782947063446045e-01,7.538844943046569824e-01,2.579067945480346680e-01,5.898316502571105957e-01,7.709279656410217285e-02,-6.747699975967407227e-01,-9.323856234550476074e-01,-6.755444407463073730e-01,4.717499911785125732e-01,1.746476888656616211e-01,-3.827130794525146484e-01,-2.552813589572906494e-01,4.372208416461944580e-01,4.500039219856262207e-01,3.644960224628448486e-01,4.351920783519744873e-01,6.588105857372283936e-02,2.803190648555755615e-01,4.155476689338684082e-01,7.738919258117675781e-01,3.169798552989959717e-01,3.908637762069702148e-01,3.912815451622009277e-01,3.576232790946960449e-01,2.332963943481445312e-01,4.559663236141204834e-01,4.172849059104919434e-01,3.739725649356842041e-01,4.896588325500488281e-01,2.324397563934326172e-01,4.890284687280654907e-02,7.740750908851623535e-01,1.536442339420318604e-01,-3.961915150284767151e-02
1.945497393608093262e-01,7.928731441497802734e-01,2.653807103633880615e-01,9.479224681854248047e-02,4.874389767646789551e-01,1.790783554315567017e-01,4.872274398803710938e-01,3.668629229068756104e-01,2.557899057865142822e-01,-3.857837617397308350e-01,2.960740625858306885e-01,5.301243662834167480e-01,3.993827700614929199e-01,2.731374800205230713e-01,6.219459772109985352e-01,-9.075960516929626465e-01,4.125484526157379150e-01,7.649353742599487305e-01,-8.455061912536621094e-01,4.911222159862518311e-01,-1.153351962566375732e-01,-4.327481091022491455e-01,-9.497806429862976074e-01,4.536830782890319824e-01,4.317395389080047607e-01,8.417449146509170532e-02,-9.050091505050659180e-01,-2.145421057939529419e-01,4.186251759529113770e-01,4.363096356391906738e-01,3.962073028087615967e-01,4.797188639640808105e-01,1.112578585743904114e-01,1.714470982551574707e-01,3.947732746601104736e-01,3.343484997749328613e-01,4.003938138484954834e-01,4.391643106937408447e-01,4.459335505962371826e-01,4.285102188587188721e-01,3.681955337524414062e-01,1.397639662027359009e-01,3.743343353271484375e-01,3.756805956363677979e-01,4.462960362434387207e-01,4.720900952816009521e-01,-2.192915789783000946e-02,5.898190736770629883e-01,5.250259116291999817e-02,3.127407282590866089e-02
2.457845807075500488e-01,8.126534819602966309e-01,5.953708291053771973e-01,7.234806418418884277e-01,4.921641051769256592e-01,1.968019306659698486e-01,1.764724254608154297e-01,4.064221680164337158e-01,6.896656155586242676e-01,-4.771552383899688721e-01,3.206256031990051270e-01,-3.427648842334747314e-01,3.701430261135101318e-01,2.049273848533630371e-01,4.342694580554962158e-01,-6.252883076667785645e-01,3.448758721351623535e-01,6.202659010887145996e-01,9.022277593612670898e-01,-5.185992717742919922e-01,9.764396399259567261e-02,-1.048899218440055847e-01,2.214473038911819458e-01,-3.725186288356781006e-01,4.399383068084716797e-01,2.531429529190063477e-01,-5.497657060623168945e-01,-1.226741224527359009e-01,3.095011413097381592e-01,3.346370160579681396e-01,3.927742242813110352e-01,5.504525303840637207e-01,2.162043191492557526e-02,3.610865771770477295e-01,3.778661787509918213e-01,1.865137368440628052e-02,3.663803637027740479e-01,4.437945485115051270e-01,4.659026563167572021e-01,3.521915972232818604e-01,2.804633677005767822e-01,7.780529856681823730e-01,3.206942975521087646e-01,3.781100213527679443e-01,4.955969154834747314e-01,3.551024794578552246e-01,-1.439986675977706909e-01,3.087845444679260254e-01,1.466504782438278198e-01,-5.736458301544189453e-01
1.945293694734573364e-01,7.375155091285705566e-01,2.822940945625305176e-01,4.912113547325134277e-01,4.874686300754547119e-01,4.484760761260986328e-02,-3.841563463211059570e-01,4.523640871047973633e-01,8.483842611312866211e-01,4.381934702396392822e-01,2.883621156215667725e-01,5.718047618865966797e-01,1.997836679220199585e-01,3.350206315517425537e-01,3.526791930198669434e-01,-8.137866854667663574e-01,1.449261605739593506e-01,4.708919525146484375e-01,9.762284159660339355e-01,4.798760414123535156e-01,2.261425852775573730e-01,-9.656622260808944702e-02,4.853402674198150635e-01,6.528933644294738770e-01,3.746482729911804199e-01,2.965921759605407715e-01,3.328204900026321411e-02,-9.515869021415710449e-01,4.294263422489166260e-01,1.772086620330810547e-01,2.108009159564971924e-01,4.217213988304138184e-01,-6.086399033665657043e-02,3.668978512287139893e-01,5.105504393577575684e-01,9.838445782661437988e-01,2.491092383861541748e-01,5.395578742027282715e-01,5.217272639274597168e-01,3.232966363430023193e-01,3.995808959007263184e-01,8.112530112266540527e-01,3.888948261737823486e-01,2.984693646430969238e-01,5.031336545944213867e-01,4.557439088821411133e-01,-1.843143254518508911e-01,2.781134843826293945e-01,3.820357322692871094e-01,-5.025902986526489258e-01
3.091805279254913330e-01,-9.555831551551818848e-01,4.186247885227203369e-01,4.726424813270568848e-01,4.435902833938598633e-01,2.172445952892303467e-01,4.524303376674652100e-01,4.901677966117858887e-01,-2.121966928243637085e-01,-2.567019164562225342e-01,2.704180181026458740e-01,-3.518579602241516113e-01,1.904594004154205322e-01,4.033355116844177246e-01,2.598494291305541992e-01,1.501963138580322266e-01,2.267886847257614136e-01,4.923044145107269287e-01,3.943729996681213379e-01,4.628517627716064453e-01,2.494837343692779541e-01,-3.620709106326103210e-02,-6.582081913948059082e-01,5.718605518341064453e-01,3.935134708881378174e-01,2.506918311119079590e-01,-8.583544939756393433e-02,5.748597979545593262e-01,3.719969093799591064e-01,1.836616396903991699e-01,2.073017954826354980e-01,3.763078749179840088e-01,-1.458296328783035278e-01,3.362646996974945068e-01,6.186574697494506836e-01,-8.566399216651916504e-01,1.633139401674270630e-01,4.284127652645111084e-01,4.737913310527801514e-01,2.834707796573638916e-01,3.407591879367828369e-01,7.756785750389099121e-01,5.372414588928222656e-01,2.218025326728820801e-01,3.200470209121704102e-01,3.909919261932373047e-01,-9.579225778579711914e-01,1.675706207752227783e-01,4.808097183704376221e-01,-3.317961394786834717e-01
3.110647499561309814e-01,-9.418221116065979004e-01,3.829767405986785889e-01,2.549239695072174072e-01,4.222508966922760010e-01,1.572116464376449585e-02,-4.566484093666076660e-01,1.401218473911285400e-01,1.901970952749252319e-01,3.837556540966033936e-01,2.312976717948913574e-01,-6.017063260078430176e-01,-1.035418808460235596e-01,3.780927956104278564e-01,2.249090224504470825e-01,6.621564030647277832e-01,2.475824058055877686e-01,-6.261332333087921143e-02,1.560207903385162354e-01,5.753287076950073242e-01,-1.845407672226428986e-02,-2.237937301397323608e-01,-6.416900753974914551e-01,2.946760952472686768e-01,2.750099301338195801e-01,2.846356332302093506e-01,-1.966510713100433350e-01,2.607918083667755127e-01,2.658376097679138184e-01,3.716324269771575928e-02,-3.369471058249473572e-02,-1.301722824573516846e-01,-4.400546550750732422e-01,2.632710039615631104e-01,4.757062196731567383e-01,-8.932818770408630371e-01,2.346716821193695068e-01,3.326402008533477783e-01,2.346374541521072388e-01,2.486750185489654541e-01,2.015579342842102051e-01,7.593479156494140625e-01,5.056876540184020996e-01,7.103957235813140869e-02,2.035556435585021973e-01,2.604925930500030518e-01,-5.998769998550415039e-01,2.588748037815093994e-01,-7.565093785524368286e-02,-1.571398526430130005e-01
1.272799214348196983e-03,3.244938850402832031e-01,-9.819284677505493164e-01,-2.565296739339828491e-02,3.851340413093566895e-01,-8.535217642784118652e-01,6.148968338966369629e-01,-9.513087868690490723e-01,4.395529925823211670e-01,6.047445535659790039e-01,-1.024843975901603699e-01,-4.438075423240661621e-02,9.340749680995941162e-02,3.305045366287231445e-01,3.631284832954406738e-01,2.946182489395141602e-01,9.337013959884643555e-02,-2.267501950263977051e-01,5.301335453987121582e-01,5.045325756072998047e-01,-1.555031985044479370e-01,8.049399852752685547e-01,2.848979532718658447e-01,4.709804058074951172e-01,3.225480616092681885e-01,2.368877977132797241e-01,-2.710340023040771484e-01,-7.758859395980834961e-01,6.029310636222362518e-03,4.854660108685493469e-02,1.006216406822204590e-01,2.310853153467178345e-01,-9.984799027442932129e-01,2.165177613496780396e-01,1.435099095106124878e-01,-6.087482571601867676e-01,-1.924930661916732788e-01,7.024355530738830566e-01,3.837016820907592773e-01,1.800564676523208618e-01,1.524324715137481689e-01,-9.072415828704833984e-01,-4.960893392562866211e-01,-4.299108088016510010e-01,8.168492466211318970e-02,3.238858580589294434e-01,-9.397818148136138916e-02,4.142976403236389160e-01,-1.651103347539901733e-01,2.414615899324417114e-01
4.819362461566925049e-01,-5.923213362693786621e-01,-4.886754453182220459e-01,3.309039175510406494e-01,3.392611145973205566e-01,7.754818201065063477e-01,5.838330984115600586e-01,-9.658220410346984863e-01,4.531825184822082520e-01,6.954353451728820801e-01,-1.397884637117385864e-01,-2.510300278663635254e-01,3.923399448394775391e-01,8.006964325904846191e-01,4.546702504158020020e-01,4.483372867107391357e-01,1.901513040065765381e-01,5.060269832611083984e-01,-8.118371367454528809e-01,3.436026573181152344e-01,2.212803810834884644e-01,-1.307309865951538086e-01,-2.272709161043167114e-01,-5.253258943557739258e-01,5.978423953056335449e-01,2.173805236816406250e-01,-4.325505197048187256e-01,1.690322756767272949e-01,3.635166883468627930e-01,4.118337631225585938e-01,3.495982289314270020e-01,4.090219438076019287e-01,-9.953657984733581543e-01,1.757383346557617188e-01,4.082555323839187622e-02,-4.781093895435333252e-01,4.962265193462371826e-01,5.463787317276000977e-01,6.158376336097717285e-01,3.368708491325378418e-02,-3.449435532093048096e-01,2.827235758304595947e-01,-2.326038293540477753e-02,-9.915708899497985840e-01,1.630250066518783569e-01,-4.559330269694328308e-02,1.892760843038558960e-01,4.793623685836791992e-01,2.949901819229125977e-01,3.331092000007629395e-01
-9.868125915527343750e-01,-5.421711206436157227e-01,5.955724120140075684e-01,2.569313943386077881e-01,-8.713955879211425781e-01,-6.575367450714111328e-01,9.652073383331298828e-01,-9.337447881698608398e-01,4.497243762016296387e-01,-2.595190107822418213e-01,1.120661795139312744e-01,-3.886247575283050537e-01,3.098178803920745850e-01,9.143422245979309082e-01,-6.337632983922958374e-02,4.490146338939666748e-01,-5.641294121742248535e-01,4.807179570198059082e-01,-4.392825365066528320e-01,1.503550633788108826e-02,-8.358281105756759644e-02,-7.676442861557006836e-01,-5.445954203605651855e-01,-5.718825459480285645e-01,8.943502902984619141e-01,-2.685168981552124023e-01,-3.828294277191162109e-01,2.454552352428436279e-01,4.077375233173370361e-01,3.551497459411621094e-01,1.412997841835021973e-01,1.585804522037506104e-01,9.738762378692626953e-01,9.258371591567993164e-01,-6.907931566238403320e-01,-6.415762901306152344e-01,8.370392322540283203e-01,6.730839610099792480e-01,7.230594009160995483e-02,-9.948143959045410156e-01,-9.417792409658432007e-02,-9.953436851501464844e-01,-9.557966589927673340e-01,5.539121627807617188e-01,3.023297488689422607e-01,4.785378575325012207e-01,-5.638641715049743652e-01,6.177248805761337280e-02,6.776236891746520996e-01,-8.545829057693481445e-01
-9.226088523864746094e-01,-5.549380779266357422e-01,9.591564536094665527e-01,3.843081593513488770e-01,-9.297693371772766113e-01,-7.341505885124206543e-01,5.160423517227172852e-01,3.118789494037628174e-01,3.924327790737152100e-01,-3.325458168983459473e-01,2.597340941429138184e-01,-5.031462907791137695e-01,4.624455571174621582e-01,8.090090751647949219e-01,-9.969899654388427734e-01,4.178616404533386230e-01,-7.909548282623291016e-01,4.355756640434265137e-01,6.545502543449401855e-01,8.740800023078918457e-01,5.644116997718811035e-01,1.078251600265502930e-01,-4.709598422050476074e-01,-8.236877918243408203e-01,-9.801480770111083984e-01,-9.810798168182373047e-01,-5.561438202857971191e-01,8.759874105453491211e-01,-8.605725169181823730e-01,5.359261631965637207e-01,4.084327816963195801e-01,4.322686493396759033e-01,9.842235445976257324e-01,-3.165231645107269287e-01,-1.114660128951072693e-01,-7.461529374122619629e-01,8.245407342910766602e-01,9.632031321525573730e-01,-6.193419098854064941e-01,-3.227519989013671875e-01,8.463895916938781738e-01,-9.987549781799316406e-01,-6.923403143882751465e-01,3.949344456195831299e-01,2.773600220680236816e-01,5.566387176513671875e-01,-7.510455846786499023e-01,2.610823698341846466e-02,6.066759824752807617e-01,-9.969779253005981445e-01
-9.044622182846069336e-01,-6.356828659772872925e-02,9.514070749282836914e-01,3.620028793811798096e-01,4.439882934093475342e-01,-8.732521533966064453e-01,1.332420110702514648e-01,-6.566523909568786621e-01,3.398511111736297607e-01,-9.639231562614440918e-01,3.850765526294708252e-01,-2.280114404857158661e-02,5.301896333694458008e-01,4.339945018291473389e-01,-6.475455760955810547e-01,3.622657060623168945e-01,-3.349314332008361816e-01,4.067352712154388428e-01,5.769243836402893066e-01,8.384736776351928711e-01,-1.831856817007064819e-01,6.359176635742187500e-01,2.489267438650131226e-01,-2.846290171146392822e-01,-9.943141341209411621e-01,-9.999848008155822754e-01,-2.547188103199005127e-02,-6.190868616104125977e-01,5.442064404487609863e-01,5.337598323822021484e-01,4.894834458827972412e-01,4.514108002185821533e-01,-5.207441002130508423e-02,3.277407884597778320e-01,-9.999181032180786133e-01,-5.007405281066894531e-01,7.150312662124633789e-01,8.234441280364990234e-01,8.928676247596740723e-01,-6.603435873985290527e-01,-9.998924732208251953e-01,-9.539974331855773926e-01,7.329585403203964233e-02,-1.003992110490798950e-01,3.674583137035369873e-01,-9.841188788414001465e-01,-6.819916367530822754e-01,-9.954210519790649414e-01,9.955472350120544434e-01,-9.478433728218078613e-01
2.135467529296875000e-01,-3.989116549491882324e-01,4.118889570236206055e-01,4.310552775859832764e-01,4.835226535797119141e-01,-8.091076612472534180e-01,1.408825367689132690e-01,-5.159244537353515625e-01,3.112466037273406982e-01,1.247029155492782593e-01,4.201163947582244873e-01,1.155624631792306900e-02,4.713730514049530029e-01,5.522977709770202637e-01,-7.368924617767333984e-01,3.194614648818969727e-01,-5.882092714309692383e-01,4.495352506637573242e-01,3.745303750038146973e-01,9.406536817550659180e-01,8.276771903038024902e-01,-5.476990342140197754e-01,-1.391231417655944824e-01,-3.407684862613677979e-01,-9.999167919158935547e-01,-9.980421662330627441e-01,-2.858311831951141357e-01,-8.102473616600036621e-01,7.935383319854736328e-01,4.441999197006225586e-01,4.992347955703735352e-01,4.418888688087463379e-01,-9.319297671318054199e-01,1.224290281534194946e-01,-9.709000587463378906e-01,-3.842069804668426514e-01,3.891229629516601562e-01,8.742790222167968750e-01,5.047227740287780762e-01,-9.834496378898620605e-01,-6.928405165672302246e-01,4.434994757175445557e-01,-8.248682618141174316e-01,-6.001713275909423828e-01,4.735180139541625977e-01,-9.783614873886108398e-01,1.863340586423873901e-01,-9.951606392860412598e-01,8.495128750801086426e-01,-5.148165822029113770e-01
-9.751601815223693848e-01,-4.358900785446166992e-01,-4.665638506412506104e-01,3.372569978237152100e-01,1.611691415309906006e-01,-9.162672162055969238e-01,2.069777548313140869e-01,-9.986177682876586914e-01,3.782443702220916748e-01,4.378648698329925537e-01,3.647974729537963867e-01,-4.232193231582641602e-01,3.901205956935882568e-01,3.180178105831146240e-01,-9.837315678596496582e-01,3.375519812107086182e-01,-6.098728775978088379e-01,2.133313119411468506e-01,2.709993124008178711e-01,9.076158404350280762e-01,7.466908693313598633e-01,-3.713153302669525146e-01,-4.355799257755279541e-01,-3.296203911304473877e-01,-6.692125201225280762e-01,-9.887700080871582031e-01,-2.376544773578643799e-01,6.423320174217224121e-01,3.976387381553649902e-01,4.014852344989776611e-01,3.295893669128417969e-01,2.922407686710357666e-01,-9.978818893432617188e-01,-9.979109168052673340e-01,-3.477761056274175644e-04,-3.649247884750366211e-01,3.795385658740997314e-01,7.112631797790527344e-01,3.229243457317352295e-01,-9.778640270233154297e-01,-9.588354825973510742e-01,-2.825259268283843994e-01,-4.475235939025878906e-01,-9.927361011505126953e-01,2.709361612796783447e-01,-9.952871203422546387e-01,-7.691284269094467163e-02,-9.998821020126342773e-01,6.626164913177490234e-01,-9.777093529701232910e-01
-9.107967019081115723e-01,3.769052922725677490e-01,-4.041209816932678223e-02,3.688166439533233643e-01,3.874974548816680908e-01,-1.655114740133285522e-01,2.505415380001068115e-01,-9.978876113891601562e-01,4.046520888805389404e-01,6.873369216918945312e-01,2.982867360115051270e-01,2.066018283367156982e-01,3.409971296787261963e-01,-8.172419667243957520e-01,-6.757842302322387695e-01,4.357308745384216309e-01,-3.658932745456695557e-01,4.316319227218627930e-01,-4.748210012912750244e-01,5.818285346031188965e-01,1.815726608037948608e-01,-1.613342463970184326e-01,3.568091690540313721e-01,1.211844980716705322e-01,-9.218422770500183105e-01,-9.832261800765991211e-01,-3.826276659965515137e-01,1.618941128253936768e-01,-8.841345906257629395e-01,3.455589413642883301e-01,3.658259212970733643e-01,3.595689833164215088e-01,-9.995339512825012207e-01,-1.649561226367950439e-01,-8.533840626478195190e-02,-9.879181534051895142e-02,3.113859593868255615e-01,9.213805794715881348e-01,7.728654742240905762e-01,-8.333109021186828613e-01,3.484370708465576172e-01,-8.373779654502868652e-01,-5.003077387809753418e-01,-6.980001330375671387e-01,1.012687534093856812e-01,-4.829121232032775879e-01,2.389194965362548828e-01,-9.746322035789489746e-01,2.919383645057678223e-01,-9.287570118904113770e-01
9.454533457756042480e-01,4.378453791141510010e-01,-9.694879055023193359e-01,4.731660485267639160e-01,-7.031849622726440430e-01,-3.549237549304962158e-01,-9.066644906997680664e-01,-6.373172998428344727e-01,6.079716682434082031e-01,4.901308715343475342e-01,4.189943373203277588e-01,1.262732893228530884e-01,3.358572423458099365e-01,-8.376649618148803711e-01,-6.018916368484497070e-01,5.385679006576538086e-01,-4.620866775512695312e-01,4.253996014595031738e-01,-5.975397229194641113e-01,-2.389542907476425171e-01,-3.681894838809967041e-01,-7.011118531227111816e-01,5.245835185050964355e-01,-1.711001396179199219e-01,-9.994606971740722656e-01,-1.922668218612670898e-01,-3.654912412166595459e-01,5.455082654953002930e-01,-6.197267174720764160e-01,3.833083510398864746e-01,3.514310717582702637e-01,2.969914376735687256e-01,-9.998918771743774414e-01,-5.171983242034912109e-01,-7.718610167503356934e-01,-3.064460158348083496e-01,2.105982750654220581e-01,-9.014614820480346680e-01,6.024397015571594238e-01,-9.984998703002929688e-01,-1.613571494817733765e-01,-3.392525613307952881e-01,-7.916211485862731934e-01,-9.966036081314086914e-01,-3.203601017594337463e-02,9.826511144638061523e-01,-1.483926922082901001e-01,-5.839273929595947266e-01,-1.665315181016921997e-01,2.835905849933624268e-01
-3.951584696769714355e-01,-4.730849713087081909e-02,-9.986256361007690430e-01,2.276612967252731323e-01,-1.669623702764511108e-01,-8.415473103523254395e-01,7.159382700920104980e-01,-1.285484284162521362e-01,5.680793523788452148e-01,1.629750728607177734e-01,3.747721612453460693e-01,1.071036532521247864e-01,2.214048802852630615e-01,-8.868992924690246582e-01,-9.653149247169494629e-01,4.458832442760467529e-01,-1.115271523594856262e-01,3.124969005584716797e-01,-9.257205724716186523e-01,6.465173959732055664e-01,1.142770349979400635e-01,-5.833992958068847656e-01,9.041147679090499878e-02,-3.146746754646301270e-02,9.820721149444580078e-01,-2.377483397722244263e-01,-2.818577289581298828e-01,5.607988834381103516e-01,-9.069356322288513184e-01,3.290315270423889160e-01,1.922153681516647339e-02,7.481472492218017578e-01,-9.995917677879333496e-01,-8.616718053817749023e-01,-9.973810911178588867e-01,-5.848366022109985352e-01,3.311581015586853027e-01,6.213926672935485840e-01,5.002393722534179688e-01,-9.936746358871459961e-01,-1.720969229936599731e-01,-5.001960992813110352e-01,-9.979600906372070312e-01,-9.998563528060913086e-01,-2.512011826038360596e-01,5.573806166648864746e-01,-1.556317321956157684e-02,-9.949452877044677734e-01,-3.960367739200592041e-01,4.428201019763946533e-01
4.027279615402221680e-01,4.024489820003509521e-01,-1.147586852312088013e-01,3.659333586692810059e-01,2.871000021696090698e-02,2.782659828662872314e-01,-8.781371116638183594e-01,3.245290517807006836e-01,3.833192884922027588e-01,-3.755258023738861084e-01,2.903624773025512695e-01,9.380047023296356201e-02,2.273026555776596069e-01,5.450554490089416504e-01,-9.393692612648010254e-01,3.878704011440277100e-01,4.952231422066688538e-02,5.658755302429199219e-01,-9.965838193893432617e-01,-7.613756656646728516e-01,-6.330912113189697266e-01,3.066793084144592285e-01,4.823595881462097168e-01,4.672319814562797546e-02,6.464900970458984375e-01,9.624649882316589355e-01,-1.231882423162460327e-01,6.372643709182739258e-01,6.145346760749816895e-01,2.992965579032897949e-01,2.563766241073608398e-01,3.166522383689880371e-01,-8.398756384849548340e-01,9.402821660041809082e-01,-8.317114710807800293e-01,-8.155975937843322754e-01,5.163543224334716797e-01,4.039992764592170715e-02,3.790712356567382812e-01,-6.268563866615295410e-01,4.225465655326843262e-01,-5.827832818031311035e-01,-5.144278407096862793e-01,-7.815795540809631348e-01,-1.591008901596069336e-01,4.754007756710052490e-01,-1.521651446819305420e-02,-9.918267726898193359e-01,-4.851508736610412598e-01,1.779086142778396606e-02
1.000000000000000000e+00,1.000000000000000000e+00,1.000000000000000000e+00,1.000000000000000000e+00,1.000000000000000000e+00,1.000000000000000000e+00,1.000000000000000000e+00,1.000000000000000000e+00,1.000000000000000000e+00,1.000000000000000000e+00,1.000000000000000000e+00,1.000000000000000000e+00,1.000000000000000000e+00,1.000000000000000000e+00,1.000000000000000000e+00,1.000000000000000000e+00,1.000000000000000000e+00,1.000000000000000000e+00,1.000000000000000000e+00,1.000000000000000000e+00,1.000000000000000000e+00,1.000000000000000000e+00,1.000000000000000000e+00,1.000000000000000000e+00,1.000000000000000000e+00,1.000000000000000000e+00,1.000000000000000000e+00,1.000000000000000000e+00,1.000000000000000000e+00,1.000000000000000000e+00,1.000000000000000000e+00,1.000000000000000000e+00,1.000000000000000000e+00,1.000000000000000000e+00,1.000000000000000000e+00,1.000000000000000000e+00,1.000000000000000000e+00,1.000000000000000000e+00,1.000000000000000000e+00,1.000000000000000000e+00,1.000000000000000000e+00,1.000000000000000000e+00,1.000000000000000000e+00,1.000000000000000000e+00,1.000000000000000000e+00,1.000000000000000000e+00,1.000000000000000000e+00,1.000000000000000000e+00,1.000000000000000000e+00,1.000000000000000000e+00
1.000000000000000000e+00,1.000000000000000000e+00,1.000000000000000000e+00,1.000000000000000000e+00,1.000000000000000000e+00,1.000000000000000000e+00,1.000000000000000000e+00,1.000000000000000000e+00,1.000000000000000000e+00,1.000000000000000000e+00,1.000000000000000000e+00,1.000000000000000000e+00,1.000000000000000000e+00,1.000000000000000000e+00,1.000000000000000000e+00,1.000000000000000000e+00,1.000000000000000000e+00,1.000000000000000000e+00,1.000000000000000000e+00,1.000000000000000000e+00,1.000000000000000000e+00,1.000000000000000000e+00,1.000000000000000000e+00,1.000000000000000000e+00,1.000000000000000000e+00,1.000000000000000000e+00,1.000000000000000000e+00,1.000000000000000000e+00,1.000000000000000000e+00,1.000000000000000000e+00,1.000000000000000000e+00,1.000000000000000000e+00,1.000000000000000000e+00,1.000000000000000000e+00,1.000000000000000000e+00,1.000000000000000000e+00,1.000000000000000000e+00,1.000000000000000000e+00,1.000000000000000000e+00,1.000000000000000000e+00,1.000000000000000000e+00,1.000000000000000000e+00,1.000000000000000000e+00,1.000000000000000000e+00,1.000000000000000000e+00,1.000000000000000000e+00,1.000000000000000000e+00,1.000000000000000000e+00,1.000000000000000000e+00,1.000000000000000000e+00
1.000000000000000000e+00,1.000000000000000000e+00,1.000000000000000000e+00,1.000000000000000000e+00,1.000000000000000000e+00,1.000000000000000000e+00,1.000000000000000000e+00,1.000000000000000000e+00,1.000000000000000000e+00,1.000000000000000000e+00,1.000000000000000000e+00,1.000000000000000000e+00,1.000000000000000000e+00,1.000000000000000000e+00,1.000000000000000000e+00,1.000000000000000000e+00,1.000000000000000000e+00,1.000000000000000000e+00,1.000000000000000000e+00,1.000000000000000000e+00,1.000000000000000000e+00,1.000000000000000000e+00,1.000000000000000000e+00,1.000000000000000000e+00,1.000000000000000000e+00,1.000000000000000000e+00,1.000000000000000000e+00,1.000000000000000000e+00,1.000000000000000000e+00,1.000000000000000000e+00,1.000000000000000000e+00,1.000000000000000000e+00,1.000000000000000000e+00,1.000000000000000000e+00,1.000000000000000000e+00,1.000000000000000000e+00,1.000000000000000000e+00,1.000000000000000000e+00,1.000000000000000000e+00,1.000000000000000000e+00,1.000000000000000000e+00,1.000000000000000000e+00,1.000000000000000000e+00,1.000000000000000000e+00,1.000000000000000000e+00,1.000000000000000000e+00,1.000000000000000000e+00,1.000000000000000000e+00,1.000000000000000000e+00,1.000000000000000000e+00
1.000000000000000000e+00,1.000000000000000000e+00,1.000000000000000000e+00,1.000000000000000000e+00,1.000000000000000000e+00,1.000000000000000000e+00,1.000000000000000000e+00,1.000000000000000000e+00,1.000000000000000000e+00,1.000000000000000000e+00,1.000000000000000000e+00,1.000000000000000000e+00,1.000000000000000000e+00,1.000000000000000000e+00,1.000000000000000000e+00,1.000000000000000000e+00,1.000000000000000000e+00,1.000000000000000000e+00,1.000000000000000000e+00,1.000000000000000000e+00,1.000000000000000000e+00,1.000000000000000000e+00,1.000000000000000000e+00,1.000000000000000000e+00,1.000000000000000000e+00,1.000000000000000000e+00,1.000000000000000000e+00,1.000000000000000000e+00,1.000000000000000000e+00,1.000000000000000000e+00,1.000000000000000000e+00,1.000000000000000000e+00,1.000000000000000000e+00,1.000000000000000000e+00,1.000000000000000000e+00,1.000000000000000000e+00,1.000000000000000000e+00,1.000000000000000000e+00,1.000000000000000000e+00,1.000000000000000000e+00,1.000000000000000000e+00,1.000000000000000000e+00,1.000000000000000000e+00,1.000000000000000000e+00,1.000000000000000000e+00,1.000000000000000000e+00,1.000000000000000000e+00,1.000000000000000000e+00,1.000000000000000000e+00,1.000000000000000000e+00
1.000000000000000000e+00,1.000000000000000000e+00,1.000000000000000000e+00,1.000000000000000000e+00,1.000000000000000000e+00,1.000000000000000000e+00,1.000000000000000000e+00,1.000000000000000000e+00,1.000000000000000000e+00,1.000000000000000000e+00,1.000000000000000000e+00,1.000000000000000000e+00,1.000000000000000000e+00,1.000000000000000000e+00,1.000000000000000000e+00,1.000000000000000000e+00,1.000000000000000000e+00,1.000000000000000000e+00,1.000000000000000000e+00,1.000000000000000000e+00,1.000000000000000000e+00,1.000000000000000000e+00,1.000000000000000000e+00,1.000000000000000000e+00,1.000000000000000000e+00,1.000000000000000000e+00,1.000000000000000000e+00,1.000000000000000000e+00,1.000000000000000000e+00,1.000000000000000000e+00,1.000000000000000000e+00,1.000000000000000000e+00,1.000000000000000000e+00,1.000000000000000000e+00,1.000000000000000000e+00,1.000000000000000000e+00,1.000000000000000000e+00,1.000000000000000000e+00,1.000000000000000000e+00,1.000000000000000000e+00,1.000000000000000000e+00,1.000000000000000000e+00,1.000000000000000000e+00,1.000000000000000000e+00,1.000000000000000000e+00,1.000000000000000000e+00,1.000000000000000000e+00,1.000000000000000000e+00,1.000000000000000000e+00,1.000000000000000000e+00
1.000000000000000000e+00,1.000000000000000000e+00,1.000000000000000000e+00,1.000000000000000000e+00,1.000000000000000000e+00,1.000000000000000000e+00,1.000000000000000000e+00,1.000000000000000000e+00,1.000000000000000000e+00,1.000000000000000000e+00,1.000000000000000000e+00,1.000000000000000000e+00,1.000000000000000000e+00,1.000000000000000000e+00,1.000000000000000000e+00,1.000000000000000000e+00,1.000000000000000000e+00,1.000000000000000000e+00,1.000000000000000000e+00,1.000000000000000000e+00,1.000000000000000000e+00,1.000000000000000000e+00,1.000000000000000000e+00,1.000000000000000000e+00,1.000000000000000000e+00,1.000000000000000000e+00,1.000000000000000000e+00,1.000000000000000000e+00,1.000000000000000000e+00,1.000000000000000000e+00,1.000000000000000000e+00,1.000000000000000000e+00,1.000000000000000000e+00,1.000000000000000000e+00,1.000000000000000000e+00,1.000000000000000000e+00,1.000000000000000000e+00,1.000000000000000000e+00,1.000000000000000000e+00,1.000000000000000000e+00,1.000000000000000000e+00,1.000000000000000000e+00,1.000000000000000000e+00,1.000000000000000000e+00,1.000000000000000000e+00,1.000000000000000000e+00,1.000000000000000000e+00,1.000000000000000000e+00,1.000000000000000000e+00,1.000000000000000000e+00
1.000000000000000000e+00,1.000000000000000000e+00,1.000000000000000000e+00,1.000000000000000000e+00,1.000000000000000000e+00,1.000000000000000000e+00,1.000000000000000000e+00,1.000000000000000000e+00,1.000000000000000000e+00,1.000000000000000000e+00,1.000000000000000000e+00,1.000000000000000000e+00,1.000000000000000000e+00,1.000000000000000000e+00,1.000000000000000000e+00,1.000000000000000000e+00,1.000000000000000000e+00,1.000000000000000000e+00,1.000000000000000000e+00,1.000000000000000000e+00,1.000000000000000000e+00,1.000000000000000000e+00,1.000000000000000000e+00,1.000000000000000000e+00,1.000000000000000000e+00,1.000000000000000000e+00,1.000000000000000000e+00,1.000000000000000000e+00,1.000000000000000000e+00,1.000000000000000000e+00,1.000000000000000000e+00,1.000000000000000000e+00,1.000000000000000000e+00,1.000000000000000000e+00,1.000000000000000000e+00,1.000000000000000000e+00,1.000000000000000000e+00,1.000000000000000000e+00,1.000000000000000000e+00,1.000000000000000000e+00,1.000000000000000000e+00,1.000000000000000000e+00,1.000000000000000000e+00,1.000000000000000000e+00,1.000000000000000000e+00,1.000000000000000000e+00,1.000000000000000000e+00,1.000000000000000000e+00,1.000000000000000000e+00,1.000000000000000000e+00
1.000000000000000000e+00,1.000000000000000000e+00,1.000000000000000000e+00,1.000000000000000000e+00,1.000000000000000000e+00,1.000000000000000000e+00,1.000000000000000000e+00,1.000000000000000000e+00,1.000000000000000000e+00,1.000000000000000000e+00,1.000000000000000000e+00,1.000000000000000000e+00,1.000000000000000000e+00,1.000000000000000000e+00,1.000000000000000000e+00,1.000000000000000000e+00,1.000000000000000000e+00,1.000000000000000000e+00,1.000000000000000000e+00,1.000000000000000000e+00,1.000000000000000000e+00,1.000000000000000000e+00,1.000000000000000000e+00,1.000000000000000000e+00,1.000000000000000000e+00,1.000000000000000000e+00,1.000000000000000000e+00,1.000000000000000000e+00,1.000000000000000000e+00,1.000000000000000000e+00,1.000000000000000000e+00,1.000000000000000000e+00,1.000000000000000000e+00,1.000000000000000000e+00,1.000000000000000000e+00,1.000000000000000000e+00,1.000000000000000000e+00,1.000000000000000000e+00,1.000000000000000000e+00,1.000000000000000000e+00,1.000000000000000000e+00,1.000000000000000000e+00,1.000000000000000000e+00,1.000000000000000000e+00,1.000000000000000000e+00,1.000000000000000000e+00,1.000000000000000000e+00,1.000000000000000000e+00,1.000000000000000000e+00,1.000000000000000000e+00
1.000000000000000000e+00,1.000000000000000000e+00,1.000000000000000000e+00,1.000000000000000000e+00,1.000000000000000000e+00,1.000000000000000000e+00,1.000000000000000000e+00,1.000000000000000000e+00,1.000000000000000000e+00,1.000000000000000000e+00,1.000000000000000000e+00,1.000000000000000000e+00,1.000000000000000000e+00,1.000000000000000000e+00,1.000000000000000000e+00,1.000000000000000000e+00,1.000000000000000000e+00,1.000000000000000000e+00,1.000000000000000000e+00,1.000000000000000000e+00,1.000000000000000000e+00,1.000000000000000000e+00,1.000000000000000000e+00,1.000000000000000000e+00,1.000000000000000000e+00,1.000000000000000000e+00,1.000000000000000000e+00,1.000000000000000000e+00,1.000000000000000000e+00,1.000000000000000000e+00,1.000000000000000000e+00,1.000000000000000000e+00,1.000000000000000000e+00,1.000000000000000000e+00,1.000000000000000000e+00,1.000000000000000000e+00,1.000000000000000000e+00,1.000000000000000000e+00,1.000000000000000000e+00,1.000000000000000000e+00,1.000000000000000000e+00,1.000000000000000000e+00,1.000000000000000000e+00,1.000000000000000000e+00,1.000000000000000000e+00,1.000000000000000000e+00,1.000000000000000000e+00,1.000000000000000000e+00,1.000000000000000000e+00,1.000000000000000000e+00
1.000000000000000000e+00,1.000000000000000000e+00,1.000000000000000000e+00,1.000000000000000000e+00,1.000000000000000000e+00,1.000000000000000000e+00,1.000000000000000000e+00,1.000000000000000000e+00,1.000000000000000000e+00,1.000000000000000000e+00,1.000000000000000000e+00,1.000000000000000000e+00,1.000000000000000000e+00,1.000000000000000000e+00,1.000000000000000000e+00,1.000000000000000000e+00,1.000000000000000000e+00,1.000000000000000000e+00,1.000000000000000000e+00,1.000000000000000000e+00,1.000000000000000000e+00,1.000000000000000000e+00,1.000000000000000000e+00,1.000000000000000000e+00,1.000000000000000000e+00,1.000000000000000000e+00,1.000000000000000000e+00,1.000000000000000000e+00,1.000000000000000000e+00,1.000000000000000000e+00,1.000000000000000000e+00,1.000000000000000000e+00,1.000000000000000000e+00,1.000000000000000000e+00,1.000000000000000000e+00,1.000000000000000000e+00,1.000000000000000000e+00,1.000000000000000000e+00,1.000000000000000000e+00,1.000000000000000000e+00,1.000000000000000000e+00,1.000000000000000000e+00,1.000000000000000000e+00,1.000000000000000000e+00,1.000000000000000000e+00,1.000000000000000000e+00,1.000000000000000000e+00,1.000000000000000000e+00,1.000000000000000000e+00,1.000000000000000000e+00
1.000000000000000000e+00,1.000000000000000000e+00,1.000000000000000000e+00,1.000000000000000000e+00,1.000000000000000000e+00,1.000000000000000000e+00,1.000000000000000000e+00,1.000000000000000000e+00,1.000000000000000000e+00,1.000000000000000000e+00,1.000000000000000000e+00,1.000000000000000000e+00,1.000000000000000000e+00,1.000000000000000000e+00,1.000000000000000000e+00,1.000000000000000000e+00,1.000000000000000000e+00,1.000000000000000000e+00,1.000000000000000000e+00,1.000000000000000000e+00,1.000000000000000000e+00,1.000000000000000000e+00,1.000000000000000000e+00,1.000000000000000000e+00,1.000000000000000000e+00,1.000000000000000000e+00,1.000000000000000000e+00,1.000000000000000000e+00,1.000000000000000000e+00,1.000000000000000000e+00,1.000000000000000000e+00,1.000000000000000000e+00,1.000000000000000000e+00,1.000000000000000000e+00,1.000000000000000000e+00,1.000000000000000000e+00,1.000000000000000000e+00,1.000000000000000000e+00,1.000000000000000000e+00,1.000000000000000000e+00,1.000000000000000000e+00,1.000000000000000000e+00,1.000000000000000000e+00,1.000000000000000000e+00,1.000000000000000000e+00,1.000000000000000000e+00,1.000000000000000000e+00,1.000000000000000000e+00,1.000000000000000000e+00,1.000000000000000000e+00
1.000000000000000000e+00,1.000000000000000000e+00,1.000000000000000000e+00,1.000000000000000000e+00,1.000000000000000000e+00,1.000000000000000000e+00,1.000000000000000000e+00,1.000000000000000000e+00,1.000000000000000000e+00,1.000000000000000000e+00,1.000000000000000000e+00,1.000000000000000000e+00,1.000000000000000000e+00,1.000000000000000000e+00,1.000000000000000000e+00,1.000000000000000000e+00,1.000000000000000000e+00,1.000000000000000000e+00,1.000000000000000000e+00,1.000000000000000000e+00,1.000000000000000000e+00,1.000000000000000000e+00,1.000000000000000000e+00,1.000000000000000000e+00,1.000000000000000000e+00,1.000000000000000000e+00,1.000000000000000000e+00,1.000000000000000000e+00,1.000000000000000000e+00,1.000000000000000000e+00,1.000000000000000000e+00,1.000000000000000000e+00,1.000000000000000000e+00,1.000000000000000000e+00,1.000000000000000000e+00,1.000000000000000000e+00,1.000000000000000000e+00,1.000000000000000000e+00,1.000000000000000000e+00,1.000000000000000000e+00,1.000000000000000000e+00,1.000000000000000000e+00,1.000000000000000000e+00,1.000000000000000000e+00,1.000000000000000000e+00,1.000000000000000000e+00,1.000000000000000000e+00,1.000000000000000000e+00,1.000000000000000000e+00,1.000000000000000000e+00
1.000000000000000000e+00,1.000000000000000000e+00,1.000000000000000000e+00,1.000000000000000000e+00,1.000000000000000000e+00,1.000000000000000000e+00,1.000000000000000000e+00,1.000000000000000000e+00,1.000000000000000000e+00,1.000000000000000000e+00,1.000000000000000000e+00,1.000000000000000000e+00,1.000000000000000000e+00,1.000000000000000000e+00,1.000000000000000000e+00,1.000000000000000000e+00,1.000000000000000000e+00,1.000000000000000000e+00,1.000000000000000000e+00,1.000000000000000000e+00,1.000000000000000000e+00,1.000000000000000000e+00,1.000000000000000000e+00,1.000000000000000000e+00,1.000000000000000000e+00,1.000000000000000000e+00,1.000000000000000000e+00,1.000000000000000000e+00,1.000000000000000000e+00,1.000000000000000000e+00,1.000000000000000000e+00,1.000000000000000000e+00,1.000000000000000000e+00,1.000000000000000000e+00,1.000000000000000000e+00,1.000000000000000000e+00,1.000000000000000000e+00,1.000000000000000000e+00,1.000000000000000000e+00,1.000000000000000000e+00,1.000000000000000000e+00,1.000000000000000000e+00,1.000000000000000000e+00,1.000000000000000000e+00,1.000000000000000000e+00,1.000000000000000000e+00,1.000000000000000000e+00,1.000000000000000000e+00,1.000000000000000000e+00,1.000000000000000000e+00
1.000000000000000000e+00,1.000000000000000000e+00,1.000000000000000000e+00,1.000000000000000000e+00,1.000000000000000000e+00,1.000000000000000000e+00,1.000000000000000000e+00,1.000000000000000000e+00,1.000000000000000000e+00,1.000000000000000000e+00,1.000000000000000000e+00,1.000000000000000000e+00,1.000000000000000000e+00,1.000000000000000000e+00,1.000000000000000000e+00,1.000000000000000000e+00,1.000000000000000000e+00,1.000000000000000000e+00,1.000000000000000000e+00,1.000000000000000000e+00,1.000000000000000000e+00,1.000000000000000000e+00,1.000000000000000000e+00,1.000000000000000000e+00,1.000000000000000000e+00,1.000000000000000000e+00,1.000000000000000000e+00,1.000000000000000000e+00,1.000000000000000000e+00,1.000000000000000000e+00,1.000000000000000000e+00,1.000000000000000000e+00,1.000000000000000000e+00,1.000000000000000000e+00,1.000000000000000000e+00,1.000000000000000000e+00,1.000000000000000000e+00,1.000000000000000000e+00,1.000000000000000000e+00,1.000000000000000000e+00,1.000000000000000000e+00,1.000000000000000000e+00,1.000000000000000000e+00,1.000000000000000000e+00,1.000000000000000000e+00,1.000000000000000000e+00,1.000000000000000000e+00,1.000000000000000000e+00,1.000000000000000000e+00,1.000000000000000000e+00
1.000000000000000000e+00,1.000000000000000000e+00,1.000000000000000000e+00,1.000000000000000000e+00,1.000000000000000000e+00,1.000000000000000000e+00,1.000000000000000000e+00,1.000000000000000000e+00,1.000000000000000000e+00,1.000000000000000000e+00,1.000000000000000000e+00,1.000000000000000000e+00,1.000000000000000000e+00,1.000000000000000000e+00,1.000000000000000000e+00,1.000000000000000000e+00,1.000000000000000000e+00,1.000000000000000000e+00,1.000000000000000000e+00,1.000000000000000000e+00,1.000000000000000000e+00,1.000000000000000000e+00,1.000000000000000000e+00,1.000000000000000000e+00,1.000000000000000000e+00,1.000000000000000000e+00,1.000000000000000000e+00,1.000000000000000000e+00,1.000000000000000000e+00,1.000000000000000000e+00,1.000000000000000000e+00,1.000000000000000000e+00,1.000000000000000000e+00,1.000000000000000000e+00,1.000000000000000000e+00,1.000000000000000000e+00,1.000000000000000000e+00,1.000000000000000000e+00,1.000000000000000000e+00,1.000000000000000000e+00,1.000000000000000000e+00,1.000000000000000000e+00,1.000000000000000000e+00,1.000000000000000000e+00,1.000000000000000000e+00,1.000000000000000000e+00,1.000000000000000000e+00,1.000000000000000000e+00,1.000000000000000000e+00,1.000000000000000000e+00
1.000000000000000000e+00,1.000000000000000000e+00,1.000000000000000000e+00,1.000000000000000000e+00,1.000000000000000000e+00,1.000000000000000000e+00,1.000000000000000000e+00,1.000000000000000000e+00,1.000000000000000000e+00,1.000000000000000000e+00,1.000000000000000000e+00,1.000000000000000000e+00,1.000000000000000000e+00,1.000000000000000000e+00,1.000000000000000000e+00,1.000000000000000000e+00,1.000000000000000000e+00,1.000000000000000000e+00,1.000000000000000000e+00,1.000000000000000000e+00,1.000000000000000000e+00,1.000000000000000000e+00,1.000000000000000000e+00,1.000000000000000000e+00,1.000000000000000000e+00,1.000000000000000000e+00,1.000000000000000000e+00,1.000000000000000000e+00,1.000000000000000000e+00,1.000000000000000000e+00,1.000000000000000000e+00,1.000000000000000000e+00,1.000000000000000000e+00,1.000000000000000000e+00,1.000000000000000000e+00,1.000000000000000000e+00,1.000000000000000000e+00,1.000000000000000000e+00,1.000000000000000000e+00,1.000000000000000000e+00,1.000000000000000000e+00,1.000000000000000000e+00,1.000000000000000000e+00,1.000000000000000000e+00,1.000000000000000000e+00,1.000000000000000000e+00,1.000000000000000000e+00,1.000000000000000000e+00,1.000000000000000000e+00,1.000000000000000000e+00
1.000000000000000000e+00,1.000000000000000000e+00,1.000000000000000000e+00,1.000000000000000000e+00,1.000000000000000000e+00,1.000000000000000000e+00,1.000000000000000000e+00,1.000000000000000000e+00,1.000000000000000000e+00,1.000000000000000000e+00,1.000000000000000000e+00,1.000000000000000000e+00,1.000000000000000000e+00,1.000000000000000000e+00,1.000000000000000000e+00,1.000000000000000000e+00,1.000000000000000000e+00,1.000000000000000000e+00,1.000000000000000000e+00,1.000000000000000000e+00,1.000000000000000000e+00,1.000000000000000000e+00,1.000000000000000000e+00,1.000000000000000000e+00,1.000000000000000000e+00,1.000000000000000000e+00,1.000000000000000000e+00,1.000000000000000000e+00,1.000000000000000000e+00,1.000000000000000000e+00,1.000000000000000000e+00,1.000000000000000000e+00,1.000000000000000000e+00,1.000000000000000000e+00,1.000000000000000000e+00,1.000000000000000000e+00,1.000000000000000000e+00,1.000000000000000000e+00,1.000000000000000000e+00,1.000000000000000000e+00,1.000000000000000000e+00,1.000000000000000000e+00,1.000000000000000000e+00,1.000000000000000000e+00,1.000000000000000000e+00,1.000000000000000000e+00,1.000000000000000000e+00,1.000000000000000000e+00,1.000000000000000000e+00,1.000000000000000000e+00
1.000000000000000000e+00,1.000000000000000000e+00,1.000000000000000000e+00,1.000000000000000000e+00,1.000000000000000000e+00,1.000000000000000000e+00,1.000000000000000000e+00,1.000000000000000000e+00,1.000000000000000000e+00,1.000000000000000000e+00,1.000000000000000000e+00,1.000000000000000000e+00,1.000000000000000000e+00,1.000000000000000000e+00,1.000000000000000000e+00,1.000000000000000000e+00,1.000000000000000000e+00,1.000000000000000000e+00,1.000000000000000000e+00,1.000000000000000000e+00,1.000000000000000000e+00,1.000000000000000000e+00,1.000000000000000000e+00,1.000000000000000000e+00,1.000000000000000000e+00,1.000000000000000000e+00,1.000000000000000000e+00,1.000000000000000000e+00,1.000000000000000000e+00,1.000000000000000000e+00,1.000000000000000000e+00,1.000000000000000000e+00,1.000000000000000000e+00,1.000000000000000000e+00,1.000000000000000000e+00,1.000000000000000000e+00,1.000000000000000000e+00,1.000000000000000000e+00,1.000000000000000000e+00,1.000000000000000000e+00,1.000000000000000000e+00,1.000000000000000000e+00,1.000000000000000000e+00,1.000000000000000000e+00,1.000000000000000000e+00,1.000000000000000000e+00,1.000000000000000000e+00,1.000000000000000000e+00,1.000000000000000000e+00,1.000000000000000000e+00
1.000000000000000000e+00,1.000000000000000000e+00,1.000000000000000000e+00,1.000000000000000000e+00,1.000000000000000000e+00,1.000000000000000000e+00,1.000000000000000000e+00,1.000000000000000000e+00,1.000000000000000000e+00,1.000000000000000000e+00,1.000000000000000000e+00,1.000000000000000000e+00,1.000000000000000000e+00,1.000000000000000000e+00,1.000000000000000000e+00,1.000000000000000000e+00,1.000000000000000000e+00,1.000000000000000000e+00,1.000000000000000000e+00,1.000000000000000000e+00,1.000000000000000000e+00,1.000000000000000000e+00,1.000000000000000000e+00,1.000000000000000000e+00,1.000000000000000000e+00,1.000000000000000000e+00,1.000000000000000000e+00,1.000000000000000000e+00,1.000000000000000000e+00,1.000000000000000000e+00,1.000000000000000000e+00,1.000000000000000000e+00,1.000000000000000000e+00,1.000000000000000000e+00,1.000000000000000000e+00,1.000000000000000000e+00,1.000000000000000000e+00,1.000000000000000000e+00,1.000000000000000000e+00,1.000000000000000000e+00,1.000000000000000000e+00,1.000000000000000000e+00,1.000000000000000000e+00,1.000000000000000000e+00,1.000000000000000000e+00,1.000000000000000000e+00,1.000000000000000000e+00,1.000000000000000000e+00,1.000000000000000000e+00,1.000000000000000000e+00
1.000000000000000000e+00,1.000000000000000000e+00,1.000000000000000000e+00,1.000000000000000000e+00,1.000000000000000000e+00,1.000000000000000000e+00,1.000000000000000000e+00,1.000000000000000000e+00,1.000000000000000000e+00,1.000000000000000000e+00,1.000000000000000000e+00,1.000000000000000000e+00,1.000000000000000000e+00,1.000000000000000000e+00,1.000000000000000000e+00,1.000000000000000000e+00,1.000000000000000000e+00,1.000000000000000000e+00,1.000000000000000000e+00,1.000000000000000000e+00,1.000000000000000000e+00,1.000000000000000000e+00,1.000000000000000000e+00,1.000000000000000000e+00,1.000000000000000000e+00,1.000000000000000000e+00,1.000000000000000000e+00,1.000000000000000000e+00,1.000000000000000000e+00,1.000000000000000000e+00,1.000000000000000000e+00,1.000000000000000000e+00,1.000000000000000000e+00,1.000000000000000000e+00,1.000000000000000000e+00,1.000000000000000000e+00,1.000000000000000000e+00,1.000000000000000000e+00,1.000000000000000000e+00,1.000000000000000000e+00,1.000000000000000000e+00,1.000000000000000000e+00,1.000000000000000000e+00,1.000000000000000000e+00,1.000000000000000000e+00,1.000000000000000000e+00,1.000000000000000000e+00,1.000000000000000000e+00,1.000000000000000000e+00,1.000000000000000000e+00
1.000000000000000000e+00,1.000000000000000000e+00,1.000000000000000000e+00,1.000000000000000000e+00,1.000000000000000000e+00,1.000000000000000000e+00,1.000000000000000000e+00,1.000000000000000000e+00,1.000000000000000000e+00,1.000000000000000000e+00,1.000000000000000000e+00,1.000000000000000000e+00,1.000000000000000000e+00,1.000000000000000000e+00,1.000000000000000000e+00,1.000000000000000000e+00,1.000000000000000000e+00,1.000000000000000000e+00,1.000000000000000000e+00,1.000000000000000000e+00,1.000000000000000000e+00,1.000000000000000000e+00,1.000000000000000000e+00,1.000000000000000000e+00,1.000000000000000000e+00,1.000000000000000000e+00,1.000000000000000000e+00,1.000000000000000000e+00,1.000000000000000000e+00,1.000000000000000000e+00,1.000000000000000000e+00,1.000000000000000000e+00,1.000000000000000000e+00,1.000000000000000000e+00,1.000000000000000000e+00,1.000000000000000000e+00,1.000000000000000000e+00,1.000000000000000000e+00,1.000000000000000000e+00,1.000000000000000000e+00,1.000000000000000000e+00,1.000000000000000000e+00,1.000000000000000000e+00,1.000000000000000000e+00,1.000000000000000000e+00,1.000000000000000000e+00,1.000000000000000000e+00,1.000000000000000000e+00,1.000000000000000000e+00,1.000000000000000000e+00
1.000000000000000000e+00,1.000000000000000000e+00,1.000000000000000000e+00,1.000000000000000000e+00,1.000000000000000000e+00,1.000000000000000000e+00,1.000000000000000000e+00,1.000000000000000000e+00,1.000000000000000000e+00,1.000000000000000000e+00,1.000000000000000000e+00,1.000000000000000000e+00,1.000000000000000000e+00,1.000000000000000000e+00,1.000000000000000000e+00,1.000000000000000000e+00,1.000000000000000000e+00,1.000000000000000000e+00,1.000000000000000000e+00,1.000000000000000000e+00,1.000000000000000000e+00,1.000000000000000000e+00,1.000000000000000000e+00,1.000000000000000000e+00,1.000000000000000000e+00,1.000000000000000000e+00,1.000000000000000000e+00,1.000000000000000000e+00,1.000000000000000000e+00,1.000000000000000000e+00,1.000000000000000000e+00,1.000000000000000000e+00,1.000000000000000000e+00,1.000000000000000000e+00,1.000000000000000000e+00,1.000000000000000000e+00,1.000000000000000000e+00,1.000000000000000000e+00,1.000000000000000000e+00,1.000000000000000000e+00,1.000000000000000000e+00,1.000000000000000000e+00,1.000000000000000000e+00,1.000000000000000000e+00,1.000000000000000000e+00,1.000000000000000000e+00,1.000000000000000000e+00,1.000000000000000000e+00,1.000000000000000000e+00,1.000000000000000000e+00
1.000000000000000000e+00,1.000000000000000000e+00,1.000000000000000000e+00,1.000000000000000000e+00,1.000000000000000000e+00,1.000000000000000000e+00,1.000000000000000000e+00,1.000000000000000000e+00,1.000000000000000000e+00,1.000000000000000000e+00,1.000000000000000000e+00,1.000000000000000000e+00,1.000000000000000000e+00,1.000000000000000000e+00,1.000000000000000000e+00,1.000000000000000000e+00,1.000000000000000000e+00,1.000000000000000000e+00,1.000000000000000000e+00,1.000000000000000000e+00,1.000000000000000000e+00,1.000000000000000000e+00,1.000000000000000000e+00,1.000000000000000000e+00,1.000000000000000000e+00,1.000000000000000000e+00,1.000000000000000000e+00,1.000000000000000000e+00,1.000000000000000000e+00,1.000000000000000000e+00,1.000000000000000000e+00,1.000000000000000000e+00,1.000000000000000000e+00,1.000000000000000000e+00,1.000000000000000000e+00,1.000000000000000000e+00,1.000000000000000000e+00,1.000000000000000000e+00,1.000000000000000000e+00,1.000000000000000000e+00,1.000000000000000000e+00,1.000000000000000000e+00,1.000000000000000000e+00,1.000000000000000000e+00,1.000000000000000000e+00,1.000000000000000000e+00,1.000000000000000000e+00,1.000000000000000000e+00,1.000000000000000000e+00,1.000000000000000000e+00
1.000000000000000000e+00,1.000000000000000000e+00,1.000000000000000000e+00,1.000000000000000000e+00,1.000000000000000000e+00,1.000000000000000000e+00,1.000000000000000000e+00,1.000000000000000000e+00,1.000000000000000000e+00,1.000000000000000000e+00,1.000000000000000000e+00,1.000000000000000000e+00,1.000000000000000000e+00,1.000000000000000000e+00,1.000000000000000000e+00,1.000000000000000000e+00,1.000000000000000000e+00,1.000000000000000000e+00,1.000000000000000000e+00,1.000000000000000000e+00,1.000000000000000000e+00,1.000000000000000000e+00,1.000000000000000000e+00,1.000000000000000000e+00,1.000000000000000000e+00,1.000000000000000000e+00,1.000000000000000000e+00,1.000000000000000000e+00,1.000000000000000000e+00,1.000000000000000000e+00,1.000000000000000000e+00,1.000000000000000000e+00,1.000000000000000000e+00,1.000000000000000000e+00,1.000000000000000000e+00,1.000000000000000000e+00,1.000000000000000000e+00,1.000000000000000000e+00,1.000000000000000000e+00,1.000000000000000000e+00,1.000000000000000000e+00,1.000000000000000000e+00,1.000000000000000000e+00,1.000000000000000000e+00,1.000000000000000000e+00,1.000000000000000000e+00,1.000000000000000000e+00,1.000000000000000000e+00,1.000000000000000000e+00,1.000000000000000000e+00
1.000000000000000000e+00,1.000000000000000000e+00,1.000000000000000000e+00,1.000000000000000000e+00,1.000000000000000000e+00,1.000000000000000000e+00,1.000000000000000000e+00,1.000000000000000000e+00,1.000000000000000000e+00,1.000000000000000000e+00,1.000000000000000000e+00,1.000000000000000000e+00,1.000000000000000000e+00,1.000000000000000000e+00,1.000000000000000000e+00,1.000000000000000000e+00,1.000000000000000000e+00,1.000000000000000000e+00,1.000000000000000000e+00,1.000000000000000000e+00,1.000000000000000000e+00,1.000000000000000000e+00,1.000000000000000000e+00,1.000000000000000000e+00,1.000000000000000000e+00,1.000000000000000000e+00,1.000000000000000000e+00,1.000000000000000000e+00,1.000000000000000000e+00,1.000000000000000000e+00,1.000000000000000000e+00,1.000000000000000000e+00,1.000000000000000000e+00,1.000000000000000000e+00,1.000000000000000000e+00,1.000000000000000000e+00,1.000000000000000000e+00,1.000000000000000000e+00,1.000000000000000000e+00,1.000000000000000000e+00,1.000000000000000000e+00,1.000000000000000000e+00,1.000000000000000000e+00,1.000000000000000000e+00,1.000000000000000000e+00,1.000000000000000000e+00,1.000000000000000000e+00,1.000000000000000000e+00,1.000000000000000000e+00,1.000000000000000000e+00
1.000000000000000000e+00,1.000000000000000000e+00,1.000000000000000000e+00,1.000000000000000000e+00,1.000000000000000000e+00,1.000000000000000000e+00,1.000000000000000000e+00,1.000000000000000000e+00,1.000000000000000000e+00,1.000000000000000000e+00,1.000000000000000000e+00,1.000000000000000000e+00,1.000000000000000000e+00,1.000000000000000000e+00,1.000000000000000000e+00,1.000000000000000000e+00,1.000000000000000000e+00,1.000000000000000000e+00,1.000000000000000000e+00,1.000000000000000000e+00,1.000000000000000000e+00,1.000000000000000000e+00,1.000000000000000000e+00,1.000000000000000000e+00,1.000000000000000000e+00,1.000000000000000000e+00,1.000000000000000000e+00,1.000000000000000000e+00,1.000000000000000000e+00,1.000000000000000000e+00,1.000000000000000000e+00,1.000000000000000000e+00,1.000000000000000000e+00,1.000000000000000000e+00,1.000000000000000000e+00,1.000000000000000000e+00,1.000000000000000000e+00,1.000000000000000000e+00,1.000000000000000000e+00,1.000000000000000000e+00,1.000000000000000000e+00,1.000000000000000000e+00,1.000000000000000000e+00,1.000000000000000000e+00,1.000000000000000000e+00,1.000000000000000000e+00,1.000000000000000000e+00,1.000000000000000000e+00,1.000000000000000000e+00,1.000000000000000000e+00
1.000000000000000000e+00,1.000000000000000000e+00,1.000000000000000000e+00,1.000000000000000000e+00,1.000000000000000000e+00,1.000000000000000000e+00,1.000000000000000000e+00,1.000000000000000000e+00,1.000000000000000000e+00,1.000000000000000000e+00,1.000000000000000000e+00,1.000000000000000000e+00,1.000000000000000000e+00,1.000000000000000000e+00,1.000000000000000000e+00,1.000000000000000000e+00,1.000000000000000000e+00,1.000000000000000000e+00,1.000000000000000000e+00,1.000000000000000000e+00,1.000000000000000000e+00,1.000000000000000000e+00,1.000000000000000000e+00,1.000000000000000000e+00,1.000000000000000000e+00,1.000000000000000000e+00,1.000000000000000000e+00,1.000000000000000000e+00,1.000000000000000000e+00,1.000000000000000000e+00,1.000000000000000000e+00,1.000000000000000000e+00,1.000000000000000000e+00,1.000000000000000000e+00,1.000000000000000000e+00,1.000000000000000000e+00,1.000000000000000000e+00,1.000000000000000000e+00,1.000000000000000000e+00,1.000000000000000000e+00,1.000000000000000000e+00,1.000000000000000000e+00,1.000000000000000000e+00,1.000000000000000000e+00,1.000000000000000000e+00,1.000000000000000000e+00,1.000000000000000000e+00,1.000000000000000000e+00,1.000000000000000000e+00,1.000000000000000000e+00
1.000000000000000000e+00,1.000000000000000000e+00,1.000000000000000000e+00,1.000000000000000000e+00,1.000000000000000000e+00,1.000000000000000000e+00,1.000000000000000000e+00,1.000000000000000000e+00,1.000000000000000000e+00,1.000000000000000000e+00,1.000000000000000000e+00,1.000000000000000000e+00,1.000000000000000000e+00,1.000000000000000000e+00,1.000000000000000000e+00,1.000000000000000000e+00,1.000000000000000000e+00,1.000000000000000000e+00,1.000000000000000000e+00,1.000000000000000000e+00,1.000000000000000000e+00,1.000000000000000000e+00,1.000000000000000000e+00,1.000000000000000000e+00,1.000000000000000000e+00,1.000000000000000000e+00,1.000000000000000000e+00,1.000000000000000000e+00,1.000000000000000000e+00,1.000000000000000000e+00,1.000000000000000000e+00,1.000000000000000000e+00,1.000000000000000000e+00,1.000000000000000000e+00,1.000000000000000000e+00,1.000000000000000000e+00,1.000000000000000000e+00,1.000000000000000000e+00,1.000000000000000000e+00,1.000000000000000000e+00,1.000000000000000000e+00,1.000000000000000000e+00,1.000000000000000000e+00,1.000000000000000000e+00,1.000000000000000000e+00,1.000000000000000000e+00,1.000000000000000000e+00,1.000000000000000000e+00,1.000000000000000000e+00,1.000000000000000000e+00
1.000000000000000000e+00,1.000000000000000000e+00,1.000000000000000000e+00,1.000000000000000000e+00,1.000000000000000000e+00,1.000000000000000000e+00,1.000000000000000000e+00,1.000000000000000000e+00,1.000000000000000000e+00,1.000000000000000000e+00,1.000000000000000000e+00,1.000000000000000000e+00,1.000000000000000000e+00,1.000000000000000000e+00,1.000000000000000000e+00,1.000000000000000000e+00,1.000000000000000000e+00,1.000000000000000000e+00,1.000000000000000000e+00,1.000000000000000000e+00,1.000000000000000000e+00,1.000000000000000000e+00,1.000000000000000000e+00,1.000000000000000000e+00,1.000000000000000000e+00,1.000000000000000000e+00,1.000000000000000000e+00,1.000000000000000000e+00,1.000000000000000000e+00,1.000000000000000000e+00,1.000000000000000000e+00,1.000000000000000000e+00,1.000000000000000000e+00,1.000000000000000000e+00,1.000000000000000000e+00,1.000000000000000000e+00,1.000000000000000000e+00,1.000000000000000000e+00,1.000000000000000000e+00,1.000000000000000000e+00,1.000000000000000000e+00,1.000000000000000000e+00,1.000000000000000000e+00,1.000000000000000000e+00,1.000000000000000000e+00,1.000000000000000000e+00,1.000000000000000000e+00,1.000000000000000000e+00,1.000000000000000000e+00,1.000000000000000000e+00
1.000000000000000000e+00,1.000000000000000000e+00,1.000000000000000000e+00,1.000000000000000000e+00,1.000000000000000000e+00,1.000000000000000000e+00,1.000000000000000000e+00,1.000000000000000000e+00,1.000000000000000000e+00,1.000000000000000000e+00,1.000000000000000000e+00,1.000000000000000000e+00,1.000000000000000000e+00,1.000000000000000000e+00,1.000000000000000000e+00,1.000000000000000000e+00,1.000000000000000000e+00,1.000000000000000000e+00,1.000000000000000000e+00,1.000000000000000000e+00,1.000000000000000000e+00,1.000000000000000000e+00,1.000000000000000000e+00,1.000000000000000000e+00,1.000000000000000000e+00,1.000000000000000000e+00,1.000000000000000000e+00,1.000000000000000000e+00,1.000000000000000000e+00,1.000000000000000000e+00,1.000000000000000000e+00,1.000000000000000000e+00,1.000000000000000000e+00,1.000000000000000000e+00,1.000000000000000000e+00,1.000000000000000000e+00,1.000000000000000000e+00,1.000000000000000000e+00,1.000000000000000000e+00,1.000000000000000000e+00,1.000000000000000000e+00,1.000000000000000000e+00,1.000000000000000000e+00,1.000000000000000000e+00,1.000000000000000000e+00,1.000000000000000000e+00,1.000000000000000000e+00,1.000000000000000000e+00,1.000000000000000000e+00,1.000000000000000000e+00
