6.206425428390502930e-01,8.019638061523437500e-02,1.836512684822082520e-01,2.014035731554031372e-01,5.510842204093933105e-01,3.949148356914520264e-01,9.122221916913986206e-02,9.169987440109252930e-01,-9.584835916757583618e-02,-4.863313436508178711e-01,1.422726809978485107e-01,6.669818609952926636e-02,1.947562694549560547e-01,5.198081731796264648e-01,8.799240589141845703e-01,-2.060178816318511963e-01,4.451286196708679199e-01,1.463969796895980835e-01,-1.080235019326210022e-01,-3.687533549964427948e-03,1.791082024574279785e-01,-5.927200913429260254e-01,2.344484478235244751e-01,1.668738424777984619e-01,4.710287749767303467e-01,7.503194212913513184e-01,-3.308077901601791382e-02,-1.392952501773834229e-01,2.569891214370727539e-01,2.094378173351287842e-01,1.798630505800247192e-01,6.538864970207214355e-02,7.744976133108139038e-02,8.186996579170227051e-01,5.108036994934082031e-01,-1.190017014741897583e-01,1.985025256872177124e-01,1.617672294378280640e-01,1.605266183614730835e-01,5.815446376800537109e-01,1.991132646799087524e-01,6.906464695930480957e-01,5.741296410560607910e-01,4.269424080848693848e-01,8.227485418319702148e-01,3.929848372936248779e-01,-1.233142390847206116e-01,9.214220643043518066e-01,1.901417411863803864e-02,-4.219928085803985596e-01
6.449778676033020020e-01,9.369871765375137329e-02,1.442243009805679321e-01,2.143612802028656006e-01,3.692624866962432861e-01,1.184162423014640808e-01,-2.288934588432312012e-01,8.324791193008422852e-01,-2.371708005666732788e-01,-6.851125955581665039e-01,-4.226106777787208557e-02,1.560887098312377930e-01,2.357797920703887939e-01,6.415262818336486816e-01,7.497677206993103027e-01,-1.644747704267501831e-01,2.924632132053375244e-01,1.265384405851364136e-01,-2.325554043054580688e-01,5.692094564437866211e-02,2.919951640069484711e-02,-6.475628614425659180e-01,-6.775428354740142822e-02,5.150987505912780762e-01,8.718177080154418945e-01,7.788562178611755371e-01,1.620770990848541260e-01,-3.778455257415771484e-01,4.151834845542907715e-01,2.944876849651336670e-01,2.801214456558227539e-01,1.538383960723876953e-01,-4.512877017259597778e-02,7.548087239265441895e-01,4.686187803745269775e-01,9.561480581760406494e-02,2.146700769662857056e-01,1.002997756004333496e-01,-2.227594554424285889e-01,5.859012603759765625e-01,5.709968209266662598e-01,2.741644680500030518e-01,4.489696770906448364e-02,4.808281064033508301e-01,2.993147075176239014e-01,6.181962490081787109e-01,2.606854140758514404e-01,8.532844185829162598e-01,-1.585209742188453674e-02,-6.094428896903991699e-01
4.814489185810089111e-01,-3.305875062942504883e-01,7.097902894020080566e-02,3.725517988204956055e-01,8.607495427131652832e-01,9.682429581880569458e-02,-2.507151290774345398e-02,1.525890231132507324e-01,4.432312399148941040e-02,-5.770694017410278320e-01,7.103380560874938965e-02,-4.854379594326019287e-01,3.952855169773101807e-01,4.321389496326446533e-01,8.920524120330810547e-01,1.045717746019363403e-01,-1.012680307030677795e-01,1.176377385854721069e-01,2.782417833805084229e-01,4.833330214023590088e-01,4.867572784423828125e-01,-6.983740329742431641e-01,-4.000447690486907959e-01,-4.778407812118530273e-01,4.556048214435577393e-01,8.849579691886901855e-01,-5.188772678375244141e-01,6.108733415603637695e-01,3.071252703666687012e-01,4.065699577331542969e-01,4.701102674007415771e-01,4.034859240055084229e-01,3.166692852973937988e-01,7.791699767112731934e-01,8.699875473976135254e-01,-4.018505811691284180e-01,6.138451099395751953e-01,3.754670023918151855e-01,1.563403308391571045e-01,8.145936727523803711e-01,8.660197854042053223e-01,9.098401069641113281e-01,8.140853047370910645e-01,5.086318254470825195e-01,4.146805107593536377e-01,8.586107492446899414e-01,2.653000056743621826e-01,9.033913016319274902e-01,3.299156129360198975e-01,-7.463383078575134277e-01
1.778205037117004395e-01,-1.734250783920288086e-01,-1.399610191583633423e-01,4.955276250839233398e-01,2.235456258058547974e-01,-2.535988576710224152e-02,-2.299847602844238281e-01,-3.471365198493003845e-02,1.568581312894821167e-01,-5.072001218795776367e-01,3.960935771465301514e-01,-2.617165148258209229e-01,4.612132608890533447e-01,4.930236637592315674e-01,1.888577826321125031e-02,2.903387248516082764e-01,3.811847791075706482e-02,7.808385789394378662e-02,-4.480129480361938477e-01,2.634037751704454422e-03,8.776417374610900879e-02,-7.659949064254760742e-01,-2.872310280799865723e-01,-1.726210564374923706e-01,9.458200335502624512e-01,7.500270009040832520e-01,-4.914844632148742676e-01,1.664156466722488403e-01,2.524015903472900391e-01,4.981289505958557129e-01,4.689643085002899170e-01,2.784268558025360107e-01,-3.361859917640686035e-01,6.234052777290344238e-02,-1.312279403209686279e-01,7.396444678306579590e-02,3.986870348453521729e-01,2.235241979360580444e-01,-2.490968108177185059e-01,3.131987899541854858e-02,1.443531215190887451e-01,-4.885165691375732422e-01,-1.896413713693618774e-01,-1.499195545911788940e-01,-1.300014276057481766e-02,7.235383242368698120e-02,-3.363621532917022705e-01,2.665964066982269287e-01,1.315179280936717987e-02,-1.082976683974266052e-01
-2.606013715267181396e-01,-2.868582308292388916e-01,-5.453901886940002441e-01,6.629727482795715332e-01,2.139363586902618408e-01,-1.137855499982833862e-01,1.209247857332229614e-01,-3.563430607318878174e-01,3.881324529647827148e-01,8.070734739303588867e-01,6.091068387031555176e-01,-2.453502416610717773e-01,6.571950316429138184e-01,-1.825286149978637695e-01,4.152806848287582397e-02,5.775967240333557129e-01,-2.564188539981842041e-01,1.304152160882949829e-01,-3.185654059052467346e-02,2.632884979248046875e-01,1.546321958303451538e-01,-7.976706624031066895e-01,-5.345442518591880798e-02,-1.750083118677139282e-01,1.307979598641395569e-02,6.369169950485229492e-01,-5.037433505058288574e-01,2.560611665248870850e-01,-1.853641308844089508e-02,6.920562386512756348e-01,6.791003942489624023e-01,5.136402845382690430e-01,-2.639016211032867432e-01,6.400573253631591797e-02,2.594912350177764893e-01,-6.389753222465515137e-01,2.764578722417354584e-02,-1.679784208536148071e-01,2.486224472522735596e-02,1.770403534173965454e-01,3.040995299816131592e-01,-2.923436760902404785e-01,6.835252791643142700e-02,-4.890665877610445023e-03,6.718897819519042969e-01,2.720780074596405029e-01,-5.274876952171325684e-01,1.424200087785720825e-01,8.752944320440292358e-02,-7.884541749954223633e-01
-1.706118434667587280e-01,-4.368701577186584473e-01,-1.751516610383987427e-01,1.149105727672576904e-01,2.686653286218643188e-02,-1.235588733106851578e-02,-3.406850397586822510e-01,-9.034762531518936157e-02,2.456157654523849487e-01,2.287083417177200317e-01,1.161230579018592834e-01,-3.958339989185333252e-01,3.753722906112670898e-01,-1.054854784160852432e-02,-9.141728281974792480e-02,3.203958570957183838e-01,-3.463494181632995605e-01,3.564165830612182617e-01,-5.235350131988525391e-01,-2.593427896499633789e-01,-1.699178069829940796e-01,-8.034076094627380371e-01,-4.162998795509338379e-01,-3.747719824314117432e-01,-9.372933208942413330e-02,1.152204424142837524e-01,-5.219497680664062500e-01,-2.970503270626068115e-02,1.046744212508201599e-01,4.865208864212036133e-01,2.867089211940765381e-01,2.507972121238708496e-01,-4.238239526748657227e-01,-8.429715782403945923e-02,-7.995864748954772949e-02,-6.642772555351257324e-01,2.764388918876647949e-01,-4.146365821361541748e-02,-2.778711915016174316e-01,-1.511489301919937134e-01,-2.196412831544876099e-01,-1.439018696546554565e-01,-1.989576220512390137e-01,-2.848525345325469971e-01,4.851906597614288330e-01,-1.959719955921173096e-01,-5.536826252937316895e-01,-2.561102621257305145e-02,-1.598392128944396973e-01,-7.008794546127319336e-01
-2.038246244192123413e-01,-2.952454090118408203e-01,-4.751408398151397705e-01,1.630636900663375854e-01,-1.755102276802062988e-01,-3.290437757968902588e-01,-4.335877895355224609e-01,-9.608794748783111572e-02,3.043094873428344727e-01,9.305214285850524902e-01,5.786419510841369629e-01,-3.179986476898193359e-01,3.248747587203979492e-01,-2.885549068450927734e-01,-3.390465080738067627e-01,1.527926325798034668e-01,-2.047638297080993652e-01,4.305726289749145508e-01,-4.061626195907592773e-01,-3.590840697288513184e-01,-3.467561602592468262e-01,-6.928477883338928223e-01,-2.810188531875610352e-01,-3.109000623226165771e-01,-3.103624880313873291e-01,2.119701169431209564e-02,-4.077475965023040771e-01,-2.405977398157119751e-01,-3.322603181004524231e-02,4.342469871044158936e-01,1.014075428247451782e-01,1.195804215967655182e-02,-2.842930257320404053e-01,-3.613992035388946533e-01,-1.287513077259063721e-01,-5.584349036216735840e-01,-2.496444135904312134e-01,-2.657361626625061035e-01,-3.362678885459899902e-01,-3.598984479904174805e-01,-6.756928563117980957e-02,-3.664191067218780518e-01,-3.759446144104003906e-01,-3.800151944160461426e-01,5.745050311088562012e-02,-2.072699218988418579e-01,-5.543146133422851562e-01,-3.181979358196258545e-01,-3.435966968536376953e-01,-5.786221623420715332e-01
-8.420408517122268677e-02,-2.152086347341537476e-01,-4.584951698780059814e-01,4.490189552307128906e-01,1.197636872529983521e-01,-1.507709324359893799e-01,-1.718153655529022217e-01,3.577483296394348145e-01,7.070552706718444824e-01,5.844891667366027832e-01,5.776703953742980957e-01,-2.536574900150299072e-01,8.076434135437011719e-01,-1.645916402339935303e-01,-2.634760439395904541e-01,7.049704194068908691e-01,-9.188108146190643311e-02,4.689701795578002930e-01,-5.511084794998168945e-01,-1.811257898807525635e-01,-2.929031848907470703e-01,-7.234136462211608887e-01,-1.594920456409454346e-01,-1.935407519340515137e-01,-2.519706487655639648e-01,-1.809812933206558228e-01,-3.040671646595001221e-01,-1.386504024267196655e-01,-2.281873524188995361e-01,7.433120608329772949e-01,7.374037504196166992e-01,7.309497594833374023e-01,-2.444966435432434082e-01,-2.072928249835968018e-01,-2.358338385820388794e-01,-5.502223372459411621e-01,1.837943345308303833e-01,-9.193585067987442017e-02,-2.632418572902679443e-01,-2.704388201236724854e-01,-2.094158977270126343e-01,-5.288670957088470459e-02,-3.687578439712524414e-01,-1.814976483583450317e-01,-1.914881318807601929e-01,-1.961227208375930786e-01,-4.784402847290039062e-01,-2.421939522027969360e-01,-2.551337480545043945e-01,-1.532758325338363647e-01
3.684830665588378906e-02,-1.966815590858459473e-01,-4.240061342716217041e-01,8.260450363159179688e-01,2.971929013729095459e-01,-1.606052517890930176e-01,-2.780899405479431152e-01,-5.013557076454162598e-01,8.484904170036315918e-01,-3.741941750049591064e-01,8.915883898735046387e-01,-2.285396605730056763e-01,8.668927550315856934e-01,3.357210457324981689e-01,-3.215605020523071289e-01,9.325296878814697266e-01,-1.191145777702331543e-01,7.023050785064697266e-01,-4.668197631835937500e-01,-3.049821853637695312e-01,-1.425053030252456665e-01,-7.282385230064392090e-01,-1.582923531532287598e-01,-1.191189140081405640e-01,-2.733621895313262939e-01,1.588735729455947876e-01,-1.995141506195068359e-01,-2.053716778755187988e-01,6.028476357460021973e-01,7.818487286567687988e-01,8.554378747940063477e-01,9.232219457626342773e-01,-2.267008125782012939e-01,-2.957807481288909912e-01,-3.257290925830602646e-03,-2.514112889766693115e-01,1.261882334947586060e-01,-7.365578413009643555e-02,-3.598754703998565674e-01,-1.861144006252288818e-01,3.024979233741760254e-01,-1.803069710731506348e-01,-2.331664860248565674e-01,-1.286031752824783325e-01,2.736158967018127441e-01,4.018132016062736511e-02,-3.876872658729553223e-01,-3.650723695755004883e-01,-1.374731659889221191e-01,-6.190877556800842285e-01
-8.970314264297485352e-02,-3.541451990604400635e-01,-2.752945721149444580e-01,3.509396910667419434e-01,5.577376484870910645e-01,-1.314216852188110352e-01,-1.050630733370780945e-01,-4.156895279884338379e-01,1.773204058408737183e-01,2.168076932430267334e-01,5.407339334487915039e-01,-3.143801391124725342e-01,6.141425371170043945e-01,-2.332123070955276489e-01,-2.009008973836898804e-01,1.077906042337417603e-02,-2.325249016284942627e-01,4.638384580612182617e-01,-4.133407771587371826e-01,1.903846412897109985e-01,-1.950403749942779541e-01,-7.697414755821228027e-01,-3.014826774597167969e-01,-1.744742691516876221e-01,-1.470507234334945679e-01,-2.336927689611911774e-02,-3.819401264190673828e-01,1.742058098316192627e-01,-1.648561805486679077e-01,5.864362120628356934e-01,4.192434549331665039e-01,7.181088626384735107e-02,-1.025206446647644043e-01,7.908221334218978882e-02,-9.971984475851058960e-02,-4.677283167839050293e-01,3.445700705051422119e-01,1.602347791194915771e-01,-7.092690467834472656e-02,-1.315332651138305664e-01,1.675732731819152832e-01,-3.795433640480041504e-01,-1.863684356212615967e-01,1.096368022263050079e-02,-5.001096129417419434e-01,2.436541020870208740e-02,-5.302168130874633789e-01,-2.268876433372497559e-01,-2.220235615968704224e-01,-4.992123246192932129e-01
-7.337171584367752075e-02,-4.416386485099792480e-01,-3.996233940124511719e-01,4.725005924701690674e-01,-8.357404172420501709e-02,-3.597477376461029053e-01,-5.338036417961120605e-01,-3.592425286769866943e-01,4.493577480316162109e-01,4.677128493785858154e-01,2.829593718051910400e-01,-4.480874240398406982e-01,2.895366251468658447e-01,-1.246355101466178894e-01,-3.241810798645019531e-01,4.325956106185913086e-01,-2.244107127189636230e-01,-2.122311443090438843e-01,-4.748014211654663086e-01,-3.816338181495666504e-01,-3.713605701923370361e-01,-4.779867529869079590e-01,-3.883182704448699951e-01,-3.448121845722198486e-01,-2.789522111415863037e-01,-1.186935976147651672e-01,-3.792540729045867920e-01,1.459930688142776489e-01,-1.786745712161064148e-02,3.483892381191253662e-01,2.295755296945571899e-01,1.083402112126350403e-01,-2.902882099151611328e-01,-1.067485362291336060e-01,-2.038990408182144165e-01,-1.563719213008880615e-01,2.318414896726608276e-01,1.379561424255371094e-01,-1.391649097204208374e-01,-2.459658235311508179e-01,-1.017825603485107422e-01,-4.165822565555572510e-01,-4.267048239707946777e-01,1.194762140512466431e-01,-6.937781721353530884e-02,-2.409374713897705078e-01,-2.366786450147628784e-01,-2.921568453311920166e-01,-4.184048771858215332e-01,-3.258703351020812988e-01
-2.615975961089134216e-02,-2.106817066669464111e-01,-4.341802000999450684e-01,3.545337319374084473e-01,2.115671038627624512e-01,-2.163205891847610474e-01,-3.784169554710388184e-01,-3.718464970588684082e-01,2.825750410556793213e-01,2.902545332908630371e-01,2.204678505659103394e-01,-1.426741629838943481e-01,4.338889718055725098e-01,-6.010771915316581726e-02,-2.344832122325897217e-01,4.291645288467407227e-01,-1.563974022865295410e-01,9.622640907764434814e-03,-1.416840553283691406e-01,-1.328851878643035889e-01,-3.051299154758453369e-01,-5.453366041183471680e-01,-3.229878842830657959e-01,-7.844503968954086304e-02,-1.411796547472476959e-02,-1.029491052031517029e-01,-8.147852867841720581e-02,-2.251951247453689575e-01,-8.461920171976089478e-02,5.935983061790466309e-01,3.141912221908569336e-01,1.614667177200317383e-01,-3.000621497631072998e-01,-3.243332728743553162e-02,-9.567790478467941284e-02,-3.811321854591369629e-01,9.438142925500869751e-02,8.901497349143028259e-03,1.272770911455154419e-01,-1.864978820085525513e-01,-1.390522718429565430e-02,-4.153108894824981689e-01,-3.282437324523925781e-01,-3.243750333786010742e-01,-2.447305470705032349e-01,-1.126146093010902405e-01,-4.979484081268310547e-01,-1.832662969827651978e-01,-3.444004058837890625e-01,-3.553483784198760986e-01
-5.804070457816123962e-02,5.791423842310905457e-02,-2.614166736602783203e-01,9.320639073848724365e-02,-2.574841082096099854e-01,-1.284739971160888672e-01,-1.191212013363838196e-01,-6.433927416801452637e-01,2.797458469867706299e-01,2.235337942838668823e-01,6.755577325820922852e-01,-9.463356435298919678e-02,2.670809328556060791e-01,-3.415137529373168945e-01,-3.309613168239593506e-01,3.477239608764648438e-01,-8.330260962247848511e-02,3.737509250640869141e-02,-4.184085726737976074e-01,-2.886176407337188721e-01,-3.680283427238464355e-01,-6.740445494651794434e-01,-9.635517746210098267e-02,2.801217325031757355e-02,-1.918583065271377563e-01,-3.029724396765232086e-02,-1.929867267608642578e-01,1.042049080133438110e-01,-5.160835757851600647e-02,6.254558563232421875e-01,8.057131618261337280e-02,-6.362292170524597168e-02,-5.472682118415832520e-01,-1.951982527971267700e-01,-3.294479548931121826e-01,9.004586189985275269e-02,-8.936662971973419189e-02,-2.833288609981536865e-01,5.348422005772590637e-02,-2.329065948724746704e-01,2.785238325595855713e-01,-4.781765341758728027e-01,-4.271948635578155518e-01,-6.520991921424865723e-01,3.397466242313385010e-02,-4.928482323884963989e-02,-3.120153248310089111e-01,-2.264391779899597168e-01,-3.955895602703094482e-01,-5.389077663421630859e-01
1.902022361755371094e-01,-3.335507214069366455e-02,1.405502557754516602e-01,-7.387003302574157715e-02,6.816428620368242264e-03,4.657487571239471436e-01,-3.673805892467498779e-01,-5.838053822517395020e-01,1.087777465581893921e-01,-5.645871278829872608e-04,9.077121019363403320e-01,-2.569937407970428467e-01,3.580431044101715088e-01,3.867217153310775757e-02,-1.753302961587905884e-01,2.346763610839843750e-01,5.953539013862609863e-01,2.499719411134719849e-01,1.439961791038513184e-01,7.013959288597106934e-01,2.220424264669418335e-01,-3.056951761245727539e-01,-1.866904646158218384e-01,-2.895655035972595215e-01,-3.940227925777435303e-01,6.451340913772583008e-01,-1.437097042798995972e-01,5.432839989662170410e-01,1.907491832971572876e-01,7.847696542739868164e-01,1.209207996726036072e-01,3.576256334781646729e-02,-5.187401175498962402e-01,6.551272422075271606e-02,-4.507115483283996582e-01,-5.592758655548095703e-01,2.202895879745483398e-01,6.545854359865188599e-02,-2.940168976783752441e-01,-5.570535659790039062e-01,9.362940192222595215e-01,-2.269107252359390259e-01,-1.130029186606407166e-01,-6.324857473373413086e-01,-5.466594696044921875e-01,2.845350503921508789e-01,-6.448083519935607910e-01,6.133710220456123352e-02,1.911645680665969849e-01,-4.529705345630645752e-01
7.818841189146041870e-02,-3.094008564949035645e-01,-4.627746045589447021e-01,2.734534442424774170e-01,-1.106120049953460693e-01,-4.640843868255615234e-01,-4.797514677047729492e-01,-7.626249194145202637e-01,5.252302289009094238e-01,2.667931281030178070e-02,8.413398861885070801e-01,-2.696766555309295654e-01,3.616410493850708008e-01,1.609652861952781677e-02,-6.986458897590637207e-01,4.423291087150573730e-01,2.279230952262878418e-01,4.506897628307342529e-01,-7.918332815170288086e-01,-6.274121403694152832e-01,-5.745195746421813965e-01,-4.869690835475921631e-01,-3.123263418674468994e-01,-1.668978929519653320e-01,-4.908897280693054199e-01,-3.862729668617248535e-01,-2.194104641675949097e-01,7.519176602363586426e-02,1.891324222087860107e-01,4.863441586494445801e-01,2.487290352582931519e-01,2.304045557975769043e-01,-5.597293972969055176e-01,-8.097724318504333496e-01,-6.149526238441467285e-01,-6.459805965423583984e-01,-2.153369411826133728e-02,-3.755996823310852051e-01,-6.351627111434936523e-01,-6.785092949867248535e-01,4.772792160511016846e-01,-5.140612721443176270e-01,-7.239536046981811523e-01,-6.385183334350585938e-01,-3.250953257083892822e-01,-2.367166131734848022e-01,-7.208907604217529297e-01,-5.699717998504638672e-01,-5.602044463157653809e-01,-6.508238911628723145e-01
-2.085702717304229736e-01,4.335333127528429031e-03,-7.655269503593444824e-01,7.790789008140563965e-02,4.335636496543884277e-01,4.081342220306396484e-01,-2.080401778221130371e-01,-7.360472083091735840e-01,3.140220046043395996e-01,3.262971714138984680e-02,8.962553739547729492e-01,-8.740700036287307739e-02,3.970851302146911621e-01,-6.195508316159248352e-02,-7.483139038085937500e-01,1.386705636978149414e-01,1.867032647132873535e-01,4.123634994029998779e-01,2.609532475471496582e-01,-3.654354438185691833e-02,-5.441242456436157227e-01,-7.847522497177124023e-01,1.272006630897521973e-01,-6.565517932176589966e-02,-5.627079010009765625e-01,-4.217628240585327148e-01,-4.202734529972076416e-01,4.201669096946716309e-01,2.046330422163009644e-01,6.367821097373962402e-01,2.178715020418167114e-01,7.043854892253875732e-02,-4.017108380794525146e-01,-6.543621420860290527e-01,-5.822107791900634766e-01,-5.129941105842590332e-01,2.695904076099395752e-01,-1.634568423032760620e-01,-5.217964649200439453e-01,-6.593952178955078125e-01,-5.659912154078483582e-02,-5.838931798934936523e-01,-6.677793264389038086e-01,-5.655850172042846680e-01,1.673257094807922840e-03,-3.184901773929595947e-01,-7.132893204689025879e-01,-7.186545133590698242e-01,-5.144634246826171875e-01,-5.360050201416015625e-01
-1.786378026008605957e-01,-4.514826238155364990e-01,-6.207925081253051758e-01,4.476247429847717285e-01,2.607224881649017334e-01,-3.916422426700592041e-01,-5.694396495819091797e-01,-5.358363986015319824e-01,6.719961762428283691e-01,6.828297674655914307e-02,9.287750124931335449e-01,-5.236962437629699707e-01,5.196442604064941406e-01,-1.162867993116378784e-01,-7.043715715408325195e-01,6.743034124374389648e-01,-3.188223242759704590e-01,4.306799471378326416e-01,-5.411322116851806641e-01,-5.005354881286621094e-01,-6.189843416213989258e-01,-7.258139252662658691e-01,-3.708097711205482483e-02,-3.713873922824859619e-01,-6.244372129440307617e-01,-5.244379043579101562e-01,-4.804022014141082764e-01,8.048613667488098145e-01,1.335635483264923096e-01,6.447350978851318359e-01,4.120652079582214355e-01,4.151159822940826416e-01,1.166693791747093201e-01,-5.552753806114196777e-01,-4.936898648738861084e-01,-6.657170057296752930e-01,2.499234378337860107e-01,7.458502054214477539e-02,-3.261708915233612061e-01,-4.236187338829040527e-01,3.335015848278999329e-02,-6.389507055282592773e-01,-4.645490944385528564e-01,-2.318217009305953979e-01,-6.548633575439453125e-01,-6.823977082967758179e-02,-7.915395498275756836e-01,-6.793056130409240723e-01,-6.049405336380004883e-01,-6.639750003814697266e-01
4.700734019279479980e-01,-4.016727507114410400e-01,-5.514128208160400391e-01,4.364269375801086426e-01,4.797515869140625000e-01,-2.432395517826080322e-01,1.458197087049484253e-01,-7.208224534988403320e-01,4.560679793357849121e-01,-1.536387652158737183e-01,9.486621022224426270e-01,-3.907098770141601562e-01,6.678889989852905273e-01,4.990701973438262939e-01,-7.080748081207275391e-01,3.534708619117736816e-01,1.199529245495796204e-01,5.935982465744018555e-01,-3.685837984085083008e-02,2.480576932430267334e-01,-6.288912892341613770e-01,-5.938445925712585449e-01,8.404283523559570312e-01,-4.721377789974212646e-02,-6.887055039405822754e-01,-5.469505190849304199e-01,-4.558458924293518066e-01,3.907269835472106934e-01,5.743022561073303223e-01,8.051620721817016602e-01,5.198304653167724609e-01,2.779136598110198975e-01,7.380668520927429199e-01,-6.283996105194091797e-01,-4.013028144836425781e-01,-5.361537337303161621e-01,6.232258677482604980e-01,7.520526647567749023e-01,-3.191106021404266357e-01,-6.126309037208557129e-01,-6.371769309043884277e-02,-2.986753880977630615e-01,-6.596027612686157227e-01,6.167134642601013184e-01,-6.509620547294616699e-01,-2.846677601337432861e-01,-7.905681729316711426e-01,-7.066302895545959473e-01,-6.010068058967590332e-01,-4.196793138980865479e-01
9.329755902290344238e-01,4.264401197433471680e-01,-1.274889260530471802e-01,4.304963946342468262e-01,6.425970196723937988e-01,3.625010550022125244e-01,7.284527420997619629e-01,-6.878007650375366211e-01,5.061367154121398926e-01,-2.869160771369934082e-01,9.514595866203308105e-01,5.832256674766540527e-01,6.797975897789001465e-01,8.205848336219787598e-01,-1.137968078255653381e-01,5.892050862312316895e-01,8.253560662269592285e-01,2.511522173881530762e-01,5.146496891975402832e-01,4.447699785232543945e-01,1.824066936969757080e-01,-5.743754506111145020e-01,8.559384346008300781e-01,6.996906399726867676e-01,3.470387458801269531e-01,1.239652261137962341e-01,-2.742434106767177582e-02,4.712695181369781494e-01,7.264071702957153320e-01,7.672213315963745117e-01,6.497107744216918945e-01,4.467954635620117188e-01,9.511935114860534668e-01,3.489798009395599365e-01,5.815303921699523926e-01,-2.642782032489776611e-01,8.600786924362182617e-01,8.694311380386352539e-01,6.735775470733642578e-01,4.984689652919769287e-01,4.910265505313873291e-01,-4.538233876228332520e-01,6.742380857467651367e-01,8.683274984359741211e-01,-3.006338179111480713e-01,5.436741113662719727e-01,-5.117060542106628418e-01,-3.098410964012145996e-01,2.047365009784698486e-01,-2.259576022624969482e-01
8.056873679161071777e-01,2.141794562339782715e-01,1.668056696653366089e-01,3.221382498741149902e-01,2.945339381694793701e-01,2.243498116731643677e-01,6.870709657669067383e-01,-8.242116570472717285e-01,3.781262338161468506e-01,-3.407593965530395508e-01,9.524890780448913574e-01,4.289702177047729492e-01,6.349378824234008789e-01,5.977312922477722168e-01,-2.285490185022354126e-01,3.565595448017120361e-01,8.191200494766235352e-01,4.761005043983459473e-01,3.499547541141510010e-01,9.290301799774169922e-02,3.009787574410438538e-02,-3.067932557314634323e-03,6.263687610626220703e-01,3.854293525218963623e-01,1.515421271324157715e-01,1.208519414067268372e-01,-1.946406215429306030e-01,3.086497485637664795e-01,6.067033410072326660e-01,8.576485514640808105e-01,4.017969369888305664e-01,4.000560194253921509e-02,9.220471382141113281e-01,3.582750856876373291e-01,1.367015987634658813e-01,-3.114976286888122559e-01,9.124833941459655762e-01,8.276712298393249512e-01,8.162408471107482910e-01,3.855715692043304443e-01,6.858927607536315918e-01,-5.997529029846191406e-01,6.826435774564743042e-02,8.611100316047668457e-01,7.033925056457519531e-01,5.867818593978881836e-01,-6.895101070404052734e-01,-4.018638730049133301e-01,6.515993177890777588e-02,-3.268159925937652588e-02
4.193290472030639648e-01,4.004929065704345703e-01,1.945286840200424194e-01,4.118190705776214600e-02,1.366979777812957764e-01,3.496886193752288818e-01,5.013588666915893555e-01,-8.745117187500000000e-01,2.692464292049407959e-01,1.248678267002105713e-01,8.819187283515930176e-01,5.795510411262512207e-01,-1.553306728601455688e-02,-1.854230612516403198e-01,1.690432131290435791e-01,-3.672238066792488098e-02,3.994724452495574951e-01,-1.984900422394275665e-02,9.647687673568725586e-01,4.241488873958587646e-01,-4.581827223300933838e-01,-3.991002738475799561e-01,3.085450232028961182e-01,7.089150547981262207e-01,4.941551685333251953e-01,-3.254811167716979980e-01,3.119067251682281494e-01,7.608265876770019531e-01,-1.272745579481124878e-01,3.938240706920623779e-01,-1.899192631244659424e-01,-3.934725821018218994e-01,8.802682161331176758e-01,6.719353199005126953e-01,-3.282387554645538330e-02,2.156061679124832153e-02,3.066833615303039551e-01,2.988426983356475830e-01,9.000232815742492676e-01,1.636331975460052490e-01,4.622173011302947998e-01,-1.009501516819000244e-01,-1.795029044151306152e-01,6.807466745376586914e-01,-3.554399311542510986e-01,3.479914665222167969e-01,-5.148578882217407227e-01,1.328152716159820557e-01,-4.633925557136535645e-01,-5.555827617645263672e-01
7.400943040847778320e-01,2.447141259908676147e-01,3.796103298664093018e-01,3.589056730270385742e-01,2.525882422924041748e-01,4.112722575664520264e-01,2.458583936095237732e-02,-8.562081456184387207e-01,4.386899769306182861e-01,-3.119983971118927002e-01,9.457790255546569824e-01,6.460872292518615723e-01,2.862135171890258789e-01,7.411300390958786011e-02,2.202458083629608154e-01,1.041537150740623474e-01,6.450300812721252441e-01,5.317544564604759216e-02,4.119594693183898926e-01,-1.412305682897567749e-01,-4.106780290603637695e-01,2.352559566497802734e-01,6.029214859008789062e-01,7.731789350509643555e-01,3.716258406639099121e-01,-3.047008812427520752e-01,7.234711647033691406e-01,8.717752695083618164e-01,1.854077875614166260e-01,6.538511514663696289e-01,1.295449882745742798e-01,-5.794141069054603577e-02,9.392223954200744629e-01,4.966821074485778809e-01,-4.714261889457702637e-01,4.577154219150543213e-01,3.797870874404907227e-01,3.685562908649444580e-01,8.664700388908386230e-01,-1.054539978504180908e-01,2.123239189386367798e-01,-3.941397964954376221e-01,-5.517005920410156250e-01,8.826788663864135742e-01,-1.759783178567886353e-02,4.430772736668586731e-02,-6.820871680974960327e-02,2.610603272914886475e-01,-4.329686164855957031e-01,3.772868216037750244e-01
7.398086786270141602e-01,6.448873281478881836e-01,-2.254161797463893890e-02,7.975643873214721680e-02,4.811313748359680176e-02,6.749715209007263184e-01,7.739957571029663086e-01,-7.873465418815612793e-01,1.311724483966827393e-01,1.257555000483989716e-02,9.368308186531066895e-01,7.555165886878967285e-01,1.419550180435180664e-01,-6.533043086528778076e-02,3.849427402019500732e-01,-5.790732428431510925e-02,5.215381383895874023e-01,6.598754972219467163e-02,6.856921315193176270e-01,3.016762249171733856e-02,-4.416004121303558350e-01,2.212683260440826416e-01,7.556024193763732910e-01,8.406147956848144531e-01,7.068564891815185547e-01,-4.154039919376373291e-01,4.327221810817718506e-01,5.074355602264404297e-01,-2.407559566199779510e-02,5.239935517311096191e-01,7.766182068735361099e-03,-1.412155926227569580e-01,8.864463567733764648e-01,5.529978871345520020e-01,-4.544821679592132568e-01,6.937043666839599609e-01,1.522283852100372314e-01,-2.937762625515460968e-02,7.813870310783386230e-01,2.440986037254333496e-01,2.595264613628387451e-01,-5.010148882865905762e-01,-1.147947683930397034e-01,5.287743210792541504e-01,-1.245595142245292664e-01,2.225082516670227051e-01,2.010163515806198120e-01,5.464040040969848633e-01,-4.479372501373291016e-01,-6.951532363891601562e-01
8.595004081726074219e-01,7.886584997177124023e-01,5.781070142984390259e-02,1.081921830773353577e-01,-2.511418983340263367e-02,7.646882534027099609e-01,8.004016876220703125e-01,-8.384371399879455566e-01,5.683630704879760742e-01,-4.661234617233276367e-01,9.239687919616699219e-01,8.704974055290222168e-01,2.783930003643035889e-01,1.015030518174171448e-01,3.968268036842346191e-01,3.400916457176208496e-01,7.730196714401245117e-01,3.839899301528930664e-01,5.267161726951599121e-01,-7.260567042976617813e-03,-5.774119496345520020e-01,-1.926262974739074707e-01,8.892306685447692871e-01,8.967006802558898926e-01,7.927307486534118652e-01,-5.676936507225036621e-01,6.710892915725708008e-01,-1.680223047733306885e-01,4.275269210338592529e-01,6.244155168533325195e-01,2.410073578357696533e-01,1.424116045236587524e-01,9.126691222190856934e-01,7.475801706314086914e-01,-4.635230898857116699e-01,7.338863611221313477e-01,2.475681900978088379e-01,3.816007673740386963e-01,7.837598323822021484e-01,2.425667047500610352e-01,3.365933299064636230e-01,-5.847458243370056152e-01,-4.971036016941070557e-01,8.389708399772644043e-01,-3.354513049125671387e-01,3.212476670742034912e-01,7.689077258110046387e-01,6.281016469001770020e-01,-5.393995642662048340e-01,-2.649565935134887695e-01
8.163593411445617676e-01,8.146240711212158203e-01,1.660537123680114746e-01,-1.835365295410156250e-01,2.675912976264953613e-01,7.309685945510864258e-01,6.111896038055419922e-01,-6.800321936607360840e-01,3.742789328098297119e-01,-5.013785958290100098e-01,9.339608550071716309e-01,8.828440904617309570e-01,2.021754682064056396e-01,1.147837489843368530e-01,5.881244540214538574e-01,-1.294812187552452087e-03,7.626442909240722656e-01,2.818901836872100830e-02,2.754694521427154541e-01,4.900686070322990417e-02,-2.728584408760070801e-01,7.358977198600769043e-01,8.731085062026977539e-01,9.049251675605773926e-01,8.675824403762817383e-01,-3.891579508781433105e-01,4.439662098884582520e-01,-7.824005186557769775e-02,2.170399278402328491e-01,5.829681754112243652e-01,1.321473270654678345e-01,3.834463655948638916e-02,9.323946237564086914e-01,7.396139502525329590e-01,-3.660009205341339111e-01,5.780661702156066895e-01,6.658911108970642090e-01,5.914904475212097168e-01,8.299641609191894531e-01,1.672500073909759521e-01,4.207565486431121826e-01,-4.033510088920593262e-01,-1.654404997825622559e-01,8.626910448074340820e-01,-2.719863951206207275e-01,3.397300541400909424e-01,2.292917966842651367e-01,6.872359514236450195e-01,-2.722282707691192627e-01,1.359773520380258560e-02
-4.722971096634864807e-02,2.008416503667831421e-01,-3.602203428745269775e-01,6.685196161270141602e-01,1.792475208640098572e-02,-5.664053838700056076e-03,4.013710916042327881e-01,-6.268068552017211914e-01,7.404385209083557129e-01,8.995207548141479492e-01,-1.282066013664007187e-02,1.326996535062789917e-01,7.219188809394836426e-01,-3.188971281051635742e-01,-3.098631501197814941e-01,8.261576890945434570e-01,8.267168700695037842e-02,2.095068842172622681e-01,4.989874362945556641e-01,-3.038797341287136078e-02,-5.632029175758361816e-01,-6.033571362495422363e-01,6.391388922929763794e-02,3.161271214485168457e-01,-1.182928215712308884e-02,-6.121143102645874023e-01,-1.163153424859046936e-01,-1.951537728309631348e-01,-2.821621298789978027e-01,8.040378093719482422e-01,6.927675008773803711e-01,6.639979481697082520e-01,4.145117700099945068e-01,-2.008241415023803711e-01,-3.544755578041076660e-01,-2.809548676013946533e-01,6.811035871505737305e-01,3.613809049129486084e-01,2.332830242812633514e-02,-1.772677451372146606e-01,6.649578362703323364e-02,-4.346143901348114014e-01,-4.983215928077697754e-01,3.109122514724731445e-01,-2.844204008579254150e-01,-6.484502553939819336e-02,-2.093441486358642578e-01,-3.606853485107421875e-01,-5.280234813690185547e-01,-2.028828710317611694e-01
2.279188930988311768e-01,4.295902848243713379e-01,1.926553249359130859e-02,4.397711455821990967e-01,2.869450151920318604e-01,3.053534924983978271e-01,3.806363940238952637e-01,-4.040650725364685059e-01,6.440708041191101074e-01,3.118376731872558594e-01,5.547794103622436523e-01,2.515490651130676270e-01,6.040599346160888672e-01,-1.689250171184539795e-01,4.807870090007781982e-02,6.532388925552368164e-01,3.402894139289855957e-01,1.499175876379013062e-01,6.382791399955749512e-01,7.223904728889465332e-01,-4.528390765190124512e-01,-5.478010177612304688e-01,3.667530417442321777e-01,4.106625914573669434e-01,2.560009062290191650e-01,-3.739691972732543945e-01,-4.326947033405303955e-02,5.953087285161018372e-02,1.222668960690498352e-01,8.062734603881835938e-01,5.049146413803100586e-01,3.605349361896514893e-01,6.221383213996887207e-01,1.311351209878921509e-01,-2.237237393856048584e-01,-2.838884890079498291e-01,8.135359287261962891e-01,4.480330348014831543e-01,9.850130230188369751e-02,4.566755145788192749e-02,2.281262129545211792e-01,2.089282572269439697e-01,6.155888438224792480e-01,2.445596158504486084e-01,-3.069136142730712891e-01,6.518920511007308960e-02,-3.648451864719390869e-01,-3.687906265258789062e-02,-4.597368538379669189e-01,7.217407226562500000e-02
1.407921314239501953e-01,3.365942463278770447e-02,1.375501155853271484e-01,7.342203855514526367e-01,3.157595694065093994e-01,-6.846392154693603516e-02,-2.689275704324245453e-02,3.901044130325317383e-01,7.628555893898010254e-01,-2.250203937292098999e-01,7.159667015075683594e-01,-4.811392724514007568e-02,8.431305289268493652e-01,3.786531835794448853e-02,-1.155164018273353577e-01,8.761238455772399902e-01,4.080152511596679688e-02,5.972434878349304199e-01,3.238139152526855469e-01,6.146554350852966309e-01,5.200876593589782715e-01,-3.707519769668579102e-01,8.522277325391769409e-02,-3.146181255578994751e-02,-2.338369190692901611e-02,2.312936633825302124e-01,-1.615583598613739014e-01,2.628298401832580566e-01,5.312517881393432617e-01,8.651911020278930664e-01,8.063499331474304199e-01,7.798634767532348633e-01,3.016992807388305664e-01,-1.049201190471649170e-01,2.251309603452682495e-01,1.140720676630735397e-02,3.141683638095855713e-01,1.700672507286071777e-01,7.603160291910171509e-02,1.105017066001892090e-01,6.153731942176818848e-01,-4.515208005905151367e-01,3.346410691738128662e-01,1.091402620077133179e-01,-5.117759108543395996e-01,5.242589116096496582e-01,5.545205622911453247e-02,-1.911216080188751221e-01,5.271688103675842285e-01,5.341130867600440979e-02
6.271165609359741211e-01,2.238639593124389648e-01,3.485865890979766846e-01,7.231464385986328125e-01,-7.110444456338882446e-02,2.122592329978942871e-01,8.296254873275756836e-01,-4.274083375930786133e-01,8.215759396553039551e-01,-1.414179801940917969e-02,9.181659221649169922e-01,1.281987726688385010e-01,8.679566383361816406e-01,-2.022299915552139282e-01,1.195645704865455627e-01,8.929120898246765137e-01,4.783488214015960693e-01,5.329808592796325684e-01,2.117447108030319214e-01,7.630212903022766113e-01,7.595598101615905762e-01,-3.391864001750946045e-01,3.587279021739959717e-01,1.721104830503463745e-01,3.795230090618133545e-01,5.985645055770874023e-01,-1.318666338920593262e-01,4.203043580055236816e-01,5.113803148269653320e-01,8.565559983253479004e-01,8.653813600540161133e-01,8.425016403198242188e-01,7.269451022148132324e-01,-8.661745488643646240e-02,2.309210598468780518e-01,1.038258746266365051e-01,6.633039712905883789e-01,4.032767713069915771e-01,5.992130041122436523e-01,4.916380941867828369e-01,5.024577975273132324e-01,-3.067266643047332764e-01,3.908310234546661377e-01,3.826356828212738037e-01,-2.480877749621868134e-02,5.809456706047058105e-01,3.577804863452911377e-01,-1.021235343068838120e-02,6.356556415557861328e-01,2.450179010629653931e-01
7.631756663322448730e-01,2.959181368350982666e-01,1.919215731322765350e-02,4.863013625144958496e-01,-2.247897237539291382e-01,3.025496304035186768e-01,9.094459414482116699e-01,8.606972098350524902e-01,5.468022823333740234e-01,-9.101873636245727539e-02,8.253374695777893066e-01,3.293847143650054932e-01,6.597170829772949219e-01,-2.543913898989558220e-03,2.762790918350219727e-01,7.412676811218261719e-01,4.443587958812713623e-01,6.564501523971557617e-01,5.455734729766845703e-01,5.508704185485839844e-01,8.744609355926513672e-01,1.315884739160537720e-01,6.383749246597290039e-01,4.431482255458831787e-01,2.476450353860855103e-01,8.172070384025573730e-01,3.693832457065582275e-02,8.627741336822509766e-01,7.725886106491088867e-01,7.174654603004455566e-01,5.041848421096801758e-01,4.523300528526306152e-01,8.678996562957763672e-01,2.301164716482162476e-01,8.808197975158691406e-01,1.639857292175292969e-01,6.965051889419555664e-01,5.924373865127563477e-01,6.467899680137634277e-01,3.613249361515045166e-01,5.065313577651977539e-01,-5.059797167778015137e-01,9.018272757530212402e-01,5.465152263641357422e-01,6.370290368795394897e-02,5.558713078498840332e-01,6.128107905387878418e-01,1.503264307975769043e-01,7.522896528244018555e-01,4.828455150127410889e-01
8.476369976997375488e-01,4.308212995529174805e-01,1.955714672803878784e-01,8.787074685096740723e-01,-3.805255144834518433e-02,4.792333841323852539e-01,9.215685129165649414e-01,8.934653997421264648e-01,6.740493178367614746e-01,-3.070874512195587158e-01,8.937033414840698242e-01,6.704359650611877441e-01,8.910856842994689941e-01,5.470584034919738770e-01,4.370493590831756592e-01,8.372717499732971191e-01,8.106021285057067871e-01,5.381730198860168457e-01,2.550542354583740234e-01,5.270992591977119446e-02,1.555501073598861694e-01,4.383737742900848389e-01,7.069235444068908691e-01,7.339397668838500977e-01,7.298975586891174316e-01,2.151474207639694214e-01,1.628566086292266846e-01,9.185895323753356934e-01,7.612327337265014648e-01,9.035860896110534668e-01,8.526001572608947754e-01,5.994486212730407715e-01,8.715121746063232422e-01,4.108590781688690186e-01,7.668319344520568848e-01,6.966802291572093964e-03,9.198501706123352051e-01,8.990319967269897461e-01,8.526616096496582031e-01,7.295393943786621094e-01,5.458917617797851562e-01,-5.850763916969299316e-01,8.841797709465026855e-01,8.051111698150634766e-01,6.857743859291076660e-01,6.667389273643493652e-01,1.982659846544265747e-01,2.333986163139343262e-01,-2.766931243240833282e-02,1.012398228049278259e-01
5.499252676963806152e-01,7.200149297714233398e-01,-9.036899358034133911e-02,2.023749649524688721e-01,-2.524504363536834717e-01,3.063596487045288086e-01,9.474145174026489258e-01,-6.722070574760437012e-01,3.452541530132293701e-01,1.545770168304443359e-01,4.503682553768157959e-01,7.216542363166809082e-01,4.832271039485931396e-01,-4.545890092849731445e-01,4.326999485492706299e-01,1.704368889331817627e-01,6.643379330635070801e-01,1.880496442317962646e-01,5.235804319381713867e-01,6.158876419067382812e-01,1.170090734958648682e-01,6.241126358509063721e-02,6.110773682594299316e-01,8.396144509315490723e-01,5.703363418579101562e-01,2.032078951597213745e-01,3.632105886936187744e-01,8.871102929115295410e-01,-1.686420142650604248e-01,4.883635938167572021e-01,4.243463277816772461e-01,-7.401746697723865509e-03,9.252867698669433594e-01,4.340439438819885254e-01,5.300530195236206055e-01,5.810424685478210449e-01,7.241724729537963867e-01,8.403611779212951660e-01,8.154795169830322266e-01,9.118570685386657715e-01,6.063823103904724121e-01,-4.457070827484130859e-01,-3.304409384727478027e-01,5.840907692909240723e-01,3.208941817283630371e-01,8.425193428993225098e-01,2.461445033550262451e-01,2.260326892137527466e-01,-1.102992221713066101e-01,1.228744909167289734e-02
3.713261187076568604e-01,6.458427906036376953e-01,-3.376882970333099365e-01,1.534618157893419266e-02,4.723605141043663025e-02,2.289637923240661621e-01,8.247036337852478027e-01,-3.300034403800964355e-01,-1.141365766525268555e-01,2.485795021057128906e-01,4.032526016235351562e-01,6.152569651603698730e-01,1.254448574036359787e-02,-5.205394029617309570e-01,2.515366971492767334e-01,4.323115944862365723e-02,5.731977894902229309e-02,5.410254001617431641e-02,2.617564499378204346e-01,3.384114205837249756e-01,3.738751709461212158e-01,-4.509922862052917480e-01,3.091787099838256836e-01,8.405171036720275879e-01,2.915371656417846680e-01,7.182499170303344727e-01,3.461634814739227295e-01,-1.362380236387252808e-01,-1.151651293039321899e-01,3.042929768562316895e-01,-5.872887000441551208e-02,-4.813699051737785339e-02,8.597293496131896973e-01,4.940518140792846680e-01,9.572559595108032227e-02,6.576362848281860352e-01,5.565206408500671387e-01,7.535083293914794922e-01,6.184959411621093750e-01,6.816978454589843750e-01,2.074637264013290405e-01,-1.640798747539520264e-01,3.363961279392242432e-01,2.583257257938385010e-01,-4.534391462802886963e-01,3.566757440567016602e-01,2.384893298149108887e-01,1.371631920337677002e-01,-2.119595557451248169e-02,-2.511392720043659210e-02
2.929085791110992432e-01,5.032241344451904297e-01,-2.302312999963760376e-01,1.402356177568435669e-01,4.603314027190208435e-02,3.789600133895874023e-01,9.284670352935791016e-01,4.048658907413482666e-01,2.045094519853591919e-01,3.481030464172363281e-01,5.781652331352233887e-01,8.334859013557434082e-01,2.080944478511810303e-01,-4.398927688598632812e-01,4.204452335834503174e-01,1.595086306333541870e-01,3.359999656677246094e-01,2.282987833023071289e-01,6.254304051399230957e-01,8.439446687698364258e-01,6.193224787712097168e-01,-2.613090276718139648e-01,6.581788659095764160e-01,9.175907969474792480e-01,6.118443012237548828e-01,6.857341527938842773e-01,1.816189587116241455e-01,-1.141695771366357803e-02,8.496324717998504639e-02,3.844196200370788574e-01,1.279557943344116211e-01,5.872983857989311218e-02,8.377294540405273438e-01,6.838638782501220703e-01,4.258717298507690430e-01,8.474523425102233887e-01,4.189485907554626465e-01,6.853301525115966797e-01,6.463630199432373047e-01,8.100071549415588379e-01,6.041334271430969238e-01,-3.260413110256195068e-01,4.308707118034362793e-01,3.613653481006622314e-01,-5.532197952270507812e-01,7.524884939193725586e-01,6.824543476104736328e-01,1.995866596698760986e-01,1.512238532304763794e-01,1.232586726546287537e-01
6.378945708274841309e-01,8.553776741027832031e-01,3.394561409950256348e-01,5.693712085485458374e-02,4.407827854156494141e-01,1.829294711351394653e-01,9.561817049980163574e-01,9.583985805511474609e-01,-3.215031325817108154e-02,-2.758388817310333252e-01,8.243501186370849609e-01,9.197951555252075195e-01,8.228208124637603760e-02,2.638809084892272949e-01,2.969132661819458008e-01,6.842654943466186523e-02,8.730510622262954712e-02,4.381060600280761719e-01,1.361235529184341431e-01,8.520647883415222168e-01,9.336286187171936035e-01,-5.629664659500122070e-01,5.064823627471923828e-01,9.500898122787475586e-01,4.806015193462371826e-01,9.474961161613464355e-01,2.369218021631240845e-01,-8.926790207624435425e-02,4.640153646469116211e-01,1.863688081502914429e-01,4.639633372426033020e-02,7.352331280708312988e-02,8.764526844024658203e-01,3.673467934131622314e-01,9.082590937614440918e-01,3.015473484992980957e-01,2.541739344596862793e-01,7.417183518409729004e-01,6.867322921752929688e-01,7.668932080268859863e-01,7.259372472763061523e-01,-5.200281739234924316e-01,8.937319517135620117e-01,6.506140828132629395e-01,3.983931243419647217e-01,8.092243671417236328e-01,2.427141368389129639e-01,-2.297098636627197266e-01,8.484960794448852539e-01,4.627025127410888672e-01
4.408783018589019775e-01,1.195514574646949768e-01,2.937259078025817871e-01,5.452665090560913086e-01,5.101803541183471680e-01,5.551148653030395508e-01,9.469349980354309082e-01,8.879038095474243164e-01,3.137304484844207764e-01,-1.883614063262939453e-01,8.582907319068908691e-01,2.219029515981674194e-01,5.926730632781982422e-01,2.688454985618591309e-01,7.605169415473937988e-01,6.226629614830017090e-01,3.929453194141387939e-01,3.603805005550384521e-01,3.625952899456024170e-01,8.862468004226684570e-01,2.402894198894500732e-01,-5.650363564491271973e-01,5.901084467768669128e-02,3.957423269748687744e-01,6.019480228424072266e-01,2.674154639244079590e-01,-1.576494872570037842e-01,5.343724489212036133e-01,6.648970246315002441e-01,6.548612713813781738e-01,5.013582110404968262e-01,4.069309532642364502e-01,5.457414984703063965e-01,8.204892873764038086e-01,7.101142406463623047e-01,8.679404854774475098e-01,7.037613987922668457e-01,9.329755902290344238e-01,8.621530234813690186e-02,2.171438932418823242e-01,2.549552321434020996e-01,-4.399533569812774658e-01,1.222603619098663330e-01,6.399440765380859375e-02,-6.370885968208312988e-01,3.254166841506958008e-01,6.058614850044250488e-01,4.533974528312683105e-01,-2.554927766323089600e-02,2.307385951280593872e-01
8.040939569473266602e-01,3.142668902873992920e-01,5.926404595375061035e-01,3.178359568119049072e-01,-3.087249100208282471e-01,4.995043575763702393e-01,9.150283932685852051e-01,3.797795176506042480e-01,3.371272236108779907e-02,-4.815911650657653809e-01,8.727499842643737793e-01,4.543333351612091064e-01,3.101606070995330811e-01,8.905473947525024414e-01,7.850939035415649414e-01,3.958933353424072266e-01,4.514931738376617432e-01,2.027914971113204956e-01,1.386703699827194214e-01,7.902523875236511230e-01,6.903972625732421875e-01,-6.207482218742370605e-01,3.485251665115356445e-01,6.708819866180419922e-01,6.080923676490783691e-01,7.064993977546691895e-01,-1.627160757780075073e-01,3.347032964229583740e-01,7.684367895126342773e-01,3.300314247608184814e-01,2.739702165126800537e-01,2.374241203069686890e-01,5.153481960296630859e-01,8.319529294967651367e-01,8.194021582603454590e-01,1.615637093782424927e-01,8.066749572753906250e-01,9.542270898818969727e-01,5.203351974487304688e-01,6.283683180809020996e-01,3.353567719459533691e-01,-2.726885080337524414e-01,6.262171864509582520e-01,2.435420304536819458e-01,1.105968430638313293e-01,5.232056975364685059e-01,2.424151301383972168e-01,5.663300156593322754e-01,3.443580269813537598e-01,7.063536345958709717e-02
8.343295454978942871e-01,5.035873055458068848e-01,5.273767113685607910e-01,7.665935158729553223e-01,5.660056322813034058e-02,4.548977911472320557e-01,4.934642910957336426e-01,-2.116971462965011597e-02,6.105275750160217285e-01,-4.861156642436981201e-01,9.035283327102661133e-01,6.337446570396423340e-01,8.164893984794616699e-01,5.127884745597839355e-01,2.311778366565704346e-01,8.259968757629394531e-01,3.705121576786041260e-01,6.889902353286743164e-01,3.224952220916748047e-01,8.336390256881713867e-01,3.567185699939727783e-01,-5.109124779701232910e-01,3.192748129367828369e-01,7.026450634002685547e-01,7.289759516716003418e-01,4.183373153209686279e-01,-1.913677202537655830e-03,3.143270313739776611e-01,8.775359988212585449e-01,8.390398025512695312e-01,7.996319532394409180e-01,7.266954183578491211e-01,3.150322437286376953e-01,6.941602230072021484e-01,4.131936430931091309e-01,-4.052264988422393799e-02,7.461466193199157715e-01,6.333677768707275391e-01,9.906737506389617920e-02,3.060992658138275146e-01,2.433138191699981689e-01,-3.027351796627044678e-01,1.270296871662139893e-01,1.636669337749481201e-01,4.100913926959037781e-02,3.310803472995758057e-01,-7.904108613729476929e-02,1.964664012193679810e-01,8.610900491476058960e-02,-3.061470091342926025e-01
7.850013971328735352e-01,1.456280350685119629e-01,4.597208201885223389e-01,5.840756893157958984e-01,-2.939134836196899414e-01,1.939811259508132935e-01,6.870294809341430664e-01,5.381233692169189453e-01,1.531632095575332642e-01,-5.660123229026794434e-01,8.899374604225158691e-01,2.340529561042785645e-01,8.558053970336914062e-01,7.766069173812866211e-01,2.486215531826019287e-01,5.951945185661315918e-01,2.655974030494689941e-01,5.397204160690307617e-01,7.081441283226013184e-01,3.093967139720916748e-01,4.617029726505279541e-01,-3.227786421775817871e-01,3.518270850181579590e-01,3.396367728710174561e-01,4.287694692611694336e-01,6.351851224899291992e-01,-9.303856641054153442e-02,6.820634007453918457e-01,8.999785184860229492e-01,8.441987037658691406e-01,8.148084282875061035e-01,5.085783600807189941e-01,7.783188819885253906e-01,3.050034344196319580e-01,7.104892730712890625e-01,-1.760256290435791016e-01,7.659410834312438965e-01,6.163061857223510742e-01,5.453369021415710449e-01,6.950338482856750488e-01,5.832905173301696777e-01,1.910837292671203613e-01,3.717959225177764893e-01,4.264287054538726807e-01,4.962154924869537354e-01,7.134818434715270996e-01,-9.080383181571960449e-02,7.253541797399520874e-02,1.106503903865814209e-01,-2.463389784097671509e-01
6.693313717842102051e-01,6.215726733207702637e-01,-8.033740520477294922e-02,4.393332898616790771e-01,2.741720080375671387e-01,3.299298882484436035e-01,5.464410185813903809e-01,6.554057002067565918e-01,5.684155225753784180e-01,-1.054874658584594727e-01,3.633403480052947998e-01,7.058111429214477539e-01,6.002824902534484863e-01,-3.196132183074951172e-02,1.108845323324203491e-01,7.249349355697631836e-01,1.435375511646270752e-01,3.797486424446105957e-01,7.809317708015441895e-01,5.248912572860717773e-01,-1.528682112693786621e-01,-1.247314852662384510e-03,5.083687901496887207e-01,7.798234820365905762e-01,5.673698186874389648e-01,3.271425142884254456e-02,4.523967802524566650e-01,8.388367295265197754e-01,7.917238473892211914e-01,6.869325041770935059e-01,4.486488997936248779e-01,1.566980183124542236e-01,6.330389380455017090e-01,3.905177712440490723e-01,2.433575317263603210e-02,7.216737866401672363e-01,5.748443007469177246e-01,5.489726066589355469e-01,6.205926537513732910e-01,4.058771729469299316e-01,1.005782410502433777e-01,-5.116843581199645996e-01,-3.357448615133762360e-03,8.639615774154663086e-02,3.936332762241363525e-01,3.286329209804534912e-01,3.700104653835296631e-01,3.148214891552925110e-02,-2.344124466180801392e-01,1.040613800287246704e-01
3.986062109470367432e-01,-1.893500387668609619e-01,2.455659061670303345e-01,7.994423508644104004e-01,-1.369207203388214111e-01,1.317470073699951172e-01,4.562979340553283691e-01,9.118745326995849609e-01,8.351510763168334961e-01,-4.188772737979888916e-01,3.731497526168823242e-01,-4.572885483503341675e-02,8.351751565933227539e-01,1.521098464727401733e-01,8.038922399282455444e-02,8.868232369422912598e-01,4.110724199563264847e-03,3.928561508655548096e-01,7.339894175529479980e-01,1.988588459789752960e-02,1.314345449209213257e-01,-3.164606392383575439e-01,-1.122737675905227661e-01,-7.607594132423400879e-02,7.893258333206176758e-02,1.864005327224731445e-01,1.172336786985397339e-01,7.506099343299865723e-01,9.431717991828918457e-01,7.604416608810424805e-01,8.249486088752746582e-01,7.318605184555053711e-01,5.737984180450439453e-01,1.921210139989852905e-01,6.517410278320312500e-01,6.187754496932029724e-02,9.041266441345214844e-01,8.031909465789794922e-01,4.641933143138885498e-01,4.610294699668884277e-01,3.845031261444091797e-01,-4.886318445205688477e-01,1.573629081249237061e-01,2.272598892450332642e-01,5.084562897682189941e-01,5.675218701362609863e-01,2.280026972293853760e-01,-1.698414981365203857e-01,7.753384113311767578e-02,6.128937005996704102e-01
4.309351146221160889e-01,-1.582810580730438232e-01,1.173795238137245178e-01,7.901258468627929688e-01,4.402789771556854248e-01,1.715839654207229614e-01,5.239987373352050781e-01,4.091019630432128906e-01,8.150178790092468262e-01,-4.693706631660461426e-01,4.785789176821708679e-02,5.162573233246803284e-02,8.525257110595703125e-01,1.771162748336791992e-01,2.619014084339141846e-01,8.201684951782226562e-01,-1.149570494890213013e-01,5.657618045806884766e-01,9.776405058801174164e-03,8.340464234352111816e-01,2.192388772964477539e-01,1.468642950057983398e-01,-1.585094444453716278e-02,5.962158367037773132e-02,4.430784378200769424e-03,5.688946247100830078e-01,-8.882612735033035278e-02,6.692030429840087891e-01,3.847255110740661621e-01,7.851097583770751953e-01,8.587476015090942383e-01,7.930313944816589355e-01,5.218930840492248535e-01,6.562691926956176758e-01,5.759001970291137695e-01,4.152995049953460693e-01,8.834682703018188477e-01,8.261907696723937988e-01,2.087729424238204956e-01,6.510901451110839844e-01,6.398244500160217285e-01,-4.083672165870666504e-01,1.659010946750640869e-01,5.923271775245666504e-01,7.393227815628051758e-01,7.592903375625610352e-01,1.964457184076309204e-01,3.682156652212142944e-02,9.346041828393936157e-02,-8.453489094972610474e-02
-2.004296183586120605e-01,-1.335182040929794312e-01,-1.794910281896591187e-01,7.681653499603271484e-01,-3.876682817935943604e-01,-1.984686702489852905e-01,2.724213898181915283e-01,-1.252557933330535889e-01,8.299259543418884277e-01,6.890114545822143555e-01,1.204380095005035400e-01,-1.008447706699371338e-01,6.775831580162048340e-01,-3.080218732357025146e-01,-9.914230555295944214e-02,8.013328909873962402e-01,-3.206829130649566650e-01,3.943312466144561768e-01,-4.770601540803909302e-02,-1.234128102660179138e-01,-2.415288090705871582e-01,-5.888996720314025879e-01,-7.461922615766525269e-02,-1.381978988647460938e-01,-2.905681729316711426e-01,2.525234818458557129e-01,-1.383173018693923950e-01,-2.788528427481651306e-02,-2.679485976696014404e-01,4.721430242061614990e-01,7.073969841003417969e-01,7.971998453140258789e-01,-2.593891620635986328e-01,1.093749478459358215e-01,-1.134313717484474182e-01,6.334496140480041504e-01,6.754643470048904419e-02,-1.143235992640256882e-02,-2.966669201850891113e-01,-2.013970911502838135e-01,-3.586335480213165283e-01,-4.918885231018066406e-01,-2.360038310289382935e-01,-3.286582529544830322e-01,-3.000772893428802490e-01,-2.956480383872985840e-01,5.479403138160705566e-01,-1.205599308013916016e-01,-3.011384904384613037e-01,4.489268064498901367e-01
4.237715005874633789e-01,1.088836938142776489e-01,2.203843891620635986e-01,4.095314145088195801e-01,-5.072722956538200378e-02,1.592820286750793457e-01,1.380799412727355957e-01,5.647203326225280762e-01,3.783772885799407959e-01,-5.311927795410156250e-01,2.881895303726196289e-01,3.415785133838653564e-01,4.812784492969512939e-01,1.972129642963409424e-01,3.149556219577789307e-01,4.494882225990295410e-01,1.483970582485198975e-01,1.106703653931617737e-01,5.757866501808166504e-01,1.455245018005371094e-01,4.681267216801643372e-02,-4.490038454532623291e-01,1.687019914388656616e-01,3.479770123958587646e-01,1.740949600934982300e-02,4.683596789836883545e-01,-1.129369810223579407e-02,-9.868116676807403564e-02,8.554814010858535767e-02,6.266749501228332520e-01,3.213989734649658203e-01,3.508029580116271973e-01,1.844531111419200897e-02,5.119392871856689453e-01,2.891107797622680664e-01,4.418655037879943848e-01,3.597291111946105957e-01,2.133241146802902222e-01,7.160335313528776169e-03,-9.484856389462947845e-03,-7.343202829360961914e-02,-2.464929074048995972e-01,-3.800655016675591469e-03,4.654241353273391724e-02,-4.918684251606464386e-03,-3.581127524375915527e-02,1.829541772603988647e-01,3.414405286312103271e-01,-3.557121753692626953e-02,1.501577794551849365e-01
1.709390431642532349e-01,1.225585937500000000e-01,1.053326390683650970e-02,6.799157857894897461e-01,-4.829747378826141357e-01,6.455987691879272461e-02,-2.624593675136566162e-03,5.817247033119201660e-01,3.110156208276748657e-02,-1.700020581483840942e-01,3.038996458053588867e-01,1.972478181123733521e-01,6.299741864204406738e-01,3.126420080661773682e-02,1.961651146411895752e-01,3.342288136482238770e-01,-1.736035495996475220e-01,3.113290667533874512e-01,6.595882773399353027e-01,9.601411968469619751e-02,-3.054573535919189453e-01,-6.293088793754577637e-01,1.745270788669586182e-01,1.607557833194732666e-01,-1.190269738435745239e-02,-7.235643453896045685e-03,-2.976504862308502197e-01,-2.183801829814910889e-01,-4.593831673264503479e-02,7.239725589752197266e-01,4.595449566841125488e-01,3.664908409118652344e-01,-5.756713822484016418e-02,1.867737174034118652e-01,-6.192532554268836975e-02,2.558102011680603027e-01,2.496860772371292114e-01,5.939839407801628113e-02,-5.032564327120780945e-02,-1.007824838161468506e-01,-2.510918676853179932e-01,-4.242529571056365967e-01,-2.363104820251464844e-01,-6.453762203454971313e-02,-4.066937565803527832e-01,-2.155845761299133301e-01,2.993376851081848145e-01,3.769184648990631104e-01,-2.831993699073791504e-01,4.585825502872467041e-01
3.933403491973876953e-01,1.339019834995269775e-01,7.298666983842849731e-02,7.396163344383239746e-01,-3.713533282279968262e-01,1.767601221799850464e-01,1.836184971034526825e-02,6.467298269271850586e-01,5.904589295387268066e-01,-1.291149258613586426e-01,1.271227449178695679e-01,3.588946461677551270e-01,7.769615650177001953e-01,4.808514844626188278e-03,1.511750668287277222e-01,7.563743591308593750e-01,9.129197895526885986e-02,3.327458500862121582e-01,4.272571504116058350e-01,-2.457461506128311157e-02,-9.799742698669433594e-02,-1.491459161043167114e-01,2.601144015789031982e-01,3.049258887767791748e-01,3.647549450397491455e-02,1.165761351585388184e-01,-3.704738616943359375e-02,-8.152194321155548096e-02,8.826811611652374268e-02,7.684441804885864258e-01,6.930054426193237305e-01,5.265235900878906250e-01,1.782182902097702026e-01,3.664472997188568115e-01,3.483341932296752930e-01,1.722311079502105713e-01,-6.954938918352127075e-02,-8.686098456382751465e-02,4.215470701456069946e-02,1.436941176652908325e-01,3.996694087982177734e-02,-6.092585325241088867e-01,-2.559198737144470215e-01,-2.891836762428283691e-01,-1.202822849154472351e-01,6.423723697662353516e-02,1.239654608070850372e-02,2.238817363977432251e-01,-1.439191401004791260e-01,-3.322432041168212891e-01
4.814131557941436768e-01,2.481008917093276978e-01,1.399857252836227417e-01,8.174058198928833008e-01,-4.308868199586868286e-02,2.261036485433578491e-01,-1.686822026968002319e-01,7.025004178285598755e-02,6.632184386253356934e-01,-3.383183777332305908e-01,6.822422742843627930e-01,2.820867598056793213e-01,8.721717596054077148e-01,1.320686284452676773e-02,1.417065709829330444e-01,7.676674127578735352e-01,2.604093849658966064e-01,5.053049921989440918e-01,6.774944067001342773e-01,-2.039162367582321167e-01,-3.098263442516326904e-01,-6.455654501914978027e-01,1.438886374235153198e-01,2.998669743537902832e-01,4.095852077007293701e-01,-2.963936328887939453e-01,3.774196282029151917e-02,7.799078524112701416e-02,2.727771401405334473e-01,8.807349205017089844e-01,8.153547048568725586e-01,6.790462732315063477e-01,1.499612927436828613e-01,6.076945066452026367e-01,-2.981681190431118011e-02,7.262572646141052246e-01,7.091977000236511230e-01,4.964661598205566406e-01,2.506037652492523193e-01,-1.455626189708709717e-01,-2.029576338827610016e-02,-5.581503510475158691e-01,-3.247803449630737305e-01,2.319344431161880493e-01,-3.573704361915588379e-01,-1.199169009923934937e-01,3.627010285854339600e-01,1.019157990813255310e-01,-2.450889199972152710e-01,1.499102711677551270e-01
5.914452672004699707e-01,8.662267774343490601e-02,1.943740695714950562e-01,7.282976508140563965e-01,-1.214276328682899475e-01,2.838230729103088379e-01,-3.618950247764587402e-01,-1.008562073111534119e-01,7.378258109092712402e-01,-2.482240647077560425e-01,5.208725929260253906e-01,4.968774616718292236e-01,7.153475880622863770e-01,1.133567169308662415e-01,3.102630674839019775e-01,6.900611519813537598e-01,5.065846443176269531e-01,-1.933750957250595093e-01,5.278410390019416809e-02,-2.630955874919891357e-01,-1.040482521057128906e-01,-2.549751996994018555e-01,2.871269881725311279e-01,3.070756196975708008e-01,2.439820468425750732e-01,8.619559556245803833e-02,7.276862263679504395e-01,4.669805169105529785e-01,3.598270416259765625e-01,6.327422261238098145e-01,6.871007680892944336e-01,5.522063970565795898e-01,2.421326339244842529e-01,7.301025390625000000e-01,2.154654562473297119e-01,3.640803098678588867e-01,3.350937664508819580e-01,2.315736413002014160e-01,1.676600277423858643e-01,3.990123271942138672e-01,6.610074043273925781e-01,-2.988398969173431396e-01,1.543922126293182373e-01,3.645769059658050537e-01,8.517352491617202759e-02,7.214468121528625488e-01,1.340184509754180908e-01,1.239789277315139771e-01,-5.390299111604690552e-02,-2.330675907433032990e-02
-1.525487750768661499e-01,-1.836399286985397339e-01,6.087867915630340576e-02,6.341752409934997559e-01,-2.904590666294097900e-01,-1.848719567060470581e-01,-2.887105345726013184e-01,-8.812798559665679932e-02,6.844770908355712891e-01,1.453474611043930054e-01,4.154586493968963623e-01,4.057602286338806152e-01,6.422616243362426758e-01,-1.692207455635070801e-01,-3.345049917697906494e-01,5.196833610534667969e-01,-5.749741196632385254e-01,5.437475070357322693e-02,-1.028208285570144653e-01,-4.570077955722808838e-01,-4.726078808307647705e-01,-6.495810747146606445e-01,-2.258876562118530273e-01,-1.622276157140731812e-01,-1.908156126737594604e-01,-1.215654164552688599e-01,8.284960985183715820e-01,2.599728405475616455e-01,3.843675553798675537e-02,6.661952137947082520e-01,5.724158883094787598e-01,4.379111230373382568e-01,-3.091086149215698242e-01,5.463520884513854980e-01,-3.967465460300445557e-01,-1.544304639101028442e-01,2.468592226505279541e-01,-6.869801878929138184e-02,-3.086275756359100342e-01,-2.929804623126983643e-01,6.917006969451904297e-01,-6.041524410247802734e-01,1.064307019114494324e-01,-1.482450217008590698e-01,9.059794992208480835e-02,1.332955062389373779e-01,-1.457094997167587280e-01,-4.613703787326812744e-01,-5.023873448371887207e-01,-2.803112566471099854e-01
9.844647347927093506e-02,-2.059496492147445679e-01,3.641242086887359619e-01,5.659202337265014648e-01,-1.779330223798751831e-01,1.564722955226898193e-01,-2.440803945064544678e-01,-1.367612648755311966e-02,7.726386785507202148e-01,7.592086493968963623e-02,1.464877128601074219e-01,2.148771286010742188e-01,7.441987395286560059e-01,-8.241540938615798950e-02,1.118048839271068573e-02,5.120277404785156250e-01,-1.695404648780822754e-01,1.102963760495185852e-01,-1.938092857599258423e-01,-3.771105110645294189e-01,-3.676904439926147461e-01,1.518595218658447266e-01,4.615839943289756775e-02,-3.244074434041976929e-02,-3.645728230476379395e-01,-3.081080503761768341e-02,-2.257977128028869629e-01,-9.027500636875629425e-03,-1.081869900226593018e-01,6.944046020507812500e-01,7.119397521018981934e-01,6.403787136077880859e-01,-2.987177856266498566e-02,8.217883110046386719e-02,4.634704813361167908e-02,-8.495043031871318817e-03,1.732446104288101196e-01,-7.150068879127502441e-02,-1.322040557861328125e-01,3.058828599750995636e-02,9.617159366607666016e-01,-4.546949565410614014e-01,2.174322158098220825e-01,-2.443218976259231567e-01,1.075792461633682251e-01,9.540476799011230469e-01,-1.146228909492492676e-01,1.231400482356548309e-02,-2.005062848329544067e-01,-7.699777185916900635e-02
-4.176010787487030029e-01,-3.945260941982269287e-01,-4.470074474811553955e-01,8.685648441314697266e-01,-5.055849552154541016e-01,-5.131314992904663086e-01,-5.570676326751708984e-01,6.004993915557861328e-01,9.149369001388549805e-01,8.373659849166870117e-01,1.411891728639602661e-01,-2.014432996511459351e-01,7.623826265335083008e-01,-5.998674631118774414e-01,-4.596146047115325928e-01,8.365677595138549805e-01,-6.188237667083740234e-01,1.738040298223495483e-01,-4.150429964065551758e-01,-4.434224963188171387e-01,-2.662928700447082520e-01,-9.311870485544204712e-02,-3.121368885040283203e-01,-3.019706606864929199e-01,-6.051880717277526855e-01,-5.086579918861389160e-02,-5.128701925277709961e-01,-2.847087085247039795e-01,-5.826329588890075684e-01,5.022811293601989746e-01,8.136008977890014648e-01,8.072187304496765137e-01,-5.376668572425842285e-01,-2.043511420488357544e-01,-3.501614630222320557e-01,2.849065065383911133e-01,-8.261781185865402222e-02,-3.270283043384552002e-01,-4.732881486415863037e-01,-5.454081296920776367e-01,-3.224749863147735596e-01,-2.252368479967117310e-01,-4.690141677856445312e-01,-5.318983793258666992e-01,-3.368467390537261963e-01,-5.130039453506469727e-01,2.339157611131668091e-01,-4.436848163604736328e-01,-1.843755394220352173e-01,-2.344353124499320984e-02
1.410273164510726929e-01,-3.696518242359161377e-01,-4.981824755668640137e-02,7.956169247627258301e-01,-4.282047450542449951e-01,-1.411463320255279541e-01,-1.893603652715682983e-01,5.449158549308776855e-01,5.905897021293640137e-01,4.922064840793609619e-01,7.427349686622619629e-01,-1.772398501634597778e-02,7.858220338821411133e-01,-4.529305696487426758e-01,-4.354496300220489502e-01,7.838849425315856934e-01,-2.461377978324890137e-01,2.805154025554656982e-01,-5.384781956672668457e-02,-3.949850201606750488e-01,1.599311828613281250e-01,-4.092470705509185791e-01,-7.745301350951194763e-03,-2.331763058900833130e-01,-3.207396566867828369e-01,6.704167723655700684e-01,-2.916149497032165527e-01,-1.475094854831695557e-01,-4.312269091606140137e-01,5.479512810707092285e-01,8.122360110282897949e-01,8.066462278366088867e-01,-2.857472896575927734e-01,-3.292641043663024902e-01,4.258102774620056152e-01,-3.219040632247924805e-01,1.415642350912094116e-02,-3.266167044639587402e-01,-4.394446015357971191e-01,-1.332586556673049927e-01,4.589107930660247803e-01,-3.664412200450897217e-01,1.681504994630813599e-01,-4.218893349170684814e-01,-1.470522135496139526e-01,3.666385412216186523e-01,-1.123158857226371765e-01,-4.386132359504699707e-01,3.188181519508361816e-01,3.260238468647003174e-01
2.333596646785736084e-01,1.060650199651718140e-01,-2.551087737083435059e-01,8.459028601646423340e-01,-2.786167263984680176e-01,-2.833789959549903870e-02,-1.889495700597763062e-01,3.584633469581604004e-01,7.610656619071960449e-01,6.312932968139648438e-01,7.975410819053649902e-01,2.229495346546173096e-01,8.135170936584472656e-01,-5.798321962356567383e-01,2.177833020687103271e-01,8.482616543769836426e-01,-2.466194778680801392e-01,4.147482812404632568e-01,-7.248520851135253906e-02,-1.068872362375259399e-01,7.839869260787963867e-01,3.174522817134857178e-01,1.176554411649703979e-01,8.246783912181854248e-02,-1.942906975746154785e-01,9.173525571823120117e-01,-3.991984724998474121e-01,4.758003056049346924e-01,-6.491870880126953125e-01,7.245672941207885742e-01,8.266463279724121094e-01,8.068395853042602539e-01,-3.777814209461212158e-01,4.969310462474822998e-01,8.615761995315551758e-01,-2.770968675613403320e-01,1.197716891765594482e-01,-1.847235411405563354e-01,-2.292431592941284180e-01,-1.193499639630317688e-01,9.219076633453369141e-01,-2.434091866016387939e-01,4.014527201652526855e-01,-3.983615040779113770e-01,-2.115868031978607178e-01,7.665188312530517578e-01,2.327211052179336548e-01,1.463552266359329224e-01,7.747574448585510254e-01,4.112689793109893799e-01
5.006119608879089355e-01,7.092989087104797363e-01,2.308424711227416992e-01,1.632567942142486572e-01,-8.448382467031478882e-02,4.620318114757537842e-01,2.674204409122467041e-01,2.769887149333953857e-01,2.719099819660186768e-01,3.016055189073085785e-02,8.299311399459838867e-01,7.504280805587768555e-01,2.578510940074920654e-01,-1.051303222775459290e-01,5.255056619644165039e-01,4.535381793975830078e-01,5.220168232917785645e-01,-4.212411865592002869e-02,6.402794122695922852e-01,-6.361401677131652832e-01,-1.684320718050003052e-02,-6.795820593833923340e-02,6.813989877700805664e-01,5.716419816017150879e-01,4.004093408584594727e-01,1.106371358036994934e-01,5.274534821510314941e-01,-3.950012624263763428e-01,-4.279795885086059570e-01,5.219819024205207825e-02,1.801422685384750366e-01,1.247133687138557434e-01,3.599072396755218506e-01,8.891971707344055176e-01,6.794511079788208008e-01,1.382457762956619263e-01,1.851710230112075806e-01,1.133384779095649719e-01,-2.928029745817184448e-02,3.207522630691528320e-01,9.031574130058288574e-01,-5.808681249618530273e-01,6.986683607101440430e-01,2.670408785343170166e-01,-4.435281157493591309e-01,8.137387633323669434e-01,2.615647912025451660e-01,3.519616425037384033e-01,1.287164539098739624e-01,-1.394690722227096558e-01
5.870786905288696289e-01,8.810029625892639160e-01,7.748605012893676758e-01,1.972702741622924805e-01,2.874859869480133057e-01,7.723245620727539062e-01,-1.543583124876022339e-01,4.470541179180145264e-01,9.942241758108139038e-02,-3.109675347805023193e-01,8.767868876457214355e-01,8.840335607528686523e-01,4.337795972824096680e-01,4.375377297401428223e-01,5.524201393127441406e-01,2.309246063232421875e-01,6.760144233703613281e-01,-8.807437866926193237e-02,5.984047651290893555e-01,-2.075570225715637207e-01,3.769911229610443115e-01,1.481324732303619385e-01,6.558649539947509766e-01,8.195002079010009766e-01,7.104722857475280762e-01,3.953899145126342773e-01,3.788962364196777344e-01,1.291758846491575241e-02,2.775802612304687500e-01,2.357116937637329102e-01,2.245565205812454224e-01,-6.930951029062271118e-02,3.919218182563781738e-01,7.998593449592590332e-01,2.821630537509918213e-01,-3.909412398934364319e-02,6.697394847869873047e-01,7.866661548614501953e-01,7.326291203498840332e-01,1.324640661478042603e-01,7.321167588233947754e-01,-5.223730206489562988e-01,3.081402778625488281e-01,5.784943699836730957e-01,-3.316229581832885742e-01,5.311242938041687012e-01,1.019947305321693420e-01,3.933939635753631592e-01,3.644133508205413818e-01,7.274016737937927246e-02
8.725921064615249634e-02,6.304206848144531250e-01,1.755666285753250122e-01,1.593286097049713135e-01,9.314150549471378326e-03,1.611317694187164307e-01,2.234187424182891846e-01,1.436030417680740356e-01,1.029339134693145752e-01,-9.191162884235382080e-02,8.679926395416259766e-01,5.411022901535034180e-01,7.085629552602767944e-02,7.916332781314849854e-02,9.404809772968292236e-02,8.241545408964157104e-02,7.724851369857788086e-01,-3.753473758697509766e-01,-2.478491961956024170e-01,-5.839288830757141113e-01,-1.131943985819816589e-01,5.052216649055480957e-01,4.802673757076263428e-01,3.795841634273529053e-01,5.126192569732666016e-01,-1.054021716117858887e-01,2.894784808158874512e-01,-1.776197403669357300e-01,2.528783679008483887e-02,-4.747423902153968811e-02,9.344083070755004883e-02,5.185590125620365143e-03,-5.443728715181350708e-02,3.945950865745544434e-01,8.073640614748001099e-02,-1.019156817346811295e-02,1.350104659795761108e-01,-9.514069557189941406e-02,5.970972403883934021e-02,-1.143024042248725891e-01,5.093970894813537598e-01,-4.012118875980377197e-01,4.786648750305175781e-01,1.156597435474395752e-01,-3.804142177104949951e-01,2.422103583812713623e-01,-9.022665023803710938e-02,-4.567264765501022339e-02,1.620875298976898193e-02,1.079889088869094849e-01
3.398775681853294373e-02,2.099643349647521973e-01,7.967844605445861816e-02,5.687231421470642090e-01,-5.435132607817649841e-02,1.885716058313846588e-02,-4.763593077659606934e-01,6.080452725291252136e-02,7.309483289718627930e-01,2.408151477575302124e-01,8.013225197792053223e-01,1.082289293408393860e-01,6.181748509407043457e-01,-6.313310265541076660e-01,-2.000089734792709351e-01,5.053839087486267090e-01,3.975627124309539795e-01,-3.842474222183227539e-01,-1.959030628204345703e-01,-6.743150949478149414e-01,-1.111941412091255188e-02,6.387733221054077148e-01,1.512501761317253113e-02,1.238877549767494202e-01,7.500499486923217773e-02,-1.415748149156570435e-01,1.260065287351608276e-01,-2.416833192110061646e-01,-5.552358627319335938e-01,3.602495789527893066e-01,6.280694603919982910e-01,5.085588693618774414e-01,4.692139849066734314e-02,4.401562809944152832e-01,-8.090345561504364014e-02,-2.210801392793655396e-01,-1.222212892025709152e-02,4.605937004089355469e-02,-1.633640080690383911e-01,-3.019848465919494629e-01,2.048359364271163940e-01,-3.996948897838592529e-01,-8.933863602578639984e-03,-3.065980076789855957e-01,-2.871236205101013184e-01,-1.986451074481010437e-02,-9.780433028936386108e-02,-2.520799040794372559e-01,8.281186223030090332e-02,5.328543186187744141e-01
3.510213494300842285e-01,8.977742791175842285e-01,5.850999951362609863e-01,2.124284654855728149e-01,-7.315240055322647095e-02,1.337458491325378418e-01,-5.313900858163833618e-02,-3.264947235584259033e-02,5.574584007263183594e-01,-1.805354803800582886e-01,8.495323657989501953e-01,5.216221809387207031e-01,2.108405381441116333e-01,4.815526604652404785e-01,-3.904464542865753174e-01,1.819683462381362915e-01,9.171929955482482910e-01,-5.101605653762817383e-01,3.522595465183258057e-01,-6.289994120597839355e-01,-1.325441598892211914e-01,8.488604426383972168e-01,4.994267523288726807e-01,5.699449181556701660e-01,8.150974512100219727e-01,-2.966330572962760925e-02,8.889347314834594727e-01,-2.897783219814300537e-01,5.404461026191711426e-01,9.428744018077850342e-02,2.330121248960494995e-01,1.309425979852676392e-01,1.820981055498123169e-01,2.775489389896392822e-01,-1.053116470575332642e-01,1.766517311334609985e-01,-1.314361691474914551e-01,-2.629550099372863770e-01,-4.206069558858871460e-02,-2.373823076486587524e-01,5.591703653335571289e-01,-5.371022224426269531e-01,1.473190486431121826e-01,1.122087799012660980e-02,-4.137459024786949158e-02,2.107849419116973877e-01,1.534051150083541870e-01,-3.451932370662689209e-01,-5.375533923506736755e-02,5.568058490753173828e-01
2.081127762794494629e-01,8.976106643676757812e-01,-4.146819710731506348e-01,1.746779978275299072e-01,-1.879015862941741943e-01,-1.004993245005607605e-01,-1.310756802558898926e-01,-6.519711762666702271e-02,3.245654702186584473e-01,2.612154483795166016e-01,6.862897872924804688e-01,5.695060491561889648e-01,3.356492519378662109e-01,-5.708474516868591309e-01,-2.296406216919422150e-02,2.027043700218200684e-01,9.585351347923278809e-01,-6.168009042739868164e-01,-7.265669107437133789e-01,-3.551524281501770020e-01,9.858522564172744751e-02,6.271934509277343750e-01,7.230192422866821289e-01,7.510060071945190430e-01,2.333581149578094482e-01,1.825947165489196777e-01,9.495437145233154297e-01,-2.379418760538101196e-01,-7.710341811180114746e-01,3.377092778682708740e-01,3.331030309200286865e-01,2.147111892700195312e-01,1.742964982986450195e-01,6.333822607994079590e-01,4.306711256504058838e-01,-6.713397502899169922e-01,-1.014642342925071716e-01,-1.944771111011505127e-01,-2.083783298730850220e-01,1.426943540573120117e-01,3.583489954471588135e-01,6.775517761707305908e-02,1.083884686231613159e-01,-7.784283906221389771e-02,-4.005169495940208435e-02,3.167155683040618896e-01,-4.951168596744537354e-01,5.298193171620368958e-02,1.349131464958190918e-01,1.735381931066513062e-01
2.231815084815025330e-02,6.023959517478942871e-01,-3.562751710414886475e-01,-2.660914557054638863e-03,-3.144191801548004150e-01,-2.898069918155670166e-01,5.650780797004699707e-01,1.283944696187973022e-01,2.364720553159713745e-01,1.627773940563201904e-01,8.300746679306030273e-01,8.360772728919982910e-01,1.010714024305343628e-01,-1.962443441152572632e-01,9.336891025304794312e-02,1.024115234613418579e-01,4.051520824432373047e-01,-4.946734607219696045e-01,-2.712985873222351074e-02,-7.347491979598999023e-01,-1.905409693717956543e-01,7.130244374275207520e-01,8.359290361404418945e-01,9.125819802284240723e-01,4.074447751045227051e-01,-1.508943922817707062e-02,9.062895774841308594e-01,-3.586127161979675293e-01,-3.278201818466186523e-01,2.017762511968612671e-01,9.820085763931274414e-02,-2.017606049776077271e-02,7.261628508567810059e-01,9.096579551696777344e-01,1.665049493312835693e-01,-6.090571880340576172e-01,-3.506726622581481934e-01,-4.110547602176666260e-01,-2.696790993213653564e-01,1.794905811548233032e-01,5.440255999565124512e-01,-3.183531761169433594e-01,6.339571475982666016e-01,8.400279283523559570e-02,3.182667195796966553e-01,5.026400685310363770e-01,-2.250335514545440674e-01,-1.792050749063491821e-01,-8.390206098556518555e-02,-3.255192935466766357e-01
9.198679327964782715e-01,6.701929569244384766e-01,9.414903521537780762e-01,8.602066636085510254e-01,9.770540595054626465e-01,9.355956315994262695e-01,9.227990508079528809e-01,9.105685353279113770e-01,7.758535742759704590e-01,9.102938175201416016e-01,-3.325658142566680908e-01,4.680618047714233398e-01,7.282004356384277344e-01,9.509478807449340820e-01,9.468583464622497559e-01,8.265000581741333008e-01,6.341412663459777832e-01,9.812929034233093262e-01,9.573515653610229492e-01,9.960575699806213379e-01,9.351344704627990723e-01,3.769298791885375977e-01,6.715942025184631348e-01,6.739630699157714844e-01,8.396151065826416016e-01,8.606056571006774902e-01,7.972032427787780762e-01,9.916455745697021484e-01,9.749432206153869629e-01,8.483479619026184082e-01,7.565823197364807129e-01,8.806118369102478027e-01,9.198825955390930176e-01,4.836208224296569824e-01,8.603597283363342285e-01,9.777849316596984863e-01,9.730100631713867188e-01,9.724431633949279785e-01,9.672456979751586914e-01,9.648597240447998047e-01,-5.662097409367561340e-02,9.433522820472717285e-01,8.172841668128967285e-01,9.245159626007080078e-01,9.644665718078613281e-01,2.110904306173324585e-01,9.868424534797668457e-01,9.714127182960510254e-01,9.190332293510437012e-01,8.610028624534606934e-01
9.086973071098327637e-01,4.827751964330673218e-02,9.866643548011779785e-01,8.157892823219299316e-01,9.727448821067810059e-01,9.770169854164123535e-01,9.088447093963623047e-01,8.698166012763977051e-01,6.828078031539916992e-01,8.933471441268920898e-01,3.313483595848083496e-01,4.106306731700897217e-01,7.519726157188415527e-01,9.723482131958007812e-01,9.613705873489379883e-01,7.900854349136352539e-01,6.205021142959594727e-01,9.926716685295104980e-01,8.745569586753845215e-01,9.965842962265014648e-01,9.381141662597656250e-01,-3.511997684836387634e-02,4.455334246158599854e-01,5.847000479698181152e-01,7.750688791275024414e-01,9.248318076133728027e-01,7.422657012939453125e-01,9.891784191131591797e-01,9.755708575248718262e-01,8.286190629005432129e-01,7.951759696006774902e-01,8.875651359558105469e-01,9.047904610633850098e-01,2.629597187042236328e-01,3.573206365108489990e-01,9.957324862480163574e-01,9.449309110641479492e-01,9.404657483100891113e-01,9.775995612144470215e-01,9.895148277282714844e-01,2.990910112857818604e-01,8.998461961746215820e-01,6.296550035476684570e-01,9.385896325111389160e-01,9.842349290847778320e-01,7.038224935531616211e-01,9.884317517280578613e-01,9.847764968872070312e-01,9.133140444755554199e-01,9.287214279174804688e-01
3.069787025451660156e-01,7.829791903495788574e-01,9.762083888053894043e-01,4.760891795158386230e-01,9.362670779228210449e-01,9.616535305976867676e-01,9.008094668388366699e-01,5.501143336296081543e-01,4.204486012458801270e-01,9.157668948173522949e-01,2.864712774753570557e-01,6.992683410644531250e-01,4.037890732288360596e-01,9.414279460906982422e-01,9.831055402755737305e-01,5.419104695320129395e-01,7.769183516502380371e-01,9.800512194633483887e-01,7.971481680870056152e-01,9.941226243972778320e-01,9.470836520195007324e-01,-5.445880889892578125e-01,7.228438854217529297e-01,7.660531401634216309e-01,5.221878290176391602e-01,8.902892470359802246e-01,5.899712443351745605e-01,9.897685050964355469e-01,9.572392106056213379e-01,7.120488882064819336e-01,4.523569643497467041e-01,7.145949602127075195e-01,9.156414866447448730e-01,8.446027040481567383e-01,8.323184251785278320e-01,9.902902841567993164e-01,9.768992066383361816e-01,9.761182665824890137e-01,9.866529107093811035e-01,9.872226715087890625e-01,7.309813499450683594e-01,8.627555966377258301e-01,5.268409848213195801e-01,9.718769192695617676e-01,9.868898391723632812e-01,8.359249234199523926e-01,9.883829951286315918e-01,9.694322943687438965e-01,9.229007959365844727e-01,8.977297544479370117e-01
9.043428301811218262e-01,2.736730575561523438e-01,9.616028070449829102e-01,6.815307140350341797e-01,9.375922679901123047e-01,9.563340544700622559e-01,8.820912241935729980e-01,8.419668078422546387e-01,4.485193192958831787e-01,8.663949966430664062e-01,1.957980245351791382e-01,2.323410809040069580e-01,5.129485726356506348e-01,9.281024932861328125e-01,9.592638015747070312e-01,6.983028054237365723e-01,-9.348940104246139526e-02,9.864940047264099121e-01,8.064730167388916016e-01,9.905099272727966309e-01,9.275183677673339844e-01,3.556811511516571045e-01,-1.874040067195892334e-01,2.430325150489807129e-01,-2.913993895053863525e-01,8.886370062828063965e-01,-4.532808437943458557e-03,9.939122200012207031e-01,9.602839350700378418e-01,7.724270820617675781e-01,6.258931159973144531e-01,8.968346714973449707e-01,8.498462438583374023e-01,5.547648072242736816e-01,8.460020422935485840e-01,9.964537024497985840e-01,9.840067625045776367e-01,9.776414632797241211e-01,9.799387454986572266e-01,9.832373261451721191e-01,7.286664247512817383e-01,9.062702059745788574e-01,7.198333740234375000e-01,9.590819478034973145e-01,9.640343785285949707e-01,8.259236812591552734e-01,9.902524352073669434e-01,9.436885118484497070e-01,9.410881400108337402e-01,9.153047800064086914e-01
9.285170435905456543e-01,2.969272136688232422e-01,9.536685943603515625e-01,8.922872543334960938e-01,9.611587524414062500e-01,9.468447566032409668e-01,6.395945549011230469e-01,9.354826807975769043e-01,7.884584665298461914e-01,9.628519415855407715e-01,-6.557418406009674072e-02,2.673920989036560059e-01,7.563892602920532227e-01,8.619382381439208984e-01,9.454125761985778809e-01,8.702020645141601562e-01,5.019139647483825684e-01,9.822703003883361816e-01,6.919090151786804199e-01,9.964353442192077637e-01,9.678565263748168945e-01,9.314455986022949219e-01,2.864261865615844727e-01,3.012913465499877930e-01,4.287739992141723633e-01,8.951680660247802734e-01,4.062081873416900635e-01,9.922725558280944824e-01,9.361751079559326172e-01,8.024265170097351074e-01,7.758947014808654785e-01,9.510961174964904785e-01,7.510002255439758301e-01,6.712460517883300781e-01,6.104805469512939453e-01,9.874482750892639160e-01,9.694454669952392578e-01,9.734934568405151367e-01,9.810653328895568848e-01,9.717158079147338867e-01,8.092179894447326660e-01,9.266129136085510254e-01,1.897451430559158325e-01,9.390736818313598633e-01,9.754832386970520020e-01,8.022006154060363770e-01,9.820687770843505859e-01,9.103049039840698242e-01,9.608671665191650391e-01,8.868182301521301270e-01
9.727680683135986328e-01,4.368729293346405029e-01,9.645468592643737793e-01,9.531482458114624023e-01,9.324907660484313965e-01,9.734773635864257812e-01,8.534459471702575684e-01,9.741584658622741699e-01,5.385845899581909180e-01,9.666404128074645996e-01,2.607191801071166992e-01,1.527329832315444946e-01,9.384694099426269531e-01,8.830098509788513184e-01,9.626237154006958008e-01,8.171610236167907715e-01,7.716791629791259766e-01,9.840130209922790527e-01,3.444974720478057861e-01,9.954413771629333496e-01,9.832471013069152832e-01,8.868176937103271484e-01,2.183321118354797363e-01,1.442544311285018921e-01,3.041846156120300293e-01,9.610536694526672363e-01,-1.235004886984825134e-02,9.881334304809570312e-01,9.380779862403869629e-01,8.877262473106384277e-01,9.420409202575683594e-01,9.832128882408142090e-01,7.695021629333496094e-01,3.984672427177429199e-01,7.082977890968322754e-01,9.764683246612548828e-01,9.866339564323425293e-01,9.863147139549255371e-01,9.828305840492248535e-01,9.786055088043212891e-01,7.475610971450805664e-01,9.101593494415283203e-01,7.886637449264526367e-01,9.652563333511352539e-01,9.884630441665649414e-01,8.055510520935058594e-01,9.695536494255065918e-01,9.139913916587829590e-01,9.701192378997802734e-01,8.533726930618286133e-01
9.848244190216064453e-01,2.953848540782928467e-01,9.650620222091674805e-01,9.729658961296081543e-01,8.960545063018798828e-01,9.822030067443847656e-01,2.988496422767639160e-01,9.860088229179382324e-01,7.901272773742675781e-01,9.442866444587707520e-01,4.489786922931671143e-01,1.928271353244781494e-02,9.476895928382873535e-01,9.041121602058410645e-01,9.599421620368957520e-01,9.610558152198791504e-01,6.849071979522705078e-01,9.943827986717224121e-01,7.800436615943908691e-01,9.948543310165405273e-01,9.900836348533630371e-01,8.557012081146240234e-01,1.602652966976165771e-01,2.442119456827640533e-02,9.852486848831176758e-02,9.816296100616455078e-01,1.230477094650268555e-01,9.925464391708374023e-01,9.553628563880920410e-01,8.605116605758666992e-01,9.617098569869995117e-01,9.876465201377868652e-01,5.994228124618530273e-01,6.004543304443359375e-01,9.903055429458618164e-01,9.662687182426452637e-01,9.921342134475708008e-01,9.885389208793640137e-01,9.846016764640808105e-01,9.955979585647583008e-01,8.028188943862915039e-01,9.545202851295471191e-01,8.325433731079101562e-01,9.584389925003051758e-01,9.860404729843139648e-01,8.757535219192504883e-01,9.716591238975524902e-01,8.954768180847167969e-01,9.935829639434814453e-01,8.004039525985717773e-01
9.757985472679138184e-01,4.567414224147796631e-01,9.336697459220886230e-01,9.876682162284851074e-01,8.871507048606872559e-01,9.775778651237487793e-01,7.009074687957763672e-01,9.936300516128540039e-01,9.178828001022338867e-01,9.429555535316467285e-01,9.341263771057128906e-02,8.478081971406936646e-02,9.649499654769897461e-01,8.867863416671752930e-01,9.566505551338195801e-01,9.904207587242126465e-01,6.987813711166381836e-01,9.902279376983642578e-01,3.007629513740539551e-01,9.961615800857543945e-01,9.723942875862121582e-01,8.583567142486572266e-01,3.541953861713409424e-02,2.027860581874847412e-01,6.449418663978576660e-01,9.857502579689025879e-01,1.444550696760416031e-02,9.640192389488220215e-01,9.410423636436462402e-01,9.098236560821533203e-01,9.709900617599487305e-01,9.901374578475952148e-01,8.831341266632080078e-01,7.357788681983947754e-01,9.849936962127685547e-01,9.549010992050170898e-01,9.910441637039184570e-01,9.864382147789001465e-01,9.818726181983947754e-01,9.907927513122558594e-01,4.667369425296783447e-01,9.613809585571289062e-01,8.978478312492370605e-01,9.707766175270080566e-01,9.826301932334899902e-01,6.391082406044006348e-01,9.656661748886108398e-01,8.671485781669616699e-01,9.872197508811950684e-01,7.498595714569091797e-01
9.747256040573120117e-01,4.794279336929321289e-01,9.373121857643127441e-01,9.864209294319152832e-01,9.177290201187133789e-01,9.846634864807128906e-01,2.894446849822998047e-01,9.894389510154724121e-01,9.193196892738342285e-01,9.714941978454589844e-01,4.270706176757812500e-01,2.264291197061538696e-01,9.681441187858581543e-01,7.872579693794250488e-01,9.582630395889282227e-01,9.874243736267089844e-01,6.477975249290466309e-01,9.887109398841857910e-01,8.346460461616516113e-01,9.870582222938537598e-01,9.815130233764648438e-01,8.851714730262756348e-01,4.142320454120635986e-01,1.220548525452613831e-01,5.594524145126342773e-01,9.883885383605957031e-01,-1.851603984832763672e-01,9.855632781982421875e-01,9.179851412773132324e-01,8.862431645393371582e-01,9.755755662918090820e-01,9.910693168640136719e-01,8.699210286140441895e-01,7.740971446037292480e-01,9.931057095527648926e-01,9.390110969543457031e-01,9.935136437416076660e-01,9.915649890899658203e-01,9.876111745834350586e-01,9.960075616836547852e-01,7.168536186218261719e-01,9.523311853408813477e-01,9.301865696907043457e-01,9.825769662857055664e-01,9.758571386337280273e-01,8.405686616897583008e-01,9.669840931892395020e-01,8.183847069740295410e-01,9.877753853797912598e-01,7.826986908912658691e-01
9.854758977890014648e-01,3.285697698593139648e-01,9.382217526435852051e-01,9.818614125251770020e-01,9.079050421714782715e-01,9.916659593582153320e-01,9.260618090629577637e-01,9.623202681541442871e-01,9.106959700584411621e-01,9.290923476219177246e-01,1.592374742031097412e-01,1.730129867792129517e-01,9.536620378494262695e-01,8.772274255752563477e-01,9.765487313270568848e-01,9.886174798011779785e-01,8.233499526977539062e-01,9.893368482589721680e-01,9.233967065811157227e-01,9.959278106689453125e-01,9.926240444183349609e-01,8.183583617210388184e-01,-9.154950827360153198e-02,1.103574782609939575e-01,8.776917457580566406e-01,9.879370927810668945e-01,4.245926141738891602e-01,9.818567633628845215e-01,9.262486696243286133e-01,8.266108036041259766e-01,9.705020189285278320e-01,9.907068014144897461e-01,7.503446936607360840e-01,8.988350629806518555e-01,9.950628876686096191e-01,9.326136112213134766e-01,9.945996999740600586e-01,9.930205345153808594e-01,9.827790856361389160e-01,9.959182143211364746e-01,7.592349052429199219e-01,9.568822979927062988e-01,9.091609716415405273e-01,9.834676980972290039e-01,9.844498634338378906e-01,8.642352819442749023e-01,9.624564647674560547e-01,9.192201495170593262e-01,9.957575201988220215e-01,6.566548943519592285e-01
9.923908710479736328e-01,5.153417587280273438e-01,8.987618684768676758e-01,9.770544767379760742e-01,8.866961598396301270e-01,9.910558462142944336e-01,9.333286881446838379e-01,8.977200984954833984e-01,9.316709637641906738e-01,9.601978063583374023e-01,3.963626548647880554e-02,1.445982009172439575e-01,9.695820212364196777e-01,8.326395153999328613e-01,9.752722978591918945e-01,9.911341071128845215e-01,5.979343652725219727e-01,9.941392540931701660e-01,8.449165821075439453e-01,9.922747015953063965e-01,9.821388125419616699e-01,9.170135259628295898e-01,4.691772162914276123e-01,1.622495055198669434e-01,8.274580836296081543e-01,9.588617086410522461e-01,2.000378221273422241e-01,9.840002655982971191e-01,9.133918881416320801e-01,8.212609291076660156e-01,9.774506688117980957e-01,9.902531504631042480e-01,8.823231458663940430e-01,9.003019332885742188e-01,9.950817823410034180e-01,9.623807072639465332e-01,9.937240481376647949e-01,9.927797317504882812e-01,9.802896976470947266e-01,9.909194111824035645e-01,3.128004968166351318e-01,9.551975727081298828e-01,8.605547547340393066e-01,9.797102212905883789e-01,9.691697955131530762e-01,5.539357066154479980e-01,9.530671238899230957e-01,7.685369253158569336e-01,9.807658791542053223e-01,7.119455933570861816e-01
9.925310611724853516e-01,9.353168308734893799e-02,8.639582991600036621e-01,9.450542926788330078e-01,8.009548783302307129e-01,9.935462474822998047e-01,9.209273457527160645e-01,8.425126075744628906e-01,9.103987812995910645e-01,9.609540700912475586e-01,2.445971369743347168e-01,-3.211050033569335938e-01,9.552440047264099121e-01,8.581689000129699707e-01,9.728365540504455566e-01,9.677437543869018555e-01,6.578708887100219727e-01,9.942789673805236816e-01,8.153253793716430664e-01,9.715391397476196289e-01,9.926203489303588867e-01,9.505267143249511719e-01,1.418797224760055542e-01,-3.120567202568054199e-01,8.298472166061401367e-01,9.963712692260742188e-01,-2.602976858615875244e-01,9.937936067581176758e-01,9.224460124969482422e-01,8.736919164657592773e-01,9.566736221313476562e-01,9.707942008972167969e-01,9.007971882820129395e-01,9.541567564010620117e-01,9.906913042068481445e-01,9.319781661033630371e-01,9.927850365638732910e-01,9.940434098243713379e-01,9.876219630241394043e-01,9.953447580337524414e-01,5.512966513633728027e-01,9.263634681701660156e-01,8.331852555274963379e-01,9.916208386421203613e-01,9.772476553916931152e-01,8.001058101654052734e-01,9.124811291694641113e-01,9.402925372123718262e-01,9.960317015647888184e-01,8.477185964584350586e-01
9.924363493919372559e-01,1.852376163005828857e-01,8.376092910766601562e-01,9.266726374626159668e-01,7.035397887229919434e-01,9.954606294631958008e-01,9.205591678619384766e-01,7.610531449317932129e-01,8.560394644737243652e-01,9.665847420692443848e-01,1.528377830982208252e-01,2.713328301906585693e-01,9.553014039993286133e-01,8.556975722312927246e-01,9.685098528861999512e-01,9.666481018066406250e-01,9.424239993095397949e-01,9.921625852584838867e-01,8.548215627670288086e-01,9.007079601287841797e-01,9.748857617378234863e-01,9.551234841346740723e-01,6.299130916595458984e-01,3.215748965740203857e-01,9.539504051208496094e-01,9.797502160072326660e-01,2.903344929218292236e-01,9.773727655410766602e-01,9.062980413436889648e-01,7.802721261978149414e-01,9.570917487144470215e-01,9.676766395568847656e-01,9.230681657791137695e-01,9.597384929656982422e-01,9.804477691650390625e-01,8.779822587966918945e-01,9.807222485542297363e-01,9.910736680030822754e-01,9.874404072761535645e-01,9.781314134597778320e-01,2.697360217571258545e-01,9.270931482315063477e-01,8.052411079406738281e-01,9.773885607719421387e-01,9.652412533760070801e-01,7.647994160652160645e-01,8.440902233123779297e-01,9.186097383499145508e-01,9.841668605804443359e-01,8.518704175949096680e-01
9.746585488319396973e-01,2.515552937984466553e-01,7.650468945503234863e-01,9.560329318046569824e-01,4.515035152435302734e-01,9.913995265960693359e-01,9.156095981597900391e-01,6.887086033821105957e-01,8.597858548164367676e-01,9.876394867897033691e-01,3.686834871768951416e-01,7.340998947620391846e-02,9.671822190284729004e-01,6.996676325798034668e-01,9.214851856231689453e-01,9.728517532348632812e-01,9.147849082946777344e-01,9.865324497222900391e-01,8.253154754638671875e-01,8.601825833320617676e-01,9.677494764328002930e-01,9.527311325073242188e-01,5.416871905326843262e-01,2.950988896191120148e-02,9.546490907669067383e-01,9.760582447052001953e-01,2.843251638114452362e-02,9.819315075874328613e-01,8.198805451393127441e-01,8.563386201858520508e-01,9.695948958396911621e-01,9.709376096725463867e-01,8.951957821846008301e-01,9.289065003395080566e-01,9.611902236938476562e-01,8.314400315284729004e-01,9.795406460762023926e-01,9.920434355735778809e-01,9.914498925209045410e-01,9.760985970497131348e-01,4.154133796691894531e-01,9.101396799087524414e-01,7.595913410186767578e-01,9.796779751777648926e-01,9.600226283073425293e-01,6.192013621330261230e-01,7.990836501121520996e-01,8.463851809501647949e-01,9.778738617897033691e-01,5.650581121444702148e-01
9.652860760688781738e-01,8.242260664701461792e-02,5.893355607986450195e-01,9.536394476890563965e-01,9.940110146999359131e-02,9.880165457725524902e-01,9.204705953598022461e-01,5.749799609184265137e-01,8.891469240188598633e-01,9.923806786537170410e-01,1.564619988203048706e-01,-3.108562435954809189e-03,9.746081233024597168e-01,5.608171224594116211e-01,9.209840297698974609e-01,9.757649898529052734e-01,8.584057688713073730e-01,9.832035899162292480e-01,7.810143828392028809e-01,8.929714560508728027e-01,9.258284568786621094e-01,9.719882607460021973e-01,7.592098712921142578e-01,-2.532676793634891510e-02,9.274899363517761230e-01,9.296041727066040039e-01,4.454409182071685791e-01,9.831209778785705566e-01,7.163742780685424805e-01,8.853336572647094727e-01,9.705662727355957031e-01,9.558165669441223145e-01,8.921660780906677246e-01,9.275187253952026367e-01,9.587860703468322754e-01,7.113245129585266113e-01,9.854100942611694336e-01,9.929661154747009277e-01,9.901467561721801758e-01,9.871626496315002441e-01,2.017487734556198120e-01,9.154866933822631836e-01,7.070943117141723633e-01,9.742121696472167969e-01,9.503236413002014160e-01,3.490984141826629639e-01,7.642673850059509277e-01,8.287069201469421387e-01,9.479290246963500977e-01,4.562260508537292480e-01
9.515113830566406250e-01,3.877334892749786377e-01,9.961801022291183472e-02,9.383829832077026367e-01,6.474169492721557617e-01,9.881035089492797852e-01,8.432059288024902344e-01,4.670786857604980469e-01,8.492364883422851562e-01,9.796787500381469727e-01,8.219145983457565308e-02,3.232342004776000977e-01,9.624548554420471191e-01,2.606409490108489990e-01,9.287167191505432129e-01,9.613394737243652344e-01,9.323100447654724121e-01,9.815058112144470215e-01,8.318327069282531738e-01,9.365525245666503906e-01,9.382787942886352539e-01,8.427425622940063477e-01,6.415357589721679688e-01,4.203667640686035156e-01,9.321135282516479492e-01,9.665948748588562012e-01,7.840014696121215820e-01,9.877443909645080566e-01,5.072389245033264160e-01,8.361694812774658203e-01,9.583951234817504883e-01,9.391448497772216797e-01,8.791308403015136719e-01,9.391555190086364746e-01,9.629662036895751953e-01,6.450674533843994141e-01,9.884259700775146484e-01,9.934445619583129883e-01,9.798831939697265625e-01,9.934409856796264648e-01,1.157884225249290466e-01,9.270742535591125488e-01,7.536988854408264160e-01,9.762403368949890137e-01,8.987006545066833496e-01,3.606373965740203857e-01,6.360167264938354492e-01,8.731220960617065430e-01,9.578026533126831055e-01,4.287124872207641602e-01
9.582781195640563965e-01,-6.554255634546279907e-02,4.544337093830108643e-01,9.130718708038330078e-01,3.640829026699066162e-01,9.710823893547058105e-01,9.272645711898803711e-01,4.785279929637908936e-01,7.611117362976074219e-01,9.858154654502868652e-01,-5.521520972251892090e-02,1.470907479524612427e-01,9.460614323616027832e-01,7.452043890953063965e-01,9.266877174377441406e-01,9.521611332893371582e-01,8.938227891921997070e-01,9.742965698242187500e-01,6.082169413566589355e-01,9.327997565269470215e-01,9.498755335807800293e-01,9.737485647201538086e-01,4.507537186145782471e-01,1.977089941501617432e-01,9.509457945823669434e-01,9.780589938163757324e-01,7.103908658027648926e-01,9.819428324699401855e-01,7.889830470085144043e-01,6.633888483047485352e-01,9.389580488204956055e-01,9.288057088851928711e-01,8.488246798515319824e-01,9.397895336151123047e-01,9.649422168731689453e-01,6.368545889854431152e-01,9.711382389068603516e-01,9.701596498489379883e-01,9.633965492248535156e-01,9.936476945877075195e-01,-7.318877577781677246e-01,9.070332050323486328e-01,6.168320178985595703e-01,9.603129625320434570e-01,9.866573214530944824e-01,-2.524688243865966797e-01,6.692923307418823242e-01,8.648027181625366211e-01,9.770220518112182617e-01,6.135846376419067383e-01
9.401090145111083984e-01,-4.401254653930664062e-01,-3.004660308361053467e-01,8.677605986595153809e-01,3.201760649681091309e-01,9.814784526824951172e-01,9.373111724853515625e-01,4.946446120738983154e-01,6.345859766006469727e-01,9.608845114707946777e-01,1.133958920836448669e-01,-2.028661966323852539e-01,9.353057146072387695e-01,3.136129677295684814e-01,8.836616873741149902e-01,9.323449730873107910e-01,8.087372779846191406e-01,9.837141036987304688e-01,8.246358633041381836e-01,8.966901898384094238e-01,9.754040241241455078e-01,9.740619063377380371e-01,5.943958759307861328e-01,-2.422853112220764160e-01,9.442234635353088379e-01,9.874930381774902344e-01,6.443244218826293945e-01,9.790400862693786621e-01,5.138886570930480957e-01,8.131210803985595703e-01,9.206953048706054688e-01,9.051796197891235352e-01,7.230393290519714355e-01,8.790682554244995117e-01,9.682181477546691895e-01,3.761180937290191650e-01,9.721998572349548340e-01,9.743906259536743164e-01,9.670262932777404785e-01,9.926870465278625488e-01,4.891476407647132874e-02,8.905755281448364258e-01,5.132484436035156250e-01,9.515101313591003418e-01,9.693633317947387695e-01,4.705798327922821045e-01,2.596377432346343994e-01,6.763812899589538574e-01,9.903460144996643066e-01,-2.032511234283447266e-01
9.187292456626892090e-01,7.496427893638610840e-01,-7.664401531219482422e-01,7.489811778068542480e-01,-7.977253198623657227e-02,9.795159101486206055e-01,9.911272525787353516e-01,4.571458995342254639e-01,5.875922441482543945e-01,9.325781464576721191e-01,2.174872606992721558e-01,4.483129084110260010e-01,8.919909596443176270e-01,3.717834353446960449e-01,9.483899474143981934e-01,8.864116668701171875e-01,8.080262541770935059e-01,9.687671661376953125e-01,9.471417665481567383e-01,8.412256836891174316e-01,9.667398333549499512e-01,9.468708634376525879e-01,8.575013875961303711e-01,5.960379242897033691e-01,9.559199810028076172e-01,9.824652671813964844e-01,8.398301005363464355e-01,9.801657795906066895e-01,3.396042883396148682e-01,5.173794627189636230e-01,8.577639460563659668e-01,8.334708213806152344e-01,7.833822965621948242e-01,9.689818024635314941e-01,9.670298695564270020e-01,3.147928416728973389e-01,9.643968343734741211e-01,9.779141545295715332e-01,9.588226675987243652e-01,9.535186290740966797e-01,4.343362450599670410e-01,8.711989521980285645e-01,2.115509808063507080e-01,9.528649449348449707e-01,9.902290701866149902e-01,3.154321908950805664e-01,6.423150002956390381e-02,9.396114945411682129e-01,9.825989603996276855e-01,3.914025127887725830e-01
